tree
version=v4
num_class=1
num_tree_per_iteration=1
label_index=0
max_feature_idx=12
objective=regression
feature_names=brand model color year power_kw power_ps transmission_type fuel_type fuel_consumption_l_100km fuel_consumption_g_km mileage_in_km reg_year reg_month
feature_infos=[0:28] [0:589] [0:14] [1995:2023] [6:735] [8:999] [0:3] [41:52] [0:739] [0:999] [0:3800000] [1995:2023] [1:12]
tree_sizes=2784 2804 2823 2836 2808 2818 2822 2825 2818 2818 2838 2825 2844 2817 2817 2838 2823 2833 2831 2825 2833 2834 2829 2848 2810 2857 2834 2816 2849 2864 2827 2844 2842 2868 2833 2623 2779 1645 1517 1728 2032 1113 2016 1270 1098 1897 1454 2025 1449 1201 2029 1755 1015 1108 1854 1202 1689 1211 1857 1132 1760 1446 1727 1761 1551 2284 1728 1678 1813 1361 2018 1631 2129 1460 2037 1452 1796 2222 1812 2032 1466 2206 1181 1770 1717 1562 1695 1447 1877 1447 2098 1629 1182 1850 1641 1942 1689 1851 1425 1813

Tree=0
num_leaves=31
num_cat=0
split_feature=4 4 4 10 0 10 3 10 4 0 4 4 10 10 10 3 3 10 8 10 0 0 4 4 4 4 0 1 1 4
split_gain=5.42055e+13 1.49072e+13 8.84767e+12 5.6563e+12 5.41975e+12 4.6265e+12 3.26008e+12 2.46232e+12 2.0518e+12 1.96197e+12 1.5414e+12 1.10023e+12 8.57743e+11 5.8718e+11 5.8541e+11 5.80544e+11 5.59585e+11 5.45717e+11 5.42989e+11 5.14095e+11 4.25086e+11 3.9006e+11 3.54666e+11 3.21833e+11 2.85511e+11 2.60761e+11 2.54943e+11 2.48107e+11 2.45409e+11 2.32139e+11
threshold=390.50000000000006 528.00000000000011 201.00000000000003 37744.000000000007 23.500000000000004 2587.5000000000005 2017.5000000000002 33790.500000000007 468.00000000000006 12.500000000000002 103.50000000000001 353.50000000000006 4177.0000000000009 15001.000000000002 116524.50000000001 2012.5000000000002 2021.5000000000002 9004.0000000000018 11.15 4177.0000000000009 25.500000000000004 23.500000000000004 291.00000000000006 129.50000000000003 465.00000000000006 118.50000000000001 14.500000000000002 323.50000000000006 65.500000000000014 404.50000000000006
decision_type=2 2 2 2 2 2 2 2 2 2 2 2 2 2 2 2 2 2 2 2 2 2 2 2 2 2 2 2 2 2
left_child=2 3 6 8 9 -6 15 11 19 28 -8 20 -10 27 22 -1 -12 -7 -5 26 -4 -14 -9 -17 -20 -18 -2 -11 -3 -21
right_child=1 4 7 18 5 17 10 14 12 13 16 -13 21 -15 -16 23 25 -19 24 29 -22 -23 -24 -25 -26 -27 -28 -29 -30 -31
leaf_value=26793.387067670803 50916.915485194208 52699.257202395995 32236.80520845381 31878.956333422724 135534.74718774756 90042.332187747554 27986.060428093369 30209.441941432888 63540.876076636443 77617.97544861713 29015.812727059176 38199.06196937299 47126.523585387011 54093.647187747556 28698.822848472737 27362.352859980183 29404.844071517698 67880.527187747561 36578.455560675167 48186.631484622558 35421.507880246951 56930.452743303118 32257.914501586805 28221.315612682101 43836.572258117507 30884.799657337782 42881.195294718709 66043.398800650786 38195.797247038849 41858.038343916422
leaf_weight=12890 164 20 2331 248 20 20 14973 2917 90 46 12715 437 93 21 1950 12563 2030 25 267 70 511 72 1190 6682 68 2879 52 31 28 337
leaf_count=12890 164 20 2331 248 20 20 14973 2917 90 46 12715 437 93 21 1950 12563 2030 25 267 70 511 72 1190 6682 68 2879 52 31 28 337
internal_value=28844.5 46650.1 28442.6 43061.7 71496.5 95516.2 28027.5 31320.5 48132 60802.8 28732.1 33527.7 55688 68915.7 30125.6 27312.7 29365.9 77730.2 35425.9 45039.2 32809.4 51404.6 30803 27660.6 38051.7 30272.8 48982.4 72958.1 44238.9 42946.5
internal_weight=75740 1672 74068 1461 211 65 64732 9336 878 146 32597 3279 255 98 6057 32135 17624 45 583 623 2842 165 4107 19245 335 4909 216 77 48 407
internal_count=75740 1672 74068 1461 211 65 64732 9336 878 146 32597 3279 255 98 6057 32135 17624 45 583 623 2842 165 4107 19245 335 4909 216 77 48 407
is_linear=0
shrinkage=1


Tree=1
num_leaves=31
num_cat=0
split_feature=4 4 4 10 0 10 3 10 4 0 4 4 10 3 10 10 9 10 4 4 0 3 4 4 0 8 4 4 1 4
split_gain=4.39065e+13 1.20748e+13 7.22816e+12 4.6244e+12 4.39e+12 3.74747e+12 2.52889e+12 2.16381e+12 1.85261e+12 1.58919e+12 1.00961e+12 9.50433e+11 7.05642e+11 6.65028e+11 5.3811e+11 5.31735e+11 4.8677e+11 4.42031e+11 4.13605e+11 4.12848e+11 3.80318e+11 3.49437e+11 3.3038e+11 3.28354e+11 2.99626e+11 2.81327e+11 2.22938e+11 2.06228e+11 1.98781e+11 1.85648e+11
threshold=390.50000000000006 528.00000000000011 190.50000000000003 43727.500000000007 23.500000000000004 2587.5000000000005 2018.5000000000002 33000.500000000007 468.00000000000006 12.500000000000002 93.500000000000014 353.50000000000006 4177.0000000000009 2014.5000000000002 99801.500000000015 15793.000000000002 290.50000000000006 9004.0000000000018 582.50000000000011 520.50000000000011 25.500000000000004 2021.5000000000002 112.50000000000001 279.50000000000006 14.500000000000002 11.15 118.50000000000001 241.00000000000003 65.500000000000014 130.50000000000003
decision_type=2 2 2 2 2 2 2 2 2 2 2 2 2 2 2 2 2 2 2 2 2 2 2 2 2 2 2 2 2 2
left_child=2 3 6 8 9 -6 13 11 15 28 -8 20 -10 -1 23 24 -11 -7 -18 -14 27 29 -15 -9 -2 -5 -23 -4 -3 -12
right_child=1 4 7 25 5 17 10 14 12 16 21 -13 19 22 -16 -17 18 -19 -20 -21 -22 26 -24 -25 -26 -27 -28 -29 -30 -31
leaf_value=-1718.5233834424098 17928.86811647053 21469.284926757813 2104.1137294140985 2600.462206860806 96021.226250000007 55078.052500000005 -825.72671968371492 1220.4165826944206 31226.741388888891 43405.588331117026 -300.56896864584155 8440.3863602636047 22075.260267137099 -1203.7077804287189 21.627609052355329 10729.655219630489 20114.5458125 35132.427125000002 38129.00021033654 6808.982382202149 5954.0199265069168 534.03614642694026 -367.04157703472401 3206.8162523630685 11575.041551979302 7300.569608531925 1795.0207699032462 3874.0257012202819 8416.1703107561389 547.01800665060682
leaf_weight=18203 316 20 1360 235 20 20 9189 2964 90 47 4916 433 155 12303 3024 270 25 25 26 20 506 2999 7657 1157 97 278 2633 1276 28 5448
leaf_count=18203 316 20 1360 235 20 20 9189 2964 90 47 4916 433 155 12303 3024 270 25 25 26 20 506 2999 7657 1157 97 278 2633 1276 28 5448
internal_value=1.11742e-05 16025 -361.747 12795.5 38386.8 60004.6 -768.124 2039.67 16934.1 28762.5 9.64139 4048.19 24031.1 -1281.4 1034.71 14180.5 36064.1 43997.1 29298.4 20330.5 3442.9 489.524 -882.748 1778.11 16436.6 5147.5 1123.56 2960.87 13855 144.978
internal_weight=75740 1672 74068 1461 211 65 63348 10720 948 146 25185 3575 265 38163 7145 683 98 45 51 175 3142 15996 19960 4121 413 513 5632 2636 48 10364
internal_count=75740 1672 74068 1461 211 65 63348 10720 948 146 25185 3575 265 38163 7145 683 98 45 51 175 3142 15996 19960 4121 413 513 5632 2636 48 10364
is_linear=0
shrinkage=0.1


Tree=2
num_leaves=31
num_cat=0
split_feature=4 4 4 0 4 10 3 3 10 4 0 4 3 0 0 3 0 0 4 3 1 10 0 9 3 10 4 9 4 1
split_gain=3.56652e+13 1.1985e+13 5.09241e+12 4.39714e+12 4.07343e+12 1.91846e+12 1.90703e+12 1.51828e+12 1.31263e+12 9.25253e+11 7.12574e+11 6.83997e+11 5.39103e+11 5.35021e+11 5.00744e+11 4.8083e+11 4.09274e+11 6.02044e+11 3.91167e+11 3.54547e+11 3.49862e+11 3.26393e+11 3.0065e+11 2.86998e+11 2.82945e+11 2.37712e+11 2.18572e+11 1.79749e+11 1.76115e+11 1.49499e+11
threshold=461.50000000000006 335.50000000000006 562.50000000000011 23.500000000000004 176.50000000000003 21520.500000000004 2018.5000000000002 2020.5000000000002 21520.500000000004 390.50000000000006 12.500000000000002 93.500000000000014 2016.5000000000002 3.5000000000000004 23.500000000000004 2013.5000000000002 14.500000000000002 2.5000000000000004 528.00000000000011 2020.5000000000002 314.00000000000006 66001.000000000015 25.500000000000004 345.50000000000006 2020.5000000000002 8286.5000000000018 105.50000000000001 241.50000000000003 207.00000000000003 496.50000000000006
decision_type=2 2 2 2 2 2 2 2 2 2 2 2 2 2 2 2 2 2 2 2 2 2 2 2 2 2 2 2 2 2
left_child=1 4 8 19 6 9 15 12 10 29 13 -8 23 -2 -10 -1 17 -11 25 -4 -20 27 28 -6 -13 -12 -17 -7 -9 -3
right_child=2 5 3 -5 7 21 11 22 14 16 18 24 -14 -15 -16 26 -18 -19 20 -21 -22 -23 -24 -25 -26 -27 -28 -29 -30 -31
leaf_value=-1666.5881182723581 21968.522890625001 6300.548355194398 18858.240399460567 74821.002159926473 -308.9128438030553 3481.4009374009383 -743.15404523173231 1686.8072810183749 10103.721453807393 10350.379325810187 28218.80545922256 -79.776151885780692 1258.480071024378 6140.5237792968755 21525.771930803574 -1233.6065732133275 8204.0151585629119 18848.175499760338 43851.284049479174 35384.300551470595 28900.600210503471 2763.238859524803 5546.6182545531974 5056.0259756948435 795.75116360695051 19625.745034271818 -596.12712490173953 7077.0304114175642 3484.6693793723762 10384.618188476563
leaf_weight=14345 90 299 21 34 4446 191 9189 890 122 135 82 7420 5933 28 56 10904 95 218 24 34 45 504 477 102 7345 53 10614 511 1405 128
leaf_count=14345 90 299 21 34 4446 191 9189 890 122 135 82 7420 5933 28 56 10904 95 218 24 34 45 504 477 102 7345 53 10614 511 1405 128
internal_value=3.14639e-06 -192.11 24511.5 46550.6 -405.227 7291.04 -756.67 1181 20588.5 10855.6 24398 -65.7923 630.555 18212.7 13697.2 -1218.13 14030.3 15598.3 27975.8 29074.4 34100.8 4704.79 3262.25 -188.591 355.764 24845.2 -919.163 6098.73 2787.46 7524.81
internal_weight=75740 75151 589 89 73070 2081 59817 13253 500 875 322 23954 10481 118 178 35863 448 353 204 55 69 1206 2772 4548 14765 135 21518 702 2295 427
internal_count=75740 75151 589 89 73070 2081 59817 13253 500 875 322 23954 10481 118 178 35863 448 353 204 55 69 1206 2772 4548 14765 135 21518 702 2295 427
is_linear=0
shrinkage=0.1


Tree=3
num_leaves=31
num_cat=0
split_feature=4 4 4 4 0 3 10 10 6 10 0 4 0 10 0 3 10 3 4 3 4 0 0 4 4 0 4 4 3 10
split_gain=2.89111e+13 7.95577e+12 4.79263e+12 3.72475e+12 3.56168e+12 1.85145e+12 1.67603e+12 1.50773e+12 1.02836e+12 9.02605e+11 5.06108e+11 4.83744e+11 4.64287e+11 4.03887e+11 3.981e+11 3.78959e+11 3.71553e+11 2.87183e+11 2.7552e+11 2.46034e+11 2.18966e+11 1.90354e+11 3.37976e+11 1.83497e+11 1.72772e+11 1.71355e+11 1.66879e+11 1.55231e+11 1.49538e+11 1.43836e+11
threshold=390.50000000000006 468.00000000000006 207.00000000000003 562.50000000000011 23.500000000000004 2016.5000000000002 43727.500000000007 29733.000000000004 1.0000000180025095e-35 21520.500000000004 12.500000000000002 353.50000000000006 3.5000000000000004 89894.500000000015 23.500000000000004 2020.5000000000002 4177.0000000000009 2020.5000000000002 528.00000000000011 2010.5000000000002 118.50000000000001 2.5000000000000004 14.500000000000002 143.50000000000003 279.50000000000006 25.500000000000004 404.50000000000006 105.50000000000001 2014.5000000000002 48991.000000000007
decision_type=2 2 2 2 2 2 2 2 2 2 2 2 2 2 2 2 2 2 2 2 2 2 2 2 2 2 2 2 2 2
left_child=2 6 5 9 17 19 16 11 15 10 12 25 -3 24 29 23 21 -5 -12 -1 -17 -2 -23 -7 -9 -4 -18 -21 -15 -11
right_child=1 3 7 4 -6 8 -8 13 -10 14 18 -13 -14 28 -16 20 26 -19 -20 27 -22 22 -24 -25 -26 -27 -28 -29 -30 -31
leaf_value=-1662.2443399886358 10059.817930024246 20643.254118868674 2885.6497782572192 16972.416044689362 67338.902470128683 -225.765086664481 3766.2798299793499 1262.309098166895 -686.38951613867152 12045.309089279175 22760.410292154949 7081.8985253604842 4761.7141560872396 -596.99732776806593 19405.823238636363 324.68568237809063 14265.461605143231 31845.870818014708 30690.753993999097 -1319.0770919615627 1431.6935932521869 19997.510780881486 10154.753027343751 580.54606971283965 2804.2367324700822 5041.6060514121227 9116.9024071362564 -732.55393227729633 864.12932182134341 3683.4804534912109
leaf_weight=8693 58 79 1794 21 34 9019 469 2036 18329 48 120 405 24 1343 55 3273 75 34 69 8699 3935 106 52 4108 1130 464 392 9376 1464 36
leaf_count=8693 58 79 1794 21 34 9019 469 2036 18329 48 120 405 24 1343 55 3273 75 34 69 8699 3935 106 52 4108 1130 464 392 9376 1464 36
internal_value=6.66434e-06 13003.7 -293.544 23270.8 41895.5 -585.779 8369.25 1920.62 -143.175 19424.8 22582.2 3899.49 16942.7 1038.37 12792.1 346.453 11530 26166.9 25655.6 -1225.08 929.025 14959.5 16758.1 26.5642 1812.65 3328.68 9943.76 -1014.83 165.058 8461.67
internal_weight=75740 1672 74068 520 89 65432 1152 8636 38664 431 292 2663 103 5973 139 20335 683 55 189 26768 7208 216 158 13127 3166 2258 467 18075 2807 84
internal_count=75740 1672 74068 520 89 65432 1152 8636 38664 431 292 2663 103 5973 139 20335 683 55 189 26768 7208 216 158 13127 3166 2258 467 18075 2807 84
is_linear=0
shrinkage=0.1


Tree=4
num_leaves=31
num_cat=0
split_feature=4 4 4 0 3 4 10 4 10 0 0 4 4 0 1 4 0 0 10 10 3 10 10 8 8 3 3 3 0 9
split_gain=2.35253e+13 7.98166e+12 3.32129e+12 2.88496e+12 2.12019e+12 1.66988e+12 1.52531e+12 1.44697e+12 8.80054e+11 5.51196e+11 4.16791e+11 3.76917e+11 3.69663e+11 3.44742e+11 3.3811e+11 3.08542e+11 2.74032e+11 4.23517e+11 2.4999e+11 2.39516e+11 2.09363e+11 1.9071e+11 1.84253e+11 1.82476e+11 1.81769e+11 1.77253e+11 1.74603e+11 1.53984e+11 1.48529e+11 1.43113e+11
threshold=461.50000000000006 291.00000000000006 562.50000000000011 23.500000000000004 2017.5000000000002 143.50000000000003 22177.000000000004 376.00000000000006 7646.5000000000009 23.500000000000004 12.500000000000002 131.50000000000003 93.500000000000014 25.500000000000004 323.50000000000006 353.50000000000006 14.500000000000002 12.500000000000002 4177.0000000000009 79802.000000000015 2020.5000000000002 55804.500000000007 164275.50000000003 14.65 11.15 2019.5000000000002 2003.5000000000002 2011.5000000000002 23.500000000000004 197.50000000000003
decision_type=2 2 2 2 2 2 2 2 2 2 2 2 2 2 2 2 2 2 2 2 2 2 2 2 2 2 2 2 2 2
left_child=1 4 8 18 11 12 7 -3 10 21 23 27 -6 20 -12 26 17 -9 -4 24 -7 -10 -13 -2 -17 -14 -8 -1 -18 -15
right_child=2 6 3 -5 5 13 15 16 9 -11 14 22 25 29 -16 19 28 -19 -20 -21 -22 -23 -24 -25 -26 -27 -28 -29 -30 -31
leaf_value=-1555.1246054119106 19184.512539785879 4194.3760114773513 29265.916595458984 60605.011534926474 -692.35436790552171 586.96353986158567 9178.2982264364928 10838.245580193092 11672.784444516665 19238.503445312501 34726.624676724139 -226.16514193791687 -300.48228077202242 1885.5708793366744 22462.829040039065 3293.108975115797 2907.3053193933829 20356.602643952545 15597.955664062501 1730.3818792340073 1610.7642788254959 3844.3850063226164 -1036.1780485124573 8704.8380533854179 6491.433339836025 383.40255998246556 1587.2771034303257 -1006.2009169325647 9193.0073578521096 3914.7994356447034
leaf_weight=7892 54 846 32 34 11707 4844 31 348 154 100 29 7987 7282 893 100 323 51 54 23 311 3399 39 4331 24 395 7903 1343 14499 143 569
leaf_count=7892 54 846 32 34 11707 4844 31 348 154 100 29 7987 7282 893 100 323 51 54 23 311 3399 39 4331 24 395 7903 1343 14499 143 569
internal_value=8.55304e-07 -156.025 19907.4 37706 -395.337 135.697 4282.04 6853.18 16739.2 13212.9 21730.6 -955.257 -270.098 1260.13 25219.8 2739.15 10627.2 12116.8 23550.2 4048.53 1009.13 10090.9 -510.965 15960 5052.63 55.4441 1758.54 -1199.68 7540.58 2675.33
internal_weight=75740 75151 589 89 71306 36597 3845 1442 500 293 207 34709 26892 9705 129 2403 596 402 55 1029 8243 193 12318 78 718 15185 1374 22391 194 1462
internal_count=75740 75151 589 89 71306 36597 3845 1442 500 293 207 34709 26892 9705 129 2403 596 402 55 1029 8243 193 12318 78 718 15185 1374 22391 194 1462
is_linear=0
shrinkage=0.1


Tree=5
num_leaves=31
num_cat=0
split_feature=4 4 4 10 4 3 10 4 10 8 6 10 0 1 4 0 3 4 4 1 10 3 10 4 8 1 1 7 1 10
split_gain=1.90555e+13 6.50193e+12 2.69024e+12 2.40353e+12 1.87869e+12 1.51387e+12 1.04629e+12 8.60874e+11 7.23955e+11 4.95083e+11 3.98986e+11 3.84278e+11 3.78827e+11 3.33629e+11 3.13867e+11 2.64658e+11 2.56472e+11 2.45667e+11 2.24041e+11 2.51145e+11 2.07499e+11 1.97751e+11 1.78424e+11 1.58883e+11 1.58668e+11 1.46615e+11 1.62164e+11 1.43823e+11 1.30627e+11 1.24675e+11
threshold=461.50000000000006 245.50000000000003 562.50000000000011 633.00000000000011 353.50000000000006 2018.5000000000002 20103.000000000004 118.50000000000001 22851.000000000004 15.050000000000002 1.0000000180025095e-35 13866.500000000002 12.500000000000002 170.50000000000003 390.50000000000006 23.500000000000004 2021.5000000000002 409.50000000000006 528.00000000000011 314.00000000000006 74000.500000000015 2014.5000000000002 4177.0000000000009 75.500000000000014 11.15 556.50000000000011 560.50000000000011 43.500000000000007 556.50000000000011 89894.500000000015
decision_type=2 2 2 2 2 2 2 2 2 2 2 2 2 2 2 2 2 2 2 2 2 2 2 2 2 2 2 2 2 2
left_child=1 5 8 -4 11 10 14 23 12 -5 21 25 13 -2 28 -10 -9 -16 22 -20 24 -1 -14 -7 -8 -3 -27 -18 -6 -13
right_child=2 4 3 9 6 7 20 16 15 -11 -12 29 18 -15 17 -17 27 -19 19 -21 -22 -23 -24 -25 -26 26 -28 -29 -30 -31
leaf_value=-853.40700500603452 16176.422229646383 3181.4791982793622 60980.014514160161 16116.642880588108 5486.7415593180631 -786.96678526408323 3043.2507364547291 493.38512445225564 7078.3865886293615 33673.445918642239 -1059.9122982695503 1795.0366652839448 21973.261027405755 3579.3906168619792 13175.950242426154 15500.675738636364 2280.3365847039704 8350.3146072917934 33308.648893229169 20689.592743716035 1763.3181230987634 -163.04298934762974 14732.223948215797 -106.39601128358082 6076.6076812823621 12333.109878700658 4474.8031709558827 1003.9522908696608 11878.342959255642 462.87791418926838
leaf_weight=6782 95 761 24 36 286 4906 313 7960 116 29 23879 2042 63 27 178 55 1443 259 24 46 362 10688 74 11404 384 38 85 2274 36 1071
leaf_count=6782 95 761 24 36 286 4906 313 7960 116 29 23879 2042 63 27 178 55 1443 259 24 46 362 10688 74 11404 384 38 85 2274 36 1071
internal_value=4.11657e-06 -140.423 17916.7 33935.4 3071.45 -409.793 5736.61 158.168 15065.3 23949.7 -794.216 1859.23 17808.6 13388.6 8570.33 9787.31 813.639 10315.9 20413.7 25016.1 3705.64 -431.048 18062 -311.11 4714.43 3699.23 6902.57 1499.47 6201.33 1336.72
internal_weight=75740 75151 589 89 5815 69336 1818 27987 500 65 41349 3997 329 122 759 171 11677 437 207 70 1059 17470 137 16310 697 884 123 3717 322 3113
internal_count=75740 75151 589 89 5815 69336 1818 27987 500 65 41349 3997 329 122 759 171 11677 437 207 70 1059 17470 137 16310 697 884 123 3717 322 3113
is_linear=0
shrinkage=0.1


Tree=6
num_leaves=31
num_cat=0
split_feature=4 4 4 0 3 10 0 4 4 10 0 4 1 3 3 0 0 3 3 0 0 10 4 3 8 7 9 0 4 8
split_gain=1.55314e+13 4.5289e+12 2.78186e+12 2.227e+12 1.25096e+12 1.20578e+12 1.18824e+12 9.12167e+11 8.17087e+11 4.43126e+11 3.91082e+11 2.96901e+11 2.69695e+11 2.48728e+11 2.18543e+11 2.13375e+11 2.10062e+11 3.11424e+11 2.05189e+11 1.84333e+11 3.2137e+11 1.80814e+11 1.70303e+11 1.60535e+11 1.43071e+11 1.38187e+11 1.37224e+11 1.34656e+11 1.21036e+11 1.04103e+11
threshold=447.50000000000006 245.50000000000003 562.50000000000011 23.500000000000004 2017.5000000000002 15793.000000000002 12.500000000000002 387.00000000000006 130.50000000000003 7646.5000000000009 1.5000000000000002 353.50000000000006 323.50000000000006 2011.5000000000002 2021.5000000000002 23.500000000000004 3.5000000000000004 2018.5000000000002 2020.5000000000002 14.500000000000002 2.5000000000000004 52395.500000000007 138.50000000000003 2020.5000000000002 13.050000000000002 43.500000000000007 276.50000000000006 23.500000000000004 404.50000000000006 14.250000000000002
decision_type=2 2 2 2 2 2 2 2 2 2 2 2 2 2 2 2 2 2 2 2 2 2 2 2 2 2 2 2 2 2
left_child=1 4 6 23 13 7 10 27 18 12 -2 29 -8 -1 -10 26 17 -12 -6 20 -9 24 -15 -4 -13 -16 -11 -3 -21 -7
right_child=2 5 3 -5 8 11 9 19 14 15 16 21 -14 22 25 -17 -18 -19 -20 28 -22 -23 -24 -25 -26 -27 -28 -29 -30 -31
leaf_value=-1191.1253648066388 17378.221199776784 3086.2324385273619 11230.236476934524 50660.895174632358 -588.65396308280367 1004.5776606719897 28324.823356681034 6425.7682166466348 428.49212185745586 13719.752071220932 3750.0436884095398 3544.493302401504 17667.16364503817 -786.53270243031602 2253.2091732055187 15631.222878502156 2954.6082893435696 12227.118949381511 28.699732371267284 11021.120394405243 13593.083867436308 1905.3108886376497 -182.73755299232275 22350.560986328128 7491.7323310577403 903.5742739386169 6343.5673231781511 5760.7143095619658 3577.9842890559021 3123.227682721285
leaf_weight=11082 35 963 21 34 12677 2784 29 104 9936 43 79 346 131 16343 1143 116 119 96 9358 31 157 535 6541 34 125 2256 61 234 74 253
leaf_count=11082 35 963 21 34 12677 2784 29 104 9936 43 79 346 131 16343 1143 116 119 96 9358 31 157 535 6541 34 125 2256 61 234 74 253
internal_value=2.11339e-06 -147.768 13877.3 30541.8 -368.814 2586.16 11785.4 4944.89 47.4296 15594.6 7385.69 1674.28 19598.9 -802.262 665.27 12682.4 6196.11 8400.32 -326.471 9313.71 10737.1 3163.22 -613.948 18104.6 4592.06 1357.42 9393.34 3609.06 5775.48 1181.07
internal_weight=75740 74942 798 89 69336 5606 709 1563 35370 380 329 4043 160 33966 13335 220 294 175 22035 366 261 1006 22884 55 471 3399 104 1197 105 3037
internal_count=75740 74942 798 89 69336 5606 709 1563 35370 380 329 4043 160 33966 13335 220 294 175 22035 366 261 1006 22884 55 471 3399 104 1197 105 3037
is_linear=0
shrinkage=0.1


Tree=7
num_leaves=31
num_cat=0
split_feature=4 4 4 10 6 10 0 4 3 10 8 0 9 10 3 9 1 10 4 0 3 0 0 0 9 0 4 4 4 7
split_gain=1.25876e+13 3.61992e+12 2.30343e+12 2.01657e+12 1.06406e+12 9.89545e+11 8.95297e+11 7.43135e+11 6.37354e+11 3.86247e+11 3.42389e+11 2.94221e+11 2.7193e+11 2.46665e+11 2.41881e+11 2.26105e+11 2.23613e+11 2.11183e+11 1.86646e+11 1.71733e+11 2.37224e+11 1.52063e+11 2.64547e+11 1.31826e+11 1.11151e+11 1.09072e+11 1.08671e+11 1.01312e+11 9.80395e+10 9.456e+10
threshold=446.00000000000006 245.50000000000003 551.50000000000011 633.00000000000011 1.0000000180025095e-35 15793.000000000002 12.500000000000002 387.00000000000006 2019.5000000000002 7646.5000000000009 14.850000000000003 1.5000000000000002 161.50000000000003 67506.000000000015 2015.5000000000002 306.50000000000006 323.50000000000006 145011.50000000003 165.50000000000003 3.5000000000000004 2018.5000000000002 14.500000000000002 2.5000000000000004 23.500000000000004 276.50000000000006 23.500000000000004 75.500000000000014 368.50000000000006 404.50000000000006 44.500000000000007
decision_type=2 2 2 2 2 2 2 2 2 2 2 2 2 2 2 2 2 2 2 2 2 2 2 2 2 2 2 2 2 2
left_child=1 4 6 -4 8 7 11 25 17 16 -5 -2 -10 15 -6 27 -8 18 -1 20 -13 22 -9 24 -11 -3 -16 -7 -23 -27
right_child=2 5 3 10 14 13 9 21 12 23 -12 19 -14 -15 26 -17 -18 -19 -20 -21 -22 28 -24 -25 -26 29 -28 -29 -30 -31
leaf_value=-267.43737679690202 14961.241705643502 2777.6091714385639 51631.653678385424 8898.029640625 -1022.8231601851318 1337.016059886708 25492.341298491381 5776.2017113546726 397.6390651915425 12347.776780523258 22972.70359061105 3947.0474848970453 1524.4610986983571 667.63006499557923 -807.46064122739142 4633.5197499171481 15738.306900516633 -738.70196882049481 464.71955248112891 2659.147443517717 11032.781510331004 9919.0081708354337 12306.314957995293 13430.911697247706 5709.2105396708503 10750.718055555557 -328.66381504310863 3060.857171881587 3220.1858545251798 4458.6330304426847
leaf_weight=11612 38 963 24 25 14729 1309 29 103 8111 43 56 94 2910 1925 7242 331 124 6036 4973 119 95 31 156 109 61 27 13723 461 74 207
leaf_count=11612 38 963 24 25 14729 1309 29 103 8111 43 56 94 2910 1925 7242 331 124 6036 4973 119 95 31 156 109 61 27 13723 461 74 207
internal_value=-3.07272e-06 -134.621 12345.4 26172.2 -331.932 2314.06 10306.3 4451.35 71.583 13754.1 18628.7 6659.26 695.167 1485.37 -712.25 2234.6 17587.1 -232.228 -47.9007 5634.98 7508.66 8408.01 9709.4 11000.9 8454 3248.16 -494.056 1785.99 5197.93 5184.64
internal_weight=75740 74923 817 105 69336 5587 712 1561 33642 366 81 346 11021 4026 35694 2101 153 22621 16585 308 189 364 259 213 104 1197 20965 1770 105 234
internal_count=75740 74923 817 105 69336 5587 712 1561 33642 366 81 346 11021 4026 35694 2101 153 22621 16585 308 189 364 259 213 104 1197 20965 1770 105 234
is_linear=0
shrinkage=0.1


Tree=8
num_leaves=31
num_cat=0
split_feature=4 4 4 0 12 10 10 3 0 4 10 4 3 4 3 7 0 0 0 3 4 9 4 3 1 8 0 1 0 0
split_gain=1.02518e+13 2.88372e+12 1.89255e+12 1.43782e+12 2.0497e+12 1.17761e+12 6.97447e+11 6.29474e+11 5.94671e+11 4.15104e+11 3.18264e+11 2.79126e+11 2.2042e+11 2.04874e+11 2.04779e+11 1.86304e+11 1.73101e+11 2.84484e+11 1.5044e+11 1.55988e+11 1.40318e+11 1.31054e+11 1.75992e+11 1.66873e+11 1.25392e+11 1.06398e+11 1.00174e+11 9.74526e+10 9.31997e+10 1.13159e+11
threshold=390.50000000000006 528.00000000000011 176.50000000000003 23.500000000000004 7.5000000000000009 43727.500000000007 44927.500000000007 2019.5000000000002 12.500000000000002 468.00000000000006 1000.5000000000001 353.50000000000006 2014.5000000000002 520.50000000000011 2017.5000000000002 43.500000000000007 2.5000000000000004 3.5000000000000004 25.500000000000004 2004.5000000000002 95.500000000000014 290.50000000000006 582.50000000000011 2021.5000000000002 55.500000000000007 11.350000000000003 5.5000000000000009 65.500000000000014 1.0000000180025095e-35 3.5000000000000004
decision_type=2 2 2 2 2 2 2 2 2 2 2 2 2 2 2 2 2 2 2 2 2 2 2 2 2 2 2 2 2 2
left_child=2 5 7 8 -5 9 11 12 27 16 -11 18 -1 -12 -8 -9 24 -18 19 -4 -14 23 -23 -10 -2 -7 -17 -3 -13 -30
right_child=1 3 6 4 -6 25 14 15 21 10 13 28 20 -15 -16 26 17 -19 -20 -21 -22 22 -24 -25 -26 -27 -28 -29 29 -31
leaf_value=-899.84705024572111 8683.3992537588456 9375.7697656250002 9321.4341873168942 17902.229613095238 55039.804619565228 763.80586868030764 -42.090216266141923 633.9778971220162 26567.727452256946 19598.524693080359 11111.879575101178 525.86993328441281 -729.51045729126417 947.3583917791193 940.91310699875305 511.47773296692134 11288.076725019648 6190.9437450028699 2775.5724236420724 1234.6237938235934 -253.71323471873907 8128.8041874999999 19879.803947566106 14516.115756835938 3024.9142488606776 3650.8310626398911 -245.76852004583503 236.24973144531251 7232.8350139749455 3584.0585237994887
leaf_weight=17204 53 20 24 42 23 239 5623 4726 27 42 201 66 10142 22 3401 2132 169 311 818 3885 15940 25 26 20 150 274 9673 28 116 318
leaf_count=17204 53 20 24 42 23 239 5623 4726 27 42 201 66 10142 22 3401 2132 169 311 818 3885 15940 25 26 20 150 274 9673 28 116 318
internal_value=-2.16244e-07 7743.45 -174.8 18671.5 31043.2 6165.21 860.814 -421.528 13163.5 8253.69 11613.1 1780.01 -621.999 10109.1 328.388 103.402 6950.26 7985.56 1542.34 1284.27 -438.727 17630.1 14119.5 21439.4 4502.25 2305.8 -109.009 4044.38 4026.89 4559.31
internal_weight=75740 1672 74068 211 65 1461 14251 59817 146 948 265 5227 43286 223 9024 16531 683 480 4727 3909 26082 98 51 47 203 513 11805 48 500 434
internal_count=75740 1672 74068 211 65 1461 14251 59817 146 948 265 5227 43286 223 9024 16531 683 480 4727 3909 26082 98 51 47 203 513 11805 48 500 434
is_linear=0
shrinkage=0.1


Tree=9
num_leaves=31
num_cat=0
split_feature=4 4 10 4 0 6 10 0 4 10 4 10 8 10 4 4 4 0 4 10 0 0 0 4 9 0 3 10 3 0
split_gain=8.3303e+12 2.44778e+12 1.61687e+12 1.38604e+12 1.70652e+12 7.36062e+11 6.99331e+11 5.17757e+11 4.3335e+11 4.29231e+11 2.27085e+11 1.93596e+11 2.01335e+11 1.61657e+11 1.6129e+11 1.56498e+11 1.50383e+11 1.44214e+11 1.4305e+11 1.56414e+11 1.37621e+11 1.25605e+11 2.35485e+11 1.11077e+11 9.82143e+10 9.6794e+10 1.16226e+11 8.93913e+10 8.04208e+10 8.02215e+10
threshold=446.00000000000006 245.50000000000003 4177.0000000000009 562.50000000000011 23.500000000000004 1.0000000180025095e-35 11899.000000000002 12.500000000000002 387.00000000000006 84255.000000000015 146.50000000000003 100001.00000000001 13.050000000000002 89894.500000000015 534.00000000000011 528.00000000000011 414.00000000000006 23.500000000000004 470.50000000000006 251.00000000000003 25.500000000000004 3.5000000000000004 2.5000000000000004 66.500000000000014 276.50000000000006 3.5000000000000004 2018.5000000000002 22177.000000000004 2009.5000000000002 25.500000000000004
decision_type=2 2 2 2 2 2 2 2 2 2 2 2 2 2 2 2 2 2 2 2 2 2 2 2 2 2 2 2 2 2
left_child=1 5 3 14 -5 9 8 25 29 10 -1 12 -8 23 18 17 -14 24 -2 -20 -12 22 -10 -7 -9 26 -4 -17 -11 -3
right_child=2 6 7 4 -6 13 11 15 21 28 20 -13 16 -15 -16 27 -18 -19 19 -21 -22 -23 -24 -25 -26 -27 -28 -29 -30 -31
leaf_value=94.044631969512466 9975.0040830550661 2419.8202655690143 3021.946189607319 15438.420722579956 50713.640218098961 -816.84710681740683 1302.9851922699552 9204.0640252976191 4862.155638056216 -955.50391864748281 601.65297615704822 91.520598498836264 2803.5537888382423 -835.00818359362131 5229.6169609375002 15882.512873787717 7906.5218981193775 11015.067569405692 22139.869453125 13687.145572408042 1765.4789514638023 4608.2122100014722 11732.402579827265 -273.08929119450403 2614.064696269133 1558.3647058823531 8127.9059714181094 8268.081305803571 -270.93357090627728 4626.6682302530526
leaf_weight=12557 62 822 95 32 24 4956 2650 42 92 2019 6422 1049 462 15213 25 58 66 112 30 81 1207 131 109 15525 49 102 84 21 11437 206
leaf_count=12557 62 822 95 32 24 4956 2650 42 92 2019 6422 1049 462 15213 25 58 66 112 30 81 1207 131 109 15525 49 102 84 21 11437 206
internal_value=-2.4835e-06 -109.514 10043 16666.2 30556.4 -271.766 1904.06 7054.96 3876.48 63.8439 355.477 1269.46 1658.27 -588.082 12737.6 10082.1 3441.42 8612.55 13822.6 15971.7 785.784 7017.55 8587.81 -404.668 5655.6 4017.02 5418.04 13858.4 -373.65 2862.05
internal_weight=75740 74923 817 254 56 69336 5587 563 1360 33642 20186 4227 3178 35694 198 282 528 203 173 111 7629 332 201 20481 91 281 179 79 13456 1028
internal_count=75740 74923 817 254 56 69336 5587 563 1360 33642 20186 4227 3178 35694 198 282 528 203 173 111 7629 332 201 20481 91 281 179 79 13456 1028
is_linear=0
shrinkage=0.1


Tree=10
num_leaves=31
num_cat=0
split_feature=4 4 10 0 4 3 3 10 10 8 0 4 10 7 0 10 7 9 0 0 0 8 10 10 7 10 3 4 10 4
split_gain=6.80623e+12 2.34118e+12 1.42055e+12 1.99116e+12 9.63364e+11 4.51797e+11 4.0441e+11 3.99924e+11 3.75482e+11 2.14077e+11 2.08284e+11 1.63538e+11 1.42199e+11 1.41553e+11 1.39223e+11 1.27093e+11 1.2394e+11 1.18625e+11 1.18028e+11 2.56726e+11 2.37249e+11 1.16399e+11 1.14367e+11 1.06896e+11 1.04847e+11 1.02171e+11 9.3954e+10 8.70783e+10 8.31688e+10 8.14201e+10
threshold=353.50000000000006 468.00000000000006 251.00000000000003 23.500000000000004 176.50000000000003 2019.5000000000002 2019.5000000000002 21520.500000000004 21520.500000000004 13.750000000000002 12.500000000000002 87.500000000000014 135000.50000000003 43.500000000000007 1.0000000180025095e-35 152688.50000000003 43.500000000000007 241.50000000000003 3.5000000000000004 2.5000000000000004 12.500000000000002 13.750000000000002 55804.500000000007 4902.5000000000009 48.000000000000007 11002.500000000002 2002.5000000000002 256.00000000000006 94001.500000000015 241.00000000000003
decision_type=2 2 2 2 2 2 2 2 2 2 2 2 2 2 2 2 2 2 2 2 2 2 2 2 2 2 2 2 2 2
left_child=4 7 3 9 5 11 15 14 10 -3 -4 -1 -13 -7 -2 21 25 -9 19 -16 -20 24 -10 -12 -6 27 -23 -8 -19 -18
right_child=1 2 8 -5 6 13 16 17 22 -11 23 12 -14 -15 18 -17 29 28 20 -21 -22 26 -24 -25 -26 -27 -28 -29 -30 -31
leaf_value=-814.86046270404859 463.25855309622631 19735.651862792969 7192.3540924407635 50445.769717261908 746.49321997995332 563.1680924705804 3210.8678753894797 810.5068117268147 6829.219295131139 5104.2733691406247 15147.962112797533 -239.06990841410763 -700.18806724721571 -84.465113451503782 4684.7560010505449 -434.50675868585296 625.19757509979695 3548.4808739392861 1130.2439092183283 10256.579525541923 6199.3226177645602 7352.1789299665179 601.33497418659488 10756.416231742529 -23.217169239567291 1659.3597150118112 1770.619826878539 8746.5161290322576 741.50739655196674 1708.5268002201426
leaf_weight=12739 56 20 91 21 3523 4726 341 347 105 20 107 20658 9889 11805 198 2180 1654 602 139 142 275 35 41 115 3556 783 218 31 128 1195
leaf_count=12739 56 20 91 21 3523 4726 341 347 105 20 107 20658 9889 11805 198 2180 1654 602 139 142 275 35 41 115 3556 783 218 31 128 1195
internal_value=1.4995e-06 5232.42 11173.5 25510.8 -171.743 -344.032 590.746 3595.24 9268.08 12420 11221.5 -513.87 -388.348 100.685 5273.92 235.853 1433.84 2332.72 5631.21 7011.81 4497.39 435.169 5080.29 12873.1 359.844 2307.64 2542.77 3672.17 3056.3 1079.6
internal_weight=75740 2407 520 61 73333 59817 13516 1887 459 40 313 43286 30547 16531 810 9512 4004 1077 754 340 414 7332 146 222 7079 1155 253 372 730 2849
internal_count=75740 2407 520 61 73333 59817 13516 1887 459 40 313 43286 30547 16531 810 9512 4004 1077 754 340 414 7332 146 222 7079 1155 253 372 730 2849
is_linear=0
shrinkage=0.1


Tree=11
num_leaves=31
num_cat=0
split_feature=4 4 0 4 10 6 10 3 0 4 9 10 1 9 3 0 0 10 10 3 9 10 3 1 0 4 9 7 3 12
split_gain=5.59151e+12 1.52705e+12 1.43026e+12 1.06827e+12 1.46721e+12 5.17848e+11 4.29477e+11 3.22462e+11 2.91764e+11 2.14976e+11 1.43643e+11 1.40682e+11 1.42377e+11 2.36103e+11 1.37631e+11 1.29821e+11 2.14599e+11 1.22679e+11 1.19344e+11 1.17483e+11 1.04896e+11 1.00954e+11 9.70612e+10 1.54541e+11 1.28304e+11 9.53954e+10 7.35686e+10 7.03819e+10 6.97835e+10 6.23304e+10
threshold=442.00000000000006 245.50000000000003 12.500000000000002 562.50000000000011 633.00000000000011 1.0000000180025095e-35 12456.000000000002 2020.5000000000002 1.5000000000000002 376.00000000000006 154.50000000000003 21520.500000000004 323.50000000000006 262.50000000000006 2015.5000000000002 3.5000000000000004 2.5000000000000004 100001.00000000001 5001.0000000000009 2020.5000000000002 306.50000000000006 4177.0000000000009 2018.5000000000002 154.50000000000003 2.5000000000000004 165.50000000000003 310.50000000000006 48.000000000000007 2009.5000000000002 10.500000000000002
decision_type=2 2 2 2 2 2 2 2 2 2 2 2 2 2 2 2 2 2 2 2 2 2 2 2 2 2 2 2 2 2
left_child=1 5 8 11 -5 7 9 14 21 -3 -9 12 13 -4 -1 16 -11 20 -6 28 27 -2 -10 24 -24 -16 -22 -8 -7 -14
right_child=2 6 3 4 18 19 17 10 22 15 -12 -13 29 -15 25 -17 -18 -19 -20 -21 26 -23 23 -25 -26 -27 -28 -29 -30 -31
leaf_value=-440.23223391953661 16721.095170898439 2243.425521579969 8597.6444444444442 44319.876531427559 17288.643212890627 -900.2763402796196 2064.5827427657505 338.75329119141236 1177.9470488734867 3192.3692508697513 1265.6722225537421 6994.4710183985098 10304.626214285716 21487.439038899742 -102.37818502062825 3141.3616968421738 9723.7792273719042 48.438457328220423 7553.4805102539067 -83.200603429779832 7478.417377929688 7006.6792968750005 2641.5816150569917 1565.9435695534885 9883.2517671130954 414.65621932282795 2359.9504907594996 795.42154756438572 -497.40940773002615 4411.6705664062501
leaf_weight=8551 20 995 27 22 34 5216 554 5619 184 92 2380 136 175 30 12016 193 111 1027 20 6005 30 23 40 101 63 5076 439 2068 24473 20
leaf_count=8551 20 995 27 22 34 5216 554 5619 184 92 2380 136 175 30 12016 193 111 1027 20 6005 30 23 40 101 63 5076 439 2068 24473 20
internal_value=3.43179e-09 -93.9576 7857.27 11710.1 22551.6 -221.279 1508.51 60.2208 3709.48 3027.7 614.546 9586.47 10985.3 15381.7 -112.694 4998.28 6763.73 995.344 13683 -486.596 1309.96 11525 2843.33 4345.43 7070.95 51.1712 2687.36 1063.58 -568.188 9700.22
internal_weight=75740 74845 895 464 76 69336 5509 33642 431 1391 7999 388 252 57 25643 396 203 4118 54 35694 3091 43 388 204 103 17092 469 2622 29689 195
internal_count=75740 74845 895 464 76 69336 5509 33642 431 1391 7999 388 252 57 25643 396 203 4118 54 35694 3091 43 388 204 103 17092 469 2622 29689 195
is_linear=0
shrinkage=0.1


Tree=12
num_leaves=31
num_cat=0
split_feature=4 4 10 4 10 10 4 3 10 9 0 9 0 0 0 0 3 0 10 3 4 0 7 10 4 7 10 1 0 8
split_gain=4.54833e+12 1.5631e+12 9.16545e+11 6.46909e+11 4.65072e+11 3.68124e+11 3.40578e+11 2.19206e+11 2.15834e+11 2.04656e+11 1.87858e+11 1.40904e+11 1.38947e+11 1.37664e+11 3.33794e+11 1.18938e+11 1.10413e+11 1.08059e+11 1.03665e+11 9.52094e+10 9.33532e+10 6.1257e+10 6.10704e+10 6.02574e+10 5.94311e+10 6.1858e+10 5.91006e+10 5.23694e+10 5.23074e+10 5.05822e+10
threshold=353.50000000000006 528.00000000000011 251.00000000000003 135.50000000000003 44266.500000000007 60002.000000000007 442.00000000000006 2021.5000000000002 4177.0000000000009 296.50000000000006 12.500000000000002 194.50000000000003 23.500000000000004 3.5000000000000004 2.5000000000000004 12.500000000000002 2011.5000000000002 25.500000000000004 170004.50000000003 2004.5000000000002 75.500000000000014 25.500000000000004 43.500000000000007 22177.000000000004 302.50000000000006 43.500000000000007 139000.50000000003 169.50000000000003 5.5000000000000009 10.350000000000003
decision_type=2 2 2 2 2 2 2 2 2 2 2 2 2 2 2 2 2 2 2 2 2 2 2 2 2 2 2 2 2 2
left_child=3 4 -3 7 6 11 13 16 9 -8 -4 24 -10 14 -2 -15 -1 19 21 -13 -18 -7 -9 -12 25 -5 29 -26 -24 -6
right_child=1 2 10 5 26 18 8 22 12 -11 23 17 -14 15 -16 -17 20 -19 -20 -21 -22 -23 28 -25 27 -27 -28 -29 -30 -31
leaf_value=-767.23938640728295 2742.2894646051263 26791.001947846282 2791.7239904067101 828.07950461332189 543.07640108792282 27.359822797204288 6252.9255330403648 787.06546387955177 4004.1601279508259 13716.963096788195 11950.020555409665 5496.4765828671661 8533.3504548725323 395.87933431273763 8341.4753266129756 3555.7553059938364 -650.86681852196295 2495.3701183435473 -531.26807252981234 897.53992017799919 -262.1984713841743 946.68794603311244 693.77061446911284 6139.8880580357145 7878.0907989501957 255.17867859440062 -821.11590307975302 1393.1690413041549 -106.95397088620535 2422.6891212039527
leaf_weight=8346 307 37 34 3106 212 9750 75 1248 236 72 119 46 95 198 163 299 8255 619 3518 2104 24582 783 969 21 20 4793 98 33 5161 441
leaf_count=8346 307 37 34 3106 212 9750 75 1248 236 72 119 46 95 198 163 299 8255 619 3518 2104 24582 783 969 21 20 4793 98 33 5161 441
internal_value=-1.05254e-06 4277.35 12498.5 -140.395 3487.44 275.453 4536.57 -352.528 6720.17 9908.78 9459.25 716.773 5304.08 3457.19 4684.13 2296.89 -442.456 1331.13 -61.2758 995.936 -359.907 95.7006 149.435 11078.5 502.845 480.451 1468.8 3840.31 19.6206 1812.46
internal_weight=75740 2407 211 73333 2196 24772 1445 48561 478 147 174 10721 331 967 470 497 41183 2769 14051 2150 32837 10533 7378 140 7952 7899 751 53 6130 653
internal_count=75740 2407 211 73333 2196 24772 1445 48561 478 147 174 10721 331 967 470 497 41183 2769 14051 2150 32837 10533 7378 140 7952 7899 751 53 6130 653
is_linear=0
shrinkage=0.1


Tree=13
num_leaves=31
num_cat=0
split_feature=4 4 0 4 10 10 3 0 4 4 3 8 10 1 9 3 0 1 0 3 9 6 7 0 0 10 7 4 4 3
split_gain=3.68666e+12 1.04952e+12 1.01993e+12 7.68912e+11 1.10013e+12 4.51057e+11 2.88701e+11 2.23003e+11 1.9228e+11 1.901e+11 1.31963e+11 1.30236e+11 1.18125e+11 1.09744e+11 1.68593e+11 9.49539e+10 8.69376e+10 3.94155e+11 8.41322e+10 9.031e+10 1.17835e+11 7.59673e+10 7.52085e+10 7.49193e+10 9.89262e+10 7.00016e+10 6.80077e+10 6.78632e+10 5.41062e+10 4.96867e+10
threshold=442.00000000000006 207.00000000000003 12.500000000000002 562.50000000000011 633.00000000000011 15793.000000000002 2015.5000000000002 1.5000000000000002 104.50000000000001 368.50000000000006 2017.5000000000002 14.450000000000001 13866.500000000002 314.00000000000006 262.50000000000006 2020.5000000000002 23.500000000000004 396.50000000000006 4.5000000000000009 2018.5000000000002 307.50000000000006 1.0000000180025095e-35 43.500000000000007 1.0000000180025095e-35 3.5000000000000004 4177.0000000000009 43.500000000000007 256.00000000000006 89.500000000000014 2021.5000000000002
decision_type=2 2 2 2 2 2 2 2 2 2 2 2 2 2 2 2 2 2 2 2 2 2 2 2 2 2 2 2 2 2
left_child=1 6 7 13 -5 9 28 25 29 22 11 -7 26 14 -4 -6 17 -15 19 -9 -21 -13 27 -11 -25 -2 -10 -3 -1 -8
right_child=2 5 3 4 15 10 8 18 12 23 -12 21 -14 16 -16 -17 -18 -19 -20 20 -22 -23 -24 24 -26 -27 -28 -29 -30 -31
leaf_value=-741.99193151801865 14037.038977050783 2465.6657515215038 6922.5404771959456 37681.00179665305 7258.5867254849145 -53.085479186138969 -387.77760890564525 935.33512172382837 1129.5221300143576 50.941143917083743 962.83045599337447 1395.5754234807409 6.2861072005534826 7696.5013105912649 16920.070590111518 15668.361335937501 8350.4639340179128 -6835.7181216032614 -3374.3813100961543 2583.1902326099912 8402.5376579122349 5620.2043598881473 1251.0943390501934 5462.8995915499609 2706.7293001969038 5947.767153532609 320.29735229216897 7233.5558149857961 -405.80163050145893 -14.857255481008071
leaf_weight=7016 20 313 37 22 29 3394 15019 181 1447 50 3620 201 18514 99 31 25 198 23 26 134 47 54 1227 264 257 23 3679 33 15069 4688
leaf_count=7016 20 313 37 22 29 3394 15019 181 1447 50 3620 201 18514 99 31 25 198 23 26 134 47 54 1227 264 257 23 3679 33 15069 4688
internal_value=6.07288e-07 -76.2928 6380.04 9633.56 18831.4 910.997 -218.324 2877.42 -68.3902 2185.6 535.05 110.669 123.908 7831.91 11480.2 11152 7056.64 4956.82 2120.18 2514.81 4094.29 2290.2 1618.28 3748.48 4103.33 9710.22 548.73 2920.41 -512.603 -299.065
internal_weight=75740 74845 895 464 76 9413 65432 431 43347 2144 7269 3649 23640 388 68 54 320 122 388 362 181 255 1573 571 521 43 5126 346 22085 19707
internal_count=75740 74845 895 464 76 9413 65432 431 43347 2144 7269 3649 23640 388 68 54 320 122 388 362 181 255 1573 571 521 43 5126 346 22085 19707
is_linear=0
shrinkage=0.1


Tree=14
num_leaves=31
num_cat=0
split_feature=4 4 0 8 4 10 10 4 3 0 7 10 9 1 1 0 0 3 0 7 9 4 9 3 1 3 9 3 3 0
split_gain=3.03526e+12 1.01564e+12 8.40749e+11 1.8e+12 4.44894e+11 3.06091e+11 2.29913e+11 2.14511e+11 2.13512e+11 1.93294e+11 1.7874e+11 1.58457e+11 1.60495e+11 1.02774e+11 1.01474e+11 9.69277e+10 2.69497e+11 1.09665e+11 9.29488e+10 9.2682e+10 8.50553e+10 8.31367e+10 7.69794e+10 9.81736e+10 6.52981e+10 5.74581e+10 1.7933e+11 5.51323e+10 4.88403e+10 4.53506e+10
threshold=353.50000000000006 528.00000000000011 23.500000000000004 16.650000000000002 176.50000000000003 46657.500000000007 72500.500000000015 442.00000000000006 2020.5000000000002 12.500000000000002 48.000000000000007 4177.0000000000009 296.50000000000006 234.50000000000003 556.50000000000011 3.5000000000000004 2.5000000000000004 2015.5000000000002 23.500000000000004 43.500000000000007 136.50000000000003 256.00000000000006 345.50000000000006 2002.5000000000002 65.500000000000014 2021.5000000000002 290.50000000000006 2009.5000000000002 2014.5000000000002 5.5000000000000009
decision_type=2 2 2 2 2 2 2 2 2 2 2 2 2 2 2 2 2 2 2 2 2 2 2 2 2 2 2 2 2 2
left_child=4 5 9 -4 6 7 10 15 14 24 20 12 -9 -12 22 16 -2 -17 -13 21 -1 -10 28 -24 -3 26 -11 -8 -6 -29
right_child=1 2 3 -5 8 -7 27 11 19 25 13 18 -14 -15 -16 17 -18 -19 -20 -21 -22 -23 23 -25 -26 -27 -28 29 -30 -31
leaf_value=46.767953559491218 2145.9139335923478 5074.2184374999997 44543.019853515631 8487.471677517362 -297.5230814700621 1149.4557192402156 -688.9776638014348 4894.5218919270837 1927.7134895140721 16392.204600468391 217.17593461317225 3186.8395885098366 11504.388322989147 -325.33720849503294 1120.543884436674 5665.4072798295456 7108.8043327607302 1295.4023362422961 6851.5497629801439 859.74540895882456 632.68331342956992 6630.986193847657 7695.4087149784482 976.98056402096813 -2407.0757587977819 4810.1800219726565 5896.6102110327747 -204.20254916373261 206.72650975205099 -489.54520719527795
leaf_weight=5633 321 20 20 45 2673 710 6555 75 622 27 4443 248 72 16312 1075 66 166 442 96 2164 4423 40 29 87 28 30 41 10245 6826 12206
leaf_count=5633 321 20 20 45 2673 710 6555 75 622 27 4443 248 72 16312 1075 66 166 442 96 2164 4423 40 29 87 28 30 41 10245 6826 12206
internal_value=-2.11496e-07 3494.19 10121 19581.5 -114.69 2857.46 -231.772 3673.54 403.474 5909.19 -41.5496 5383.89 8132.01 -209.202 199.119 2829.53 3837.58 1863.16 4209.55 1176.49 304.475 2211.9 96.0999 2656.59 710.13 8455.67 10064 -433.831 64.8317 -359.336
internal_weight=75740 2407 211 65 73333 2196 59817 1486 13516 146 30811 491 147 20755 10690 995 487 508 344 2826 10056 662 9615 116 48 98 68 29006 9499 22451
internal_count=75740 2407 211 65 73333 2196 59817 1486 13516 146 30811 491 147 20755 10690 995 487 508 344 2826 10056 662 9615 116 48 98 68 29006 9499 22451
is_linear=0
shrinkage=0.1


Tree=15
num_leaves=31
num_cat=0
split_feature=4 4 8 8 4 8 0 4 10 0 10 0 4 4 9 3 10 4 0 7 8 7 10 9 3 3 3 1 0 9
split_gain=2.46303e+12 8.64034e+11 1.02401e+12 1.81037e+12 3.79096e+11 3.38158e+11 2.03622e+11 1.75166e+11 1.52711e+11 1.45807e+11 1.27686e+11 1.17669e+11 1.11102e+11 9.10302e+10 8.72068e+10 1.04831e+11 7.85389e+10 7.47359e+10 7.30933e+10 7.01449e+10 6.78205e+10 5.60644e+10 5.2835e+10 4.78242e+10 4.42779e+10 4.10975e+10 3.92851e+10 3.8075e+10 3.32945e+10 3.04964e+10
threshold=373.50000000000006 562.50000000000011 14.750000000000002 16.050000000000004 146.50000000000003 11.15 25.500000000000004 442.00000000000006 68985.000000000015 12.500000000000002 145011.50000000003 1.5000000000000002 75.500000000000014 452.00000000000006 338.50000000000006 2002.5000000000002 19810.500000000004 409.50000000000006 12.500000000000002 50.000000000000007 10.850000000000003 48.000000000000007 7004.0000000000009 143.50000000000003 2009.5000000000002 2017.5000000000002 2012.5000000000002 234.50000000000003 5.5000000000000009 199.50000000000003
decision_type=2 2 2 2 2 2 2 2 2 2 2 2 2 2 2 2 2 2 2 2 2 2 2 2 2 2 2 2 2 2
left_child=4 5 -3 -4 8 18 10 16 12 11 14 -9 -1 -11 19 -16 17 -7 25 -6 -20 23 29 -14 -10 -2 -24 -23 -26 -8
right_child=1 2 3 -5 6 7 22 9 24 13 -12 -13 21 -15 15 -17 -18 -19 20 -21 -22 27 26 -25 28 -27 -28 -29 -30 -31
leaf_value=-403.58703140498562 -313.4563167993839 -425.20933175223217 45407.152246093756 7490.8663164924183 502.00667029587908 4651.0736078085065 1373.5015936796483 8165.9545296602482 -653.19542524159658 11651.159186422416 -333.96326586744732 2524.8471107945297 95.754603668615374 5809.6384568772883 8077.6063434307398 1425.8466731610815 1670.0090142171223 1815.3416279645035 6072.2332336425789 44.140226711162505 -182.94007368821366 203.0637792266424 -1430.2901408744583 644.19000292332385 -193.64782427530616 1340.2704952312652 1059.3761058307232 -185.28521149533734 -446.41075530447318 3094.2835015839223
leaf_weight=7213 234 35 20 34 6664 269 208 43 5697 29 3982 264 4774 333 26 267 375 142 52 6720 26 3545 66 2384 9037 420 1596 8771 12310 204
leaf_count=7213 234 35 20 34 6664 269 208 43 5697 29 3982 264 4774 333 26 267 375 142 52 6720 26 3545 66 2384 9037 420 1596 8771 12310 204
internal_value=1.95513e-07 3239.84 12898.3 21533.9 -100.374 2846.79 274.472 3728.77 -238.038 4918.07 164.385 3314.97 -68.3279 6277.61 309.477 2016.11 2716.5 3671.33 1093.67 272.116 3987.18 55.8491 1211.81 278.413 -405.508 748.57 960.508 -73.504 -339.407 2225.54
internal_weight=75740 2276 89 54 73464 2187 19733 1455 53731 669 17659 307 26687 362 13677 293 786 411 732 13384 78 19474 2074 7158 27044 654 1662 12316 21347 412
internal_count=75740 2276 89 54 73464 2187 19733 1455 53731 669 17659 307 26687 362 13677 293 786 411 732 13384 78 19474 2074 7158 27044 654 1662 12316 21347 412
is_linear=0
shrinkage=0.1


Tree=16
num_leaves=31
num_cat=0
split_feature=4 4 0 4 10 4 3 10 0 1 7 1 0 4 3 0 4 3 8 10 0 0 1 1 1 4 1 0 10 9
split_gain=1.99834e+12 7.1134e+11 1.02948e+12 3.03098e+11 2.82313e+11 1.82518e+11 1.82064e+11 1.6657e+11 1.09424e+11 1.0994e+11 1.03264e+11 9.9429e+10 8.63104e+10 1.04497e+11 8.70459e+10 8.27428e+10 7.17054e+10 6.8512e+10 6.6596e+10 6.07044e+10 5.86445e+10 9.91528e+10 5.80185e+10 5.54972e+10 4.99677e+10 8.3673e+10 5.40494e+10 4.77285e+10 3.98178e+10 3.34705e+10
threshold=353.50000000000006 562.50000000000011 23.500000000000004 177.50000000000003 21520.500000000004 442.00000000000006 2018.5000000000002 35001.000000000007 12.500000000000002 88.500000000000014 43.500000000000007 323.50000000000006 12.500000000000002 409.50000000000006 2013.5000000000002 25.500000000000004 95.500000000000014 2020.5000000000002 11.15 150019.00000000003 1.0000000180025095e-35 3.5000000000000004 192.50000000000003 314.00000000000006 382.00000000000006 302.50000000000006 478.50000000000006 14.500000000000002 6395.0000000000009 263.50000000000006
decision_type=2 2 2 2 2 2 2 2 2 2 2 2 2 2 2 2 2 2 2 2 2 2 2 2 2 2 2 2 2 2
left_child=3 4 17 7 5 20 28 10 9 -7 -1 -10 14 27 -6 24 29 -3 -16 -18 -2 -22 -12 -15 25 -8 -26 -14 -5 -9
right_child=1 2 -4 6 12 8 15 16 11 -11 22 -13 13 23 18 -17 19 -19 -20 -21 21 -23 -24 -25 26 -27 -28 -29 -30 -31
leaf_value=541.92628962956258 -454.43255935396468 -1338.545265125093 25287.546971938191 3711.730323949354 -1167.5378255106921 5418.5451541711791 663.32490254723496 -467.84509111869858 10288.65140445107 217.32242880428541 389.76904882427903 5540.7447379909427 4471.5571714128773 8313.7719255118536 652.47451300245996 1601.6468199810117 -101.74797413441759 5926.1182229434744 2664.4667979799469 -438.61175192064889 4201.3272093240321 1681.9832823323152 -147.94141354544462 3582.7652187771268 -520.333851604193 2627.2058885500669 759.77745014196864 -117.20080493317933 -1.1393527927704297 2769.5257781982423
leaf_weight=3700 56 21 34 29 163 101 3149 15916 57 68 2437 195 28 29 445 987 19576 34 261 7361 308 317 11363 171 710 233 616 119 7224 32
leaf_count=3700 56 21 34 29 163 101 3149 15916 57 68 2437 195 28 29 445 987 19576 34 261 7361 308 317 11363 171 710 233 616 119 7224 32
internal_value=-3.5364e-07 2835.2 11608.5 -93.0595 2498.35 3657.62 345.982 -187.2 5294.42 3325.75 72.7964 6614.68 1447.76 2781.01 915.384 769.159 -293.297 3152.34 1396.28 -193.802 2645.74 2923.52 -52.9849 4268.76 594.634 798.625 74.3483 756.848 13.706 -461.349
internal_weight=75740 2407 89 73333 2318 1102 12948 60385 421 169 17500 252 1216 347 869 5695 42885 55 706 26937 681 625 13800 200 4708 3382 1326 147 7253 15948
internal_count=75740 2407 89 73333 2318 1102 12948 60385 421 169 17500 252 1216 347 869 5695 42885 55 706 26937 681 625 13800 200 4708 3382 1326 147 7253 15948
is_linear=0
shrinkage=0.1


Tree=17
num_leaves=31
num_cat=0
split_feature=4 4 0 3 10 4 4 4 0 0 10 1 0 4 3 0 3 8 9 4 10 9 0 0 1 0 7 4 0 1
split_gain=1.61866e+12 5.76185e+11 8.33881e+11 2.59444e+11 2.28674e+11 1.70052e+11 1.51066e+11 1.47839e+11 8.86338e+10 9.07874e+10 8.82643e+10 8.05375e+10 6.99114e+10 8.46429e+10 7.05072e+10 5.83986e+10 5.54947e+10 5.39428e+10 5.37914e+10 4.84004e+10 4.79094e+10 4.78568e+10 4.7502e+10 8.03137e+10 4.49527e+10 3.86601e+10 3.65748e+10 5.20535e+10 3.41415e+10 2.90297e+10
threshold=353.50000000000006 562.50000000000011 23.500000000000004 2021.5000000000002 21520.500000000004 131.50000000000003 207.00000000000003 442.00000000000006 12.500000000000002 3.5000000000000004 145011.50000000003 323.50000000000006 12.500000000000002 409.50000000000006 2013.5000000000002 25.500000000000004 2020.5000000000002 11.15 153.50000000000003 69.500000000000014 122604.50000000001 345.50000000000006 1.0000000180025095e-35 3.5000000000000004 314.00000000000006 14.500000000000002 43.500000000000007 256.00000000000006 4.5000000000000009 571.50000000000011
decision_type=2 2 2 2 2 2 2 2 2 2 2 2 2 2 2 2 2 2 2 2 2 2 2 2 2 2 2 2 2 2
left_child=3 4 16 5 7 19 18 22 9 -9 15 -10 14 25 -6 21 -3 -16 28 -1 -21 -7 -2 -24 -15 -14 27 -8 -5 -17
right_child=1 2 -4 6 12 10 26 8 11 -11 -12 -13 13 24 17 29 -18 -19 -20 20 -22 -23 23 -25 -26 -27 -28 -29 -30 -31
leaf_value=-536.40599750008073 -408.9892964771816 -1204.690872047061 22758.791120461858 510.35163333911106 -1050.7840425737065 70.634311140649672 1778.9346795361025 4668.5840390385811 9259.7862833658855 -213.22315673828126 -295.2222787074503 4986.6703049527687 4024.4015999930252 7482.3947194066541 587.22705465766819 823.2179862176547 5333.5063943301939 2398.0201071202073 687.26197697079544 -159.89831087480707 -430.79159860489875 2004.2151429050655 3781.1944791694741 1513.7849449470593 3224.4887083176286 -105.48072917521502 1006.9138708085364 5819.0314160156258 -6.3941497666168994 -193.29111885331153
leaf_weight=6921 56 21 34 1613 163 16555 359 111 57 58 5943 195 28 29 445 1689 34 261 1957 21139 9446 129 308 317 171 119 1043 35 6167 337
leaf_count=6921 56 21 34 1613 163 16555 359 111 57 58 5943 195 28 29 445 1689 34 261 1957 21139 9446 129 308 317 171 119 1043 35 6167 337
internal_value=-5.46948e-07 2551.68 10447.6 -83.7535 2248.52 -163.502 359.876 3291.86 4764.97 2993.17 40.5089 5953.21 1302.98 2502.91 823.845 147.15 2837.1 1256.66 218.623 -297.601 -243.562 85.5847 2381.17 2631.16 3841.89 681.164 1316.99 2137.83 100.741 654.134
internal_weight=75740 2407 89 73333 2318 62159 11174 1102 421 169 24653 252 1216 347 869 18710 55 706 9737 37506 30585 16684 681 625 200 147 1437 394 7780 2026
internal_count=75740 2407 89 73333 2318 62159 11174 1102 421 169 24653 252 1216 347 869 18710 55 706 9737 37506 30585 16684 681 625 200 147 1437 394 7780 2026
is_linear=0
shrinkage=0.1


Tree=18
num_leaves=31
num_cat=0
split_feature=4 10 3 3 10 6 10 0 0 0 0 0 3 0 9 0 4 1 9 4 9 9 10 1 9 1 4 4 10 8
split_gain=1.31111e+12 4.7532e+11 1.14831e+12 2.462e+11 2.95803e+11 2.16673e+11 1.70708e+11 1.03986e+11 1.46361e+11 2.58761e+11 1.38183e+11 1.50232e+11 1.57003e+11 1.28795e+11 8.27518e+10 8.23554e+10 7.64272e+10 6.96689e+10 6.38565e+10 6.18603e+10 6.10018e+10 9.99312e+10 5.40772e+10 5.12676e+10 4.68762e+10 4.62917e+10 4.40433e+10 3.95968e+10 3.95551e+10 3.29439e+10
threshold=353.50000000000006 4177.0000000000009 2018.5000000000002 2021.5000000000002 1000.5000000000001 1.0000000180025095e-35 10000.500000000002 12.500000000000002 14.500000000000002 23.500000000000004 3.5000000000000004 2.5000000000000004 2016.5000000000002 25.500000000000004 387.50000000000006 25.500000000000004 207.00000000000003 45.500000000000007 371.00000000000006 447.50000000000006 335.50000000000006 381.00000000000006 175546.00000000003 205.50000000000003 229.50000000000003 571.50000000000011 471.50000000000006 72.500000000000014 118601.00000000001 13.550000000000002
decision_type=2 2 2 2 2 2 2 2 2 2 2 2 2 2 2 2 2 2 2 2 2 2 2 2 2 2 2 2 2 2
left_child=5 2 -2 4 -4 6 16 10 18 26 11 17 -13 -11 24 22 -1 -3 19 -9 27 -22 23 -8 -5 -17 -10 -7 -29 -12
right_child=1 7 3 14 -6 20 15 8 9 13 29 12 -14 -15 -16 25 -18 -19 -20 -21 21 -23 -24 -25 -26 -27 -28 28 -30 -31
leaf_value=402.39219855725696 23211.541152954102 2548.0874756622316 16182.029174041749 596.12808763980865 4343.6014969687303 -444.35817143877625 113.13181202497877 9371.6673604329426 -2208.349273935954 4639.1764054731893 -64.592949747571751 650.44945999617437 5780.2662080235641 756.30811089205463 -2620.7283822518807 745.78471983011661 1294.7093353711889 28.058397235159891 2301.2854623263001 4632.3446112060547 6930.0206588252904 -767.01294704127963 -390.52645684304571 -188.98657312573116 3533.8390430673589 -204.44641335973373 -7627.0369531250008 -114.58878492639707 -371.43473903042178 -2631.1223365649844
leaf_weight=4946 32 160 32 64 62 8519 15537 42 60 176 408 97 155 166 27 2122 1191 349 61 80 31 37 4055 8797 359 676 20 18566 8856 57
leaf_count=4946 32 160 32 64 62 8519 15537 42 60 176 408 97 155 166 27 2122 1191 349 61 80 31 37 4055 8797 359 676 20 18566 8856 57
internal_value=-8.02179e-07 2296.51 4801.98 3719.06 8373.7 -75.3782 93.4575 1508.34 2581.12 1556.87 978.951 1808.83 3805.69 2754.51 2746.76 -1.41153 575.563 820.209 4943.04 6263.91 -250.38 2741.93 -52.4277 3.9128 3089.36 516.208 -3563.02 -256.041 -197.538 -379.2
internal_weight=75740 2407 576 544 94 73333 37324 1831 605 422 1226 761 252 342 450 31187 6137 509 183 122 36009 68 28389 24334 423 2798 80 35941 27422 465
internal_count=75740 2407 576 544 94 73333 37324 1831 605 422 1226 761 252 342 450 31187 6137 509 183 122 36009 68 28389 24334 423 2798 80 35941 27422 465
is_linear=0
shrinkage=0.1


Tree=19
num_leaves=31
num_cat=0
split_feature=4 10 9 4 3 0 3 9 4 0 0 4 4 0 1 1 3 10 9 0 10 1 9 9 7 4 0 9 7 0
split_gain=1.06983e+12 6.87044e+11 1.15726e+12 3.57466e+11 1.62805e+11 1.33231e+11 1.20363e+11 1.08594e+11 8.42215e+10 8.33774e+10 3.0656e+11 1.79212e+11 8.20158e+10 6.3068e+10 6.42502e+10 5.74279e+10 5.6662e+10 5.60787e+10 5.15811e+10 5.9403e+10 5.01138e+10 6.51527e+10 4.87117e+10 7.96839e+10 4.38363e+10 5.6826e+10 4.34753e+10 4.25489e+10 4.2025e+10 3.62217e+10
threshold=442.00000000000006 251.00000000000003 369.00000000000006 291.00000000000006 2020.5000000000002 12.500000000000002 2002.5000000000002 156.50000000000003 107.50000000000001 3.5000000000000004 2.5000000000000004 409.50000000000006 452.00000000000006 23.500000000000004 382.00000000000006 559.50000000000011 2014.5000000000002 189292.00000000003 277.50000000000006 3.5000000000000004 14514.000000000002 396.50000000000006 258.50000000000006 298.50000000000006 43.500000000000007 256.00000000000006 1.5000000000000002 260.50000000000006 48.000000000000007 4.5000000000000009
decision_type=2 2 2 2 2 2 2 2 2 2 2 2 2 2 2 2 2 2 2 2 2 2 2 2 2 2 2 2 2 2
left_child=3 2 22 4 8 16 -5 29 27 10 26 -12 -7 14 -11 -15 -3 28 -18 -20 21 -14 -2 -24 25 -9 -8 -1 -10 -6
right_child=1 5 -4 6 7 12 9 24 17 13 11 -13 20 15 -16 -17 18 -19 19 -21 -22 -23 23 -25 -26 -27 -28 -29 -30 -31
leaf_value=-311.03112712760225 1372.6170703125001 -3659.8264093572443 33060.007561035156 7854.0044765625007 389.8329321313114 9059.5550851004464 1997.9327047820786 997.82366924873497 100.48781739192086 586.116301130034 5650.759234370581 -2468.3129662298388 6484.7694741953974 2892.6395380727363 -817.77790234192571 731.80641732623235 176.5482987745753 -385.01922916617491 3340.7602451303387 -683.61935902471134 2205.6084661111067 2878.5535400390627 11552.045765269888 2940.1539295014882 360.72224341214371 4911.8859676963402 463.03226968955346 2448.5427697317941 -149.71581064392572 -36.987617099972184
leaf_weight=24690 20 22 20 25 2581 28 234 1554 15856 1119 221 31 92 178 460 398 159 4534 181 46 174 110 22 21 1697 38 873 56 11642 8658
leaf_count=24690 20 22 20 25 2581 28 234 1554 15856 1119 221 31 92 178 460 398 159 4534 181 46 174 110 22 21 1697 38 873 56 11642 8658
internal_value=1.96672e-07 3436.88 12102.9 -41.0984 -89.7854 2551.07 939.878 208.93 -166.219 890.688 1504.08 4651.98 3838.32 503.868 177.129 1399.56 1276.44 -59.17 1557.78 2525.25 3449.51 4520.99 5449.85 7346.24 714.325 1091.25 787.483 -304.786 -5.44246 61.0303
internal_weight=75740 895 83 74845 71306 812 3539 14528 56778 3514 1359 252 404 2155 1579 576 408 32032 386 227 376 202 63 43 3289 1592 1107 24746 27498 11239
internal_count=75740 895 83 74845 71306 812 3539 14528 56778 3514 1359 252 404 2155 1579 576 408 32032 386 227 376 202 63 43 3289 1592 1107 24746 27498 11239
is_linear=0
shrinkage=0.1


Tree=20
num_leaves=31
num_cat=0
split_feature=4 10 0 4 4 3 9 0 7 3 1 0 10 9 4 0 0 4 0 0 1 3 1 4 1 9 0 3 3 3
split_gain=8.66563e+11 5.56505e+11 1.15997e+12 3.12586e+11 2.89547e+11 1.34852e+11 1.08669e+11 1.07917e+11 9.88792e+10 9.74941e+10 6.87127e+10 2.83756e+11 9.60152e+10 2.52965e+11 7.40571e+10 6.75357e+10 2.48314e+11 1.45161e+11 5.37877e+10 5.10851e+10 5.20427e+10 4.77894e+10 4.65166e+10 3.81331e+10 3.81164e+10 3.71858e+10 3.5215e+10 3.33789e+10 3.01317e+10 2.66727e+10
threshold=442.00000000000006 251.00000000000003 23.500000000000004 534.00000000000011 291.00000000000006 2016.5000000000002 159.50000000000003 12.500000000000002 43.500000000000007 2002.5000000000002 396.50000000000006 23.500000000000004 4902.5000000000009 279.50000000000006 562.50000000000011 3.5000000000000004 2.5000000000000004 409.50000000000006 7.5000000000000009 23.500000000000004 382.00000000000006 2018.5000000000002 559.50000000000011 177.50000000000003 386.50000000000006 307.50000000000006 1.5000000000000002 2008.5000000000002 2022.5000000000002 2014.5000000000002
decision_type=2 2 2 2 2 2 2 2 2 2 2 2 2 2 2 2 2 2 2 2 2 2 2 2 2 2 2 2 2 2
left_child=4 2 3 -2 5 27 18 21 23 -6 12 -12 13 -9 -13 16 26 -18 28 20 -17 29 -21 -8 -20 -23 -11 -1 -7 -3
right_child=1 7 -4 -5 9 6 8 10 -10 15 11 14 -14 -15 -16 19 17 -19 24 22 -22 25 -24 -25 -26 -27 -28 -29 -30 -31
leaf_value=-462.66576439924467 9154.202878570557 -3293.8437572826042 27917.979341182003 -5943.0531758626312 7068.6039278564458 89.00996353168469 419.35201543033236 2401.8001140485494 17.764657182968488 1798.139414897332 -7973.4632405598959 4290.3873777909712 3189.5881693976266 15154.066526576453 -1163.4833277209052 527.50466908615977 5085.6832839879517 -2221.4816713394662 -282.07486753440133 2603.375571741683 -736.00010893946114 1298.1442119152516 658.62576301373429 1000.5021464349828 -21.936532176118085 4135.1989061760178 416.72903880362929 -193.97438754229108 755.03924385267692 411.65495485972207
leaf_weight=5788 32 22 27 24 25 9428 2745 35 4985 234 24 176 112 28 29 1119 221 31 10297 178 460 154 398 1918 12434 66 873 22979 732 166
leaf_count=5788 32 22 27 24 25 9428 2745 35 4985 234 24 176 112 28 29 1119 221 31 10297 178 460 154 398 1918 12434 66 873 22979 732 166
internal_value=-4.40307e-08 3093.19 10892.6 2683.95 -36.9886 -80.8069 32.2817 2295.96 327.388 845.89 3454.49 2314.43 4946.35 8069.47 3518.86 801.619 1353.67 4186.79 -54.2826 453.481 159.416 1148.79 1259.61 658.393 -139.778 2149.26 708.734 -248.036 136.996 -21.9672
internal_weight=75740 895 83 56 74845 71306 42539 812 9648 3539 404 229 175 63 205 3514 1359 252 32891 2155 1579 408 576 4663 22731 220 1107 28767 10160 188
internal_count=75740 895 83 56 74845 71306 42539 812 9648 3539 404 229 175 63 205 3514 1359 252 32891 2155 1579 408 576 4663 22731 220 1107 28767 10160 188
is_linear=0
shrinkage=0.1


Tree=21
num_leaves=31
num_cat=0
split_feature=4 10 9 4 3 0 0 7 4 4 10 4 0 0 3 3 10 7 7 3 1 10 1 4 9 9 4 0 0 3
split_gain=7.01916e+11 4.50769e+11 1.0146e+12 2.3485e+11 1.18728e+11 8.7413e+10 8.16101e+10 6.87957e+10 6.5857e+10 6.51067e+10 5.65155e+10 5.09596e+10 4.96217e+10 1.68153e+11 1.14403e+11 5.20567e+10 4.67393e+10 4.44332e+10 3.89059e+10 3.87094e+10 3.58448e+10 3.50819e+10 3.99143e+10 3.50733e+10 3.01205e+10 2.87212e+10 2.82924e+10 2.76782e+10 2.39804e+10 2.16049e+10
threshold=442.00000000000006 251.00000000000003 369.00000000000006 272.50000000000006 2021.5000000000002 12.500000000000002 14.500000000000002 43.500000000000007 107.50000000000001 452.00000000000006 57804.000000000007 256.00000000000006 3.5000000000000004 2.5000000000000004 2005.5000000000002 2016.5000000000002 110002.50000000001 43.500000000000007 48.000000000000007 2018.5000000000002 496.50000000000006 14514.000000000002 396.50000000000006 284.00000000000006 307.50000000000006 260.50000000000006 169.50000000000003 7.5000000000000009 1.0000000180025095e-35 2014.5000000000002
decision_type=2 2 2 2 2 2 2 2 2 2 2 2 2 2 2 2 2 2 2 2 2 2 2 2 2 2 2 2 2 2
left_child=3 2 6 4 8 19 -2 11 25 -7 12 26 13 28 -14 -15 17 -10 23 29 -16 22 -11 -12 -21 -1 -6 -9 -5 -3
right_child=1 5 -4 10 7 9 -8 27 16 21 18 -13 14 15 20 -17 -18 -19 -20 24 -22 -23 -24 -25 -26 -27 -28 -29 -30 -31
leaf_value=-253.37786368907473 6397.2584572816513 -2964.4593844327064 29426.299946289062 -769.31295911571658 478.90364215868732 7761.0128540039068 -1014.2120226542155 444.01556824713674 206.58244690772403 5196.1724988854448 46.221791597469128 4654.9412728309635 7389.3200068359383 586.24176469282679 271.55837182188782 4946.0671349756467 -185.65518723588093 -85.995238575183663 -81.15512499861569 1168.3297955735939 1302.1300738104735 1721.8643125862909 2373.5698741566052 2016.1377457207229 3721.679069195372 1774.9067345973426 1351.4004181578921 -5.7317157985051184 1083.038633801048 370.48946965688685
leaf_weight=26343 39 22 20 79 2029 28 24 1744 10075 92 167 32 25 33 1154 161 13044 10707 1094 154 477 174 110 197 66 70 455 6353 606 166
leaf_count=26343 39 22 20 79 2029 28 24 1744 10075 92 167 32 25 33 1154 161 13044 10707 1094 154 477 174 110 197 66 70 455 6353 606 166
internal_value=5.26447e-07 2783.87 9803.35 -33.2897 -75.3418 2066.37 3573.84 233.062 -129.677 3109.04 712.885 689.802 998.2 1605.47 675.862 4204.45 -37.2825 55.8448 216.814 1033.91 572.958 2762.62 3659.11 1112.36 1934.33 -248.002 638.721 91.1386 869.41 -19.7705
internal_weight=75740 895 83 74845 70852 812 63 10613 60239 404 3993 2516 2535 879 1656 194 33826 20782 1458 408 1631 376 202 364 220 26413 2484 8097 685 188
internal_count=75740 895 83 74845 70852 812 63 10613 60239 404 3993 2516 2535 879 1656 194 33826 20782 1458 408 1631 376 202 364 220 26413 2484 8097 685 188
is_linear=0
shrinkage=0.1


Tree=22
num_leaves=31
num_cat=0
split_feature=4 10 0 4 4 10 10 0 4 7 3 1 4 1 1 4 3 3 10 1 10 1 1 0 3 1 1 0 7 4
split_gain=5.68552e+11 3.65123e+11 1.00418e+12 3.0248e+11 1.91374e+11 1.03639e+11 8.04571e+10 7.08045e+10 5.27364e+10 5.19627e+10 4.93443e+10 4.31945e+10 2.04579e+11 3.75961e+10 3.5153e+10 3.3877e+10 3.13546e+10 2.97744e+10 2.87098e+10 3.99505e+10 2.83982e+10 2.81536e+10 1.58874e+11 2.92348e+10 2.99518e+10 2.7772e+10 4.08864e+10 2.35429e+10 2.33869e+10 4.52293e+10
threshold=442.00000000000006 251.00000000000003 23.500000000000004 534.00000000000011 207.00000000000003 6395.0000000000009 38912.000000000007 12.500000000000002 452.00000000000006 43.500000000000007 2017.5000000000002 190.50000000000003 414.00000000000006 192.50000000000003 403.50000000000006 84.500000000000014 2018.5000000000002 2013.5000000000002 8286.5000000000018 396.50000000000006 200001.00000000003 556.50000000000011 558.50000000000011 11.500000000000002 2020.5000000000002 154.50000000000003 86.500000000000014 23.500000000000004 48.000000000000007 284.00000000000006
decision_type=2 2 2 2 2 2 2 2 2 2 2 2 2 2 2 2 2 2 2 2 2 2 2 2 2 2 2 2 2 2
left_child=4 2 3 -2 6 21 9 16 -9 14 11 17 -13 -11 -1 -8 -3 -7 19 -10 -17 23 -23 24 -6 26 -18 -20 29 -12
right_child=1 7 -4 -5 5 10 15 8 18 13 28 12 -14 -15 -16 20 25 -19 27 -21 -22 22 -24 -25 -26 -27 -28 -29 -30 -31
leaf_value=156.6238608123528 7550.2518516540531 -17.793473888965362 24663.888733757867 -7300.9533721923835 4426.800198364258 -549.31927590464272 -330.94261801696359 6984.9116067068917 5182.0201809895843 298.37932322811622 563.56150057849209 349.03189216365479 9225.7680555555562 -84.274656503432993 747.43726999665705 -85.332886295976891 1084.0383500176508 88.650650627484978 696.63203641559005 2032.6164366974226 -352.18394721018217 7919.6380834960937 915.06206017886893 452.63105548823643 1290.2981528122461 351.72018080305781 4613.2161559024098 2794.7467568243119 271.01334365128054 2062.8724139824249
leaf_weight=2587 32 188 27 24 32 1267 9649 28 75 3214 1712 676 27 12767 1649 30989 74 1731 109 87 4577 40 170 545 627 87 59 105 2358 228
leaf_count=2587 32 188 27 24 32 1267 9649 28 75 3214 1712 676 27 12767 1649 30989 74 1731 109 87 4577 40 170 545 627 87 59 105 2358 228
internal_value=1.21175e-07 2505.49 8823.01 1185.45 -29.9607 391.63 -90.6105 1859.73 2798.14 75.2222 252.12 -15.5342 689.959 -7.31765 386.617 -164.759 930.522 -180.965 2486.36 3490.67 -119.674 1180.84 2249.27 994.484 1442.6 1740.9 2649.61 1726.08 482.597 739.769
internal_weight=75740 895 83 56 74845 9413 65432 812 404 20217 7999 3701 703 15981 4236 45215 408 2998 376 162 35566 1414 210 1204 659 220 133 214 4298 1940
internal_count=75740 895 83 56 74845 9413 65432 812 404 20217 7999 3701 703 15981 4236 45215 408 2998 376 162 35566 1414 210 1204 659 220 133 214 4298 1940
is_linear=0
shrinkage=0.1


Tree=23
num_leaves=31
num_cat=0
split_feature=4 12 4 10 10 9 9 4 8 10 10 7 0 7 0 0 10 0 1 4 10 7 4 8 1 10 8 1 0 3
split_gain=4.69326e+11 6.64385e+11 3.37713e+11 9.56223e+10 7.17591e+10 8.42543e+10 1.37418e+11 9.15358e+10 1.48852e+11 6.85584e+10 5.87626e+10 5.81173e+10 6.06732e+10 4.90413e+10 4.6274e+10 4.29076e+10 3.58492e+10 3.26351e+10 9.81836e+10 3.08971e+10 2.40035e+10 2.36673e+10 2.32949e+10 1.81353e+10 1.55306e+10 1.49454e+10 1.39453e+10 1.39229e+10 1.30104e+10 9.49169e+09
threshold=562.50000000000011 7.5000000000000009 311.00000000000006 10000.500000000002 48991.000000000007 305.50000000000006 307.50000000000006 509.00000000000006 11.950000000000001 1000.5000000000001 50.500000000000007 48.000000000000007 25.500000000000004 43.500000000000007 3.5000000000000004 27.500000000000004 89002.500000000015 4.5000000000000009 192.50000000000003 177.50000000000003 140009.00000000003 48.000000000000007 67.500000000000014 7.7500000000000009 403.50000000000006 61001.000000000007 18.050000000000004 556.50000000000011 7.5000000000000009 2011.5000000000002
decision_type=2 2 2 2 2 2 2 2 2 2 2 2 2 2 2 2 2 2 2 2 2 2 2 2 2 2 2 2 2 2
left_child=2 9 3 13 5 7 -7 14 -9 -2 -8 12 16 19 -4 -14 -5 18 -13 24 21 23 -15 -6 -1 -19 -23 -21 -24 -22
right_child=1 -3 4 11 20 6 10 8 -10 -11 -12 17 15 22 -16 -17 -18 25 -20 27 29 26 28 -25 -26 -27 -28 -29 -30 -31
leaf_value=240.2037621838183 -3798.149208984375 19075.6075648154 1461.8504883317387 103.82016172075467 1128.7491815382434 8820.7362698462712 -2182.9292308807376 11499.112065197172 1550.8930413012235 3435.1672825863493 2237.5823379852968 -79.301936324220492 728.31617120219028 -252.76376792326755 357.6245729907497 -271.38458941392145 -135.19668281770939 -190.06026992873922 5224.6663068498892 1236.358799036344 -1917.0142248275433 328.81547326860931 433.82972022204405 4195.0076171874998 834.13303492085561 -360.48662958378992 2820.7959430197011 3031.4640686340335 111.39926297965935 -283.11549438319793
leaf_weight=1107 20 31 612 10306 62 31 32 21 53 38 499 12332 1788 1438 999 565 16044 11017 35 318 47 950 1658 28 731 9655 23 50 5104 146
leaf_count=1107 20 31 612 10306 62 31 32 21 53 38 499 12332 1788 1438 999 565 16044 11017 35 318 47 950 1658 28 731 9655 23 50 5104 146
internal_value=-6.37419e-07 7257.5 -8.53812 -55.094 950.329 1288.71 2349.01 935.073 4374.04 940.92 1971.19 -102.357 1.73404 225.331 777.107 488.269 -41.7125 -192.787 -64.2911 643.877 344.953 531.228 112.731 2082.7 476.418 -269.659 387.721 1480.26 190.457 -681.008
internal_weight=75740 89 75651 72148 3503 2247 562 1685 74 58 531 61742 28703 10406 1611 2353 26350 33039 12367 2206 1256 1063 8200 90 1838 20672 973 368 6762 193
internal_count=75740 89 75651 72148 3503 2247 562 1685 74 58 531 61742 28703 10406 1611 2353 26350 33039 12367 2206 1256 1063 8200 90 1838 20672 973 368 6762 193
is_linear=0
shrinkage=0.1


Tree=24
num_leaves=31
num_cat=0
split_feature=4 10 9 4 0 10 0 1 0 4 9 10 3 7 9 7 3 3 0 0 1 1 3 9 0 0 8 4 4 0
split_gain=3.81211e+11 3.0507e+11 8.8196e+11 1.31766e+11 1.06704e+11 6.99867e+10 4.91511e+10 4.65008e+10 2.21651e+11 7.48022e+10 5.6475e+10 1.00204e+11 4.53201e+10 4.5063e+10 4.40035e+10 4.79858e+10 4.38456e+10 4.61619e+10 5.29538e+10 1.80296e+11 2.93171e+10 2.87508e+10 2.80453e+10 2.80895e+10 4.27017e+10 2.47516e+10 2.44389e+10 2.1491e+10 1.80173e+10 1.5235e+10
threshold=442.00000000000006 251.00000000000003 369.00000000000006 272.50000000000006 14.500000000000002 13866.500000000002 12.500000000000002 396.50000000000006 23.500000000000004 562.50000000000011 262.50000000000006 4902.5000000000009 2009.5000000000002 43.500000000000007 149.50000000000003 43.500000000000007 2002.5000000000002 2017.5000000000002 3.5000000000000004 2.5000000000000004 556.50000000000011 234.50000000000003 2014.5000000000002 277.50000000000006 3.5000000000000004 25.500000000000004 11.350000000000003 423.50000000000006 67.500000000000014 2.5000000000000004
decision_type=2 2 2 2 2 2 2 2 2 2 2 2 2 2 2 2 2 2 2 2 2 2 2 2 2 2 2 2 2 2
left_child=3 2 4 5 -2 13 22 10 -9 -10 26 -12 -7 25 21 -16 -5 27 19 -19 -20 -14 -3 29 -25 -1 -8 -18 -15 -24
right_child=1 6 -4 16 -6 12 7 8 9 -11 11 -13 14 28 15 -17 17 18 20 -21 -22 -23 23 24 -26 -27 -28 -29 -30 -31
leaf_value=436.16367926767191 5246.6660265800283 -2785.692626953125 26121.608935546876 4058.232474888393 -3228.0186609903976 -329.99154304223947 3455.1923492431642 -7787.2975463867188 3145.2057954874908 -2336.0323637863689 8733.6970971084229 2570.8317767993826 -24.264909069292329 -233.99656931222 224.81842307303538 -109.66443980690354 -9.1007765705122363 695.66237933076548 216.73043843766297 4390.9696887806158 1240.902545234982 -208.30837024385391 -958.83747105752263 2290.4348346014708 -1121.63115207838 1429.0692276256186 -664.45297546386723 2789.1044311523438 134.1469337860656 1027.7416058627043
leaf_weight=2165 39 22 20 35 24 7459 24 24 176 29 41 74 14635 1626 8950 8236 1390 695 1328 163 354 20209 93 181 46 284 36 28 7288 66
leaf_count=2165 39 22 20 35 24 7459 24 24 176 29 41 74 14635 1626 8950 8236 1390 695 1328 163 354 20209 93 181 46 284 36 28 7288 66
internal_value=1.37333e-08 2051.59 7826.26 -24.533 2018.21 -56.0318 1461.32 2243.18 1305.31 2369.81 3470.44 4768.03 -99.4688 171.375 -66.4211 64.5251 534.384 503.223 758.39 1397.68 432.282 -131.007 687.126 885.059 1599 551.307 983.405 46.1529 66.994 -134.22
internal_weight=75740 895 83 74845 63 70852 812 404 229 205 175 115 59489 11363 52030 17186 3993 3958 2540 858 1682 34844 408 386 227 2449 60 1418 8914 159
internal_count=75740 895 83 74845 63 70852 812 404 229 205 175 115 59489 11363 52030 17186 3993 3958 2540 858 1682 34844 408 386 227 2449 60 1418 8914 159
is_linear=0
shrinkage=0.1


Tree=25
num_leaves=31
num_cat=0
split_feature=4 10 4 10 10 7 9 10 9 9 0 10 4 8 1 6 9 1 8 3 4 1 10 9 1 1 0 4 8 10
split_gain=3.37424e+11 6.1666e+11 2.18968e+11 7.10296e+10 6.94119e+10 7.1119e+10 6.06471e+10 4.70695e+10 5.94353e+10 8.98876e+10 8.41566e+10 6.40288e+10 5.18328e+10 1.17044e+11 4.20698e+10 3.86266e+10 3.5083e+10 2.33358e+10 2.23078e+10 2.10147e+10 2.03435e+10 1.83269e+10 1.64227e+10 1.6174e+10 1.51333e+10 1.38602e+10 1.10718e+10 8.95342e+09 5.70202e+09 3.057e+09
threshold=562.50000000000011 633.00000000000011 311.00000000000006 5001.0000000000009 90017.000000000015 48.000000000000007 177.50000000000003 57804.000000000007 306.50000000000006 309.50000000000006 3.5000000000000004 50.500000000000007 509.00000000000006 11.950000000000001 234.50000000000003 1.0000000180025095e-35 345.50000000000006 547.50000000000011 8.0500000000000025 2007.5000000000002 272.50000000000006 79.500000000000014 140009.00000000003 203.50000000000003 44.500000000000007 448.50000000000006 25.500000000000004 414.00000000000006 12.950000000000001 204035.00000000003
decision_type=2 2 2 2 2 2 2 2 2 2 2 2 2 2 2 2 2 2 2 2 2 2 2 2 2 2 2 2 2 2
left_child=2 -2 4 -3 5 6 20 8 12 10 -10 -11 15 -14 16 -4 -7 -8 23 29 -1 24 27 -9 -21 -16 -23 -20 -24 -6
right_child=1 3 7 -5 19 14 17 18 9 11 -12 -13 13 -15 25 -17 -18 -19 22 21 -22 26 28 -25 -26 -27 -28 -29 -30 -31
leaf_value=101.67801039613181 19852.405623372397 3794.8361315604971 729.23806350959558 -2952.8898822490987 -295.00006757673856 122.87575609638799 474.49997504395401 972.21854422433046 2226.959229532878 -2818.2154579162598 11010.100805664064 1788.4835402864401 9425.1403586647721 838.18143674616226 -191.28809855270225 -1248.7404066975912 3549.1797074381511 1171.7047266456859 33.642856416127358 -80.748716679958051 1196.3968621098718 -208.3274357144083 -489.54648892386888 4075.0209330240887 255.89867068576865 -10.695939921903856 112.90519922060827 777.39845142784634 -1808.0138867865671 -464.65859761061211
leaf_weight=13001 24 39 1653 26 2386 7755 2007 84 24 32 20 528 22 57 14233 105 30 631 564 5189 172 15822 121 21 1798 6059 1151 227 45 1914
leaf_count=13001 24 39 1653 26 2386 7755 2007 84 24 32 20 528 22 57 14233 105 30 631 564 5189 172 15822 121 21 1798 6059 1151 227 45 1914
internal_value=1.25837e-07 6153.72 -7.23958 1095.75 -44.7275 33.9804 203.615 764.864 1006.65 1867.19 6219.3 1525.24 723.703 3229.49 -61.5462 611.099 136.079 641.269 209.124 -166.961 115.972 -130.43 57.3127 1592.78 5.88246 -137.365 -186.543 247.085 -846.962 -370.518
internal_weight=75740 89 75651 65 72148 43888 15811 3503 2441 604 44 560 1837 79 28077 1758 7785 2638 1062 28260 13173 23960 957 105 6987 20292 16973 791 166 4300
internal_count=75740 89 75651 65 72148 43888 15811 3503 2441 604 44 560 1837 79 28077 1758 7785 2638 1062 28260 13173 23960 957 105 6987 20292 16973 791 166 4300
is_linear=0
shrinkage=0.1


Tree=26
num_leaves=31
num_cat=0
split_feature=4 0 4 10 12 9 0 10 0 1 0 3 1 1 0 0 0 0 1 9 9 1 1 1 3 9 1 9 9 10
split_gain=2.73314e+11 6.05243e+11 1.77364e+11 5.95236e+10 4.98324e+10 3.93384e+10 5.72465e+10 1.52746e+11 7.6142e+10 2.2086e+11 6.14702e+10 4.06117e+10 3.91403e+10 4.69475e+10 4.48859e+10 3.60985e+10 4.61424e+10 4.41733e+10 6.80378e+10 3.14991e+10 2.52589e+10 2.52494e+10 3.66223e+10 2.48745e+10 1.70269e+10 1.62902e+10 1.43911e+10 1.41965e+10 1.30622e+10 1.25653e+10
threshold=562.50000000000011 23.500000000000004 311.00000000000006 7004.0000000000009 6.5000000000000009 284.50000000000006 1.5000000000000002 5901.5000000000009 12.500000000000002 314.00000000000006 11.500000000000002 2016.5000000000002 374.50000000000006 479.50000000000006 1.0000000180025095e-35 25.500000000000004 26.500000000000004 4.5000000000000009 192.50000000000003 154.50000000000003 260.50000000000006 556.50000000000011 558.50000000000011 397.50000000000006 2008.5000000000002 338.50000000000006 60.000000000000007 258.50000000000006 244.50000000000003 50350.500000000007
decision_type=2 2 2 2 2 2 2 2 2 2 2 2 2 2 2 2 2 2 2 2 2 2 2 2 2 2 2 2 2 2
left_child=2 4 3 19 -2 11 7 -7 10 -10 -8 27 14 -14 -13 17 20 18 -5 -1 -17 26 -23 -19 -9 -18 -21 28 -4 -29
right_child=1 -3 5 15 -6 6 8 24 9 -11 -12 12 13 -15 -16 16 25 23 -20 21 -22 22 -24 -25 -26 -27 -28 29 -30 -31
leaf_value=91.119011698929555 1329.962861328125 16026.806541532627 -547.87332575890321 -10.570862418783783 -4927.3521972656254 10993.19613560268 301.89272297560564 -1088.8675592041016 9150.555191617399 1198.3917511577208 -4288.4155045047883 -1270.9013411056164 -1054.5445296525957 875.98216209411623 1094.4539536765431 500.87371356783956 -79.554952382640977 -255.78999828616213 4401.1469369942806 1080.0381091435752 3038.8749911499026 5439.703424072266 1048.3814699948489 -72.963330310807237 2253.8665887832644 -2225.0654649522571 340.18810591833062 -4009.5836660766604 907.37620297469095 -464.83032165527351
leaf_weight=6709 35 34 310 28488 20 21 495 20 37 623 31 86 256 248 1195 1993 2084 17560 35 306 40 24 91 12915 64 36 1867 20 77 20
leaf_count=6709 35 34 310 28488 20 21 495 20 37 623 31 86 256 248 1195 1993 2084 17560 35 306 40 24 91 12915 64 36 1867 20 77 20
internal_value=-1.54946e-07 5538.35 -6.51562 -40.2547 -945.424 688.377 1127.03 3365.02 928.891 1644.19 31.3612 432.366 641.936 -104.603 935.656 -74.5387 210.427 -94.5981 -5.15733 200.389 550.81 520.795 1964.83 -178.31 1457.98 -115.988 444.373 -443.703 -258.328 -2237.21
internal_weight=75740 89 75651 72148 55 3503 1291 105 1186 660 526 2212 1785 504 1281 63151 4153 58998 28523 8997 2033 2288 115 30475 84 2120 2173 427 387 40
internal_count=75740 89 75651 72148 55 3503 1291 105 1186 660 526 2212 1785 504 1281 63151 4153 58998 28523 8997 2033 2288 115 30475 84 2120 2173 427 387 40
is_linear=0
shrinkage=0.1


Tree=27
num_leaves=31
num_cat=0
split_feature=4 9 10 4 3 9 7 10 9 9 8 4 4 8 0 4 0 3 7 1 9 9 10 10 1 8 8 8 3 10
split_gain=2.21384e+11 6.2429e+11 1.37434e+12 1.43665e+11 5.43958e+10 4.97559e+10 5.06094e+10 3.57719e+10 4.65842e+10 6.77361e+10 6.77087e+10 5.18795e+10 4.10556e+10 1.04037e+11 2.86004e+10 2.41741e+10 2.35525e+10 2.17596e+10 1.58731e+10 1.57996e+10 1.41213e+10 5.1289e+10 1.31933e+10 1.28955e+10 1.11639e+10 9.36441e+09 9.36218e+09 5.14387e+09 2.80516e+09 7.0618e+08
threshold=562.50000000000011 387.50000000000006 1500.5000000000002 311.00000000000006 2015.5000000000002 156.50000000000003 43.500000000000007 48991.000000000007 306.50000000000006 309.50000000000006 13.450000000000001 517.00000000000011 509.00000000000006 11.950000000000001 3.5000000000000004 291.00000000000006 3.5000000000000004 2021.5000000000002 48.000000000000007 448.50000000000006 387.50000000000006 345.50000000000006 140009.00000000003 213530.00000000003 43.500000000000007 10.15 7.7500000000000009 12.950000000000001 2003.5000000000002 85000.500000000015
decision_type=2 2 2 2 2 2 2 2 2 2 2 2 2 2 2 2 2 2 2 2 2 2 2 2 2 2 2 2 2 2
left_child=3 2 -2 4 20 16 15 8 12 10 -10 -11 14 -14 -5 -7 24 -8 26 -18 21 23 25 -1 -6 -20 29 -24 -22 -9
right_child=1 -3 -4 7 5 6 17 18 9 11 -12 -13 13 -15 -16 -17 19 -19 22 -21 28 -23 27 -25 -26 -27 -28 -29 -30 -31
leaf_value=-126.93991092347558 30845.214723899146 -6193.3930603027347 -1050.9812151227679 1025.8890172482304 62.30346942940762 396.11525472198525 -98.042880623461599 262.61588825312532 9725.6010058593747 1778.7652659326229 1769.9143041196076 -983.20082811897191 8858.5457972935274 605.07799061366484 162.01825343312086 2365.9419866652715 -113.20911770138032 330.73835953414823 -177.40448537933923 58.582129848412478 -2657.7050872802738 3908.6359886907762 -409.14004554101979 -318.01989763989309 363.07051361595802 460.66302120208741 2750.6617431640625 -1665.72392803616 -1094.4105901544744 916.82378965435601
leaf_weight=19502 22 32 35 621 5091 5615 4808 22 20 424 23 81 21 56 1001 63 22450 1570 373 7030 24 31 118 4313 1629 600 32 45 22 66
leaf_count=19502 22 32 35 621 5091 5615 4808 22 20 424 23 81 21 56 1001 63 22450 1570 373 7030 24 31 118 4313 1629 600 32 45 22 66
internal_value=4.7413e-07 4984.51 11259.8 -5.86406 -36.2293 24.8679 200.822 619.54 858.455 1660.18 5470.23 1335.76 599.865 2856.02 492.76 417.971 -33.7316 7.50534 192.117 -72.2426 -159.631 -156.254 76.5756 -161.545 135.213 216.06 1285.91 -756.05 -1910.04 753.272
internal_weight=75740 89 57 75651 72148 48256 12056 3503 2247 548 43 505 1699 77 1622 5678 36200 6378 1256 29480 23892 23846 1136 23815 6720 973 120 163 46 88
internal_count=75740 89 57 75651 72148 48256 12056 3503 2247 548 43 505 1699 77 1622 5678 36200 6378 1256 29480 23892 23846 1136 23815 6720 973 120 163 46 88
is_linear=0
shrinkage=0.1


Tree=28
num_leaves=31
num_cat=0
split_feature=4 8 8 4 10 7 0 1 0 0 4 9 1 8 8 4 1 7 4 3 3 8 1 4 4 8 1 0 1 10
split_gain=1.79321e+11 6.02876e+11 1.62079e+12 1.16369e+11 4.85939e+10 4.19429e+10 3.3737e+10 1.14124e+11 1.35192e+11 9.64837e+10 8.79015e+10 4.5876e+10 4.42283e+10 7.53195e+10 3.21616e+10 2.55318e+10 2.30499e+10 2.09811e+10 2.36901e+10 2.06285e+10 1.81762e+10 1.69657e+10 1.65636e+10 1.41545e+10 1.34089e+10 1.28593e+10 1.10675e+10 1.01149e+10 1.12334e+10 9.26977e+09
threshold=562.50000000000011 14.750000000000002 16.050000000000004 311.00000000000006 60002.000000000007 43.500000000000007 23.500000000000004 396.50000000000006 12.500000000000002 3.5000000000000004 427.50000000000006 295.50000000000006 559.50000000000011 11.950000000000001 6.6500000000000012 389.50000000000006 234.50000000000003 46.500000000000007 177.50000000000003 2004.5000000000002 2022.5000000000002 10.850000000000003 556.50000000000011 256.00000000000006 389.50000000000006 4.8500000000000005 448.50000000000006 4.5000000000000009 185.50000000000003 170004.50000000003
decision_type=2 2 2 2 2 2 2 2 2 2 2 2 2 2 2 2 2 2 2 2 2 2 2 2 2 2 2 2 2 2
left_child=3 -2 -3 4 5 14 7 8 9 -5 21 -10 13 -8 25 -15 19 18 29 -7 24 -9 -20 -16 -14 -1 -18 28 -19 -6
right_child=1 2 -4 6 17 16 12 10 11 -11 -12 -13 20 15 23 -17 26 27 22 -21 -22 -23 -24 -25 -26 -27 -28 -29 -30 -31
leaf_value=-41.822768245039924 -5737.0178996930808 33700.7880859375 -2175.3098008099728 897.82279938537977 -43.374242744995541 2145.607535142165 7988.6568945312501 2092.7137182617189 1631.3743309422543 -486.64618025414438 -6548.830311802456 4259.293608274299 596.239910079693 285.34419371625211 562.25699616652719 2275.7213271238747 -116.22222154449604 -127.84688789443385 105.15656415273207 145.28799589729041 2440.810120123786 -900.28758181270098 769.23697966793941 1921.6668683815003 -886.02091509230604 259.75887886684671 50.634373865731035 -254.59280675742903 482.63931935648571 -201.52217299664005
leaf_weight=2267 35 20 34 1426 11983 52 20 20 152 778 28 118 174 94 1799 205 12355 8141 3955 6022 37 357 415 80 94 3757 5861 9782 313 5366
leaf_count=2267 35 20 34 1426 11983 52 20 20 152 778 28 118 174 94 1799 205 12355 8141 3955 6022 37 357 415 80 94 3757 5861 9782 313 5366
internal_value=-1.55163e-07 4486.06 11112.1 -5.27765 -32.6063 58.8225 557.586 413.107 667.846 409.113 -1143 2779.87 1224.18 2047.39 258.931 1649.98 -6.28496 -106.273 -39.8726 162.413 363.18 -741.508 168.221 620.135 76.3425 146.265 -62.5361 -185.357 -105.244 -92.289
internal_weight=75740 89 54 75651 72148 32193 3503 2879 2474 2204 405 270 624 319 7903 299 24290 39955 21719 6074 305 377 4370 1879 268 6024 18216 18236 8454 17349
internal_count=75740 89 54 75651 72148 32193 3503 2879 2474 2204 405 270 624 319 7903 299 24290 39955 21719 6074 305 377 4370 1879 268 6024 18216 18236 8454 17349
is_linear=0
shrinkage=0.1


Tree=29
num_leaves=31
num_cat=0
split_feature=4 0 4 10 7 9 2 0 0 10 8 1 0 0 3 1 9 1 4 3 4 3 0 4 1 1 4 6 1 4
split_gain=1.4525e+11 6.10597e+11 9.42587e+10 4.15292e+10 4.08965e+10 3.92489e+10 3.78141e+10 2.95791e+10 8.75637e+10 1.30412e+11 4.89191e+10 3.8984e+10 9.53547e+10 6.62131e+10 6.32725e+10 2.51003e+10 1.81678e+10 1.67209e+10 1.65218e+10 1.74834e+10 1.47438e+10 1.25712e+10 1.17722e+10 7.73615e+09 7.45892e+09 6.49272e+09 2.88974e+09 3.1635e+09 2.08361e+09 1.33369e+09
threshold=562.50000000000011 23.500000000000004 311.00000000000006 107045.00000000001 51.500000000000007 177.50000000000003 5.5000000000000009 1.5000000000000002 1.0000000180025095e-35 1500.5000000000002 13.750000000000002 76.500000000000014 3.5000000000000004 12.500000000000002 2018.5000000000002 234.50000000000003 345.50000000000006 556.50000000000011 461.50000000000006 2010.5000000000002 241.00000000000003 2007.5000000000002 4.5000000000000009 300.50000000000006 179.50000000000003 400.50000000000006 199.50000000000003 1.0000000180025095e-35 18.500000000000004 122.50000000000001
decision_type=2 2 2 2 2 2 2 2 2 2 2 2 2 2 2 2 2 2 2 2 2 2 2 2 2 2 2 2 2 2
left_child=2 6 3 4 5 20 -2 8 28 -10 -11 18 14 -14 -13 16 -6 -7 19 -9 -1 26 24 -17 -23 -24 29 -28 -4 -5
right_child=1 -3 7 21 15 17 -8 11 9 10 -12 12 13 -15 -16 23 -18 -19 -20 -21 -22 22 25 -25 -26 -27 27 -29 -30 -31
leaf_value=58.47131177808933 -251.95848045349123 14572.205007384806 -556.80647566511823 -322.63816412413712 82.340796090406457 374.36395246606827 -5567.7669476052988 -2180.7622909918064 9285.5918057955241 3152.9490292456844 -361.28433165619344 635.65525258704076 -437.98156405745561 728.54828289509555 2880.533898114265 -104.60557512514168 2433.0455502596769 1070.4563791236494 -3036.0946916852681 -44.620121968526114 671.86031516250694 -58.830931118525363 -289.20568164313244 -1049.5011766280252 353.2075411705211 -100.55300565692353 -836.04175645625787 119.16983117391896 -1546.6843657226564 -199.01753325309303
leaf_weight=15545 32 34 37 2531 8899 2684 23 41 26 93 69 237 778 1299 267 21400 33 396 21 585 402 10783 4069 87 458 3307 179 43 50 1332
leaf_count=15545 32 34 37 2531 8899 2684 23 41 26 93 69 237 778 1299 267 21400 33 396 21 585 402 10783 4069 87 458 3307 179 43 50 1332
internal_value=2.6107e-07 4037.46 -4.74989 -29.3457 22.0623 137.054 -2474.93 501.827 1497.4 2711.28 1656.15 417.012 591.006 291.591 1824.91 -49.8644 91.0257 463.862 -277.082 -184.527 73.9339 -141.315 -106.457 -108.431 -42.043 -204.624 -300.175 -651.023 -1125.7 -280.013
internal_weight=75740 89 75651 72148 49446 19027 55 3503 275 188 162 3228 2581 2077 504 30419 8932 3080 647 626 15947 22702 18617 21487 11241 7376 4085 222 87 3863
internal_count=75740 89 75651 72148 49446 19027 55 3503 275 188 162 3228 2581 2077 504 30419 8932 3080 647 626 15947 22702 18617 21487 11241 7376 4085 222 87 3863
is_linear=0
shrinkage=0.1


Tree=30
num_leaves=31
num_cat=0
split_feature=4 10 0 4 4 0 10 1 1 9 4 10 0 10 0 0 4 0 9 4 9 0 10 4 1 3 10 0 4 1
split_gain=1.19117e+11 1.94155e+11 8.10738e+11 2.98376e+11 6.36379e+10 8.09909e+10 5.22996e+10 4.15479e+10 1.05311e+11 3.85603e+10 8.90834e+10 3.38093e+10 3.27313e+10 2.48086e+10 2.78081e+10 5.27056e+10 6.25459e+10 2.67359e+10 2.51399e+10 2.26395e+10 3.93678e+10 2.16728e+10 1.95714e+10 1.75087e+10 1.6466e+10 1.22616e+10 2.2371e+10 1.85465e+10 1.06356e+10 7.94372e+09
threshold=442.00000000000006 251.00000000000003 23.500000000000004 534.00000000000011 555.50000000000011 14.500000000000002 10000.500000000002 556.50000000000011 558.50000000000011 306.50000000000006 452.00000000000006 15001.000000000002 7.5000000000000009 170004.50000000003 3.5000000000000004 2.5000000000000004 409.50000000000006 23.500000000000004 340.50000000000006 406.00000000000006 229.50000000000003 26.500000000000004 4177.0000000000009 291.00000000000006 43.500000000000007 2017.5000000000002 23418.500000000004 2.5000000000000004 74.500000000000014 401.50000000000006
decision_type=2 2 2 2 2 2 2 2 2 2 2 2 2 2 2 2 2 2 2 2 2 2 2 2 2 2 2 2 2 2
left_child=6 2 3 -2 9 22 7 12 23 25 -11 -12 19 14 15 24 -17 18 -16 20 -1 -19 -6 -9 -8 26 -3 -27 -14 -30
right_child=1 4 -4 -5 5 -7 13 8 -10 10 11 -13 28 -15 17 16 -18 21 -20 -21 -22 -23 -24 -25 -26 27 -28 -29 29 -31
leaf_value=360.18172577578457 5212.5068691253664 -3516.0576693725584 19987.191221562141 -9537.6103597005203 3087.0259796142582 -5807.3340332031257 1.4666328180086465 3823.369473544034 609.02167307609477 8287.5031341552731 2661.0281809097683 415.33362679451142 -140.87657960722876 -196.27979326398031 -93.863828567828364 3063.9879709160123 -2210.8867909022742 408.11724599425924 1170.2158057502554 -1438.4445386332852 1598.514449511634 -48.98831528321432 -1283.9505347842262 7812.9807528409092 243.02796350794858 -692.72685269249814 109.94325304533307 1138.9870512569653 -13.99609080057278 219.67819745557668
leaf_weight=2364 32 20 27 24 20 33 8036 22 329 20 117 157 2159 9665 37176 114 28 2070 158 62 288 2079 21 22 4349 72 114 238 2568 3356
leaf_count=2364 32 20 27 24 20 33 8036 22 329 20 117 157 2159 9665 37176 114 28 2070 158 62 288 2079 21 22 4349 72 114 238 2568 3356
internal_value=1.28757e-07 1146.82 5753.64 -1108.97 675.921 -2119.79 -13.7137 185.87 1223.51 956.25 1844.55 1374.26 150.024 -48.7251 -22.3204 108.255 2023.87 -61.7514 -88.5142 450.5 494.661 179.069 848.233 5818.18 86.291 368.052 -431.251 713.557 49.1334 118.383
internal_weight=75740 895 83 56 812 74 74845 11170 373 738 294 274 10797 63675 54010 12527 142 41483 37334 2714 2652 4149 41 44 12385 444 134 310 8083 5924
internal_count=75740 895 83 56 812 74 74845 11170 373 738 294 274 10797 63675 54010 12527 142 41483 37334 2714 2652 4149 41 44 12385 444 134 310 8083 5924
is_linear=0
shrinkage=0.1


Tree=31
num_leaves=31
num_cat=0
split_feature=4 12 10 4 3 3 1 1 3 8 0 0 0 3 0 1 1 1 0 4 0 0 1 0 4 10 10 9 0 9
split_gain=1.2991e+11 5.72802e+11 1.09159e+11 5.86836e+10 2.93373e+10 2.74567e+10 3.89641e+10 1.50741e+11 6.44915e+10 2.96454e+10 7.04087e+10 2.95528e+10 1.19072e+11 2.38233e+10 2.13364e+10 2.41657e+10 2.06978e+10 3.11439e+10 2.06141e+10 2.00182e+10 1.99544e+10 1.62085e+10 1.6162e+10 1.55343e+10 1.17888e+10 8.43308e+09 7.3394e+09 5.96494e+09 4.49363e+09 4.36068e+09
threshold=562.50000000000011 7.5000000000000009 1000.5000000000001 272.50000000000006 2022.5000000000002 2017.5000000000002 192.50000000000003 323.50000000000006 2015.5000000000002 16.250000000000004 23.500000000000004 1.0000000180025095e-35 1.5000000000000002 2006.5000000000002 25.500000000000004 554.50000000000011 192.50000000000003 179.50000000000003 4.5000000000000009 395.50000000000006 25.500000000000004 23.500000000000004 397.50000000000006 26.500000000000004 383.50000000000006 96305.000000000015 15.500000000000002 244.50000000000003 14.500000000000002 154.50000000000003
decision_type=2 2 2 2 2 2 2 2 2 2 2 2 2 2 2 2 2 2 2 2 2 2 2 2 2 2 2 2 2 2
left_child=3 2 -2 4 14 6 13 8 -8 11 24 -7 -13 25 16 27 17 -1 26 -15 28 -9 -18 -17 -11 -5 -6 -16 -20 -28
right_child=1 -3 -4 5 18 9 7 21 -10 10 -12 12 -14 19 15 23 22 -19 20 -21 -22 -23 -24 -25 -26 -27 29 -29 -30 -31
leaf_value=-20.376225271128867 -8026.6593505859382 14791.687056018462 1100.526927425987 -3191.4639475795202 163.24727771107007 -1306.781584195393 4319.2482533167276 -1287.0669196184945 -839.77752471923839 -749.29963538128402 4043.3089154052741 3830.5865214029945 491.41609161819588 84.968231080286898 905.93612976075315 341.62833102881973 -176.80742770957431 516.29530814833163 -113.84375878821341 -833.93969811225998 941.88528449220485 144.5046534301112 -34.394948140529259 -50.347132837240906 -3468.2358032226566 -963.25117150509004 544.99666922556332 2660.9101399739584 110.71071829088265 1027.5240606830305
leaf_weight=27253 20 31 38 35 296 82 126 136 30 23 20 111 2816 811 34 1962 18638 1126 1231 335 265 189 13921 2086 52 33 442 45 3228 325
leaf_count=27253 20 31 38 35 296 82 126 136 30 23 20 111 2816 811 34 1962 18638 1126 1231 335 265 189 13921 2086 52 33 442 45 3228 325
internal_value=-8.04591e-08 3818.3 -2046.78 -4.49206 -27.4139 333.925 10.2378 771.938 3327.13 510.68 -1228.59 565.592 618.047 -291.556 -46.6045 173.442 -61.507 0.917413 188.351 -183.648 98.8214 -454.553 -115.917 139.637 -2634.43 -2110.13 586.223 1905.6 48.7178 749.457
internal_weight=75740 89 58 75651 70852 4799 1695 481 156 3104 95 3009 2927 1214 65065 4127 60938 28379 5787 1146 4724 325 32559 4048 75 68 1063 79 4459 767
internal_count=75740 89 58 75651 70852 4799 1695 481 156 3104 95 3009 2927 1214 65065 4127 60938 28379 5787 1146 4724 325 32559 4048 75 68 1063 79 4459 767
is_linear=0
shrinkage=0.1


Tree=32
num_leaves=31
num_cat=0
split_feature=4 1 8 4 10 2 1 0 10 8 1 0 3 0 7 7 4 1 1 0 4 3 9 9 4 4 10 3 10 10
split_gain=1.05227e+11 5.12689e+11 1.48996e+12 4.75468e+10 2.94197e+10 2.35418e+10 2.18991e+10 5.72336e+10 9.66976e+10 3.16529e+10 2.47652e+10 7.21861e+10 4.50137e+10 4.05563e+10 1.88798e+10 1.73915e+10 2.01589e+10 1.53786e+10 1.27016e+10 1.31764e+10 1.26972e+10 1.29939e+10 1.17302e+10 1.50553e+10 1.17004e+10 9.14935e+09 8.69254e+09 4.62363e+09 2.19313e+09 2.22779e+09
threshold=562.50000000000011 323.50000000000006 17.050000000000004 311.00000000000006 28401.500000000004 1.5000000000000002 39.500000000000007 1.0000000180025095e-35 1500.5000000000002 13.15 76.500000000000014 3.5000000000000004 2018.5000000000002 12.500000000000002 43.500000000000007 48.000000000000007 177.50000000000003 138.50000000000003 403.50000000000006 4.5000000000000009 461.50000000000006 2010.5000000000002 358.50000000000006 351.50000000000006 67.500000000000014 256.00000000000006 120019.00000000001 2009.5000000000002 29002.000000000004 5901.5000000000009
decision_type=2 2 2 2 2 2 2 2 2 2 2 2 2 2 2 2 2 2 2 2 2 2 2 2 2 2 2 2 2 2
left_child=3 5 -3 4 14 -2 7 28 -9 -10 20 12 -12 -13 18 16 26 -18 19 -1 21 -8 23 -17 -16 -20 -6 -26 29 -5
right_child=1 2 -4 6 15 -7 10 8 9 -11 11 13 -14 -15 24 22 17 -19 25 -21 -22 -23 -24 -25 27 -27 -28 -29 -30 -31
leaf_value=356.6733883158563 -2224.898304966518 31298.577739257817 -4712.7189561631949 -815.07699991861989 15.782682631612454 -6959.9561116536461 -1912.4332968362951 7836.7797053410459 2682.4251976943597 -71.475903535730694 490.794946173173 -411.20117871448747 2384.2612788968322 501.76123769230071 -160.04415463627345 -113.14730094491186 35.596589667885915 383.51348246608984 484.36752417687387 -122.93443297535094 -2692.1159644717263 -70.351033613270729 -1599.5083704534568 1853.0062330979567 1495.2939583156422 2249.0943086751304 -112.92364721389725 76.044721060020535 -176.95139589662907 -2092.6071289062502
leaf_weight=1289 21 20 27 39 11344 21 41 26 82 85 237 778 267 1299 2490 27789 3184 2114 1419 1031 21 580 53 39 23 30 9764 11579 27 21
leaf_count=1289 21 20 27 39 11344 21 41 26 82 85 237 778 267 1299 2490 27789 3184 2114 1419 1031 21 580 53 39 23 30 9764 11579 27 21
internal_value=-2.27651e-07 3436.47 10611.2 -4.04286 -21.5116 -4592.43 355.744 1204.03 2163.94 1280.74 282.048 420.298 1493.88 159.785 89.8158 -58.1395 0.0204235 174.422 288.617 143.537 -273.75 -191.97 -113.223 -110.392 36.6452 520.904 -43.7534 78.8583 -925.407 -1262.21
internal_weight=75740 89 47 75651 72148 42 3503 280 193 167 3223 2581 504 2077 17861 54287 26406 5298 3769 2320 642 621 27881 27828 14092 1449 21108 11602 87 60
internal_count=75740 89 47 75651 72148 42 3503 280 193 167 3223 2581 504 2077 17861 54287 26406 5298 3769 2320 642 621 27881 27828 14092 1449 21108 11602 87 60
is_linear=0
shrinkage=0.1


Tree=33
num_leaves=31
num_cat=0
split_feature=4 4 2 10 9 0 10 10 4 0 7 3 9 3 0 0 3 1 4 1 4 3 1 0 4 9 1 10 4 4
split_gain=8.52338e+10 5.40716e+11 2.14661e+11 3.91986e+10 4.86045e+10 2.63873e+10 8.64695e+10 2.55505e+10 7.23792e+10 2.67181e+10 1.88051e+10 1.78549e+10 1.70004e+10 1.52953e+10 1.82311e+10 3.45497e+10 1.62094e+10 1.38308e+10 1.41484e+10 1.31063e+10 1.08118e+10 1.02051e+10 8.10349e+09 8.7213e+09 6.78325e+09 6.57581e+09 4.99737e+09 3.15784e+09 5.93877e+09 2.4711e+09
threshold=562.50000000000011 566.50000000000011 4.5000000000000009 57000.500000000007 284.50000000000006 1.5000000000000002 5901.5000000000009 99.500000000000014 452.00000000000006 2.5000000000000004 48.000000000000007 2008.5000000000002 131.50000000000003 2008.5000000000002 3.5000000000000004 2.5000000000000004 2016.5000000000002 192.50000000000003 528.00000000000011 44.500000000000007 256.00000000000006 2022.5000000000002 535.00000000000011 26.500000000000004 302.50000000000006 358.50000000000006 205.50000000000003 235012.50000000003 245.50000000000003 101.00000000000001
decision_type=2 2 2 2 2 2 2 2 2 2 2 2 2 2 2 2 2 2 2 2 2 2 2 2 2 2 2 2 2 2
left_child=3 -2 -3 4 10 6 -6 8 -7 -9 12 -8 24 25 15 19 -17 21 -19 -15 -14 -12 26 -24 -1 27 -16 29 -29 -5
right_child=1 2 -4 13 5 7 11 9 -10 -11 17 -13 20 14 22 16 -18 18 -20 -21 -22 -23 23 -25 -26 -27 -28 28 -30 -31
leaf_value=15.463863074419914 15564.065660156251 3328.8169489542643 -8345.623724365234 -247.54009108661785 7941.7915457589297 426.36625272310698 -1712.879327947443 -693.79044903211366 -5384.5433485243057 882.49948987807807 77.943293897506152 1676.0355556272114 263.64518451641601 -21.39649112754536 -43.119018423859913 1069.7252014160156 4121.4230486188617 -52.215705245804045 2158.6038837301321 226.93141705720834 1150.9615902082294 455.54519937627322 278.83977872621784 -100.45610269161762 1174.9502052456726 -1259.9584587605796 -137.82306544888897 -300.36515494216633 -1600.2619533962675 -93.335344025252084
leaf_weight=4724 25 36 28 1893 21 104 22 121 27 966 5047 53 5265 6852 8666 46 28 15767 29 3081 141 834 1203 1222 51 60 15606 1482 36 2304
leaf_count=4724 25 36 28 1893 21 104 22 121 27 966 5047 53 5265 6852 8666 46 28 15767 29 3081 141 834 1203 1222 51 60 15606 1482 36 2304
internal_value=-6.77233e-08 3092.83 -1778.75 -3.63857 77.8186 673.843 2270.04 548.034 -771.302 707.034 53.2353 681.954 165.342 -67.2488 -43.4469 71.6672 2224.42 0.582137 -48.1568 55.6294 286.788 131.492 -86.5958 87.7059 27.8479 -218.526 -104.01 -207.592 -331.193 -162.887
internal_weight=75740 89 64 75651 33172 1314 96 1218 131 1087 31858 75 10181 42479 36704 10007 74 21677 15796 9933 5406 5881 26697 2425 4775 5775 24272 5715 1518 4197
internal_count=75740 89 64 75651 33172 1314 96 1218 131 1087 31858 75 10181 42479 36704 10007 74 21677 15796 9933 5406 5881 26697 2425 4775 5775 24272 5715 1518 4197
is_linear=0
shrinkage=0.1


Tree=34
num_leaves=31
num_cat=0
split_feature=4 1 8 10 9 9 4 8 9 4 0 4 0 1 1 10 0 1 4 1 7 3 8 8 10 4 4 4 10 1
split_gain=6.90394e+10 5.68104e+11 1.02997e+12 3.18795e+10 3.77974e+10 8.54287e+10 2.64159e+10 8.81169e+10 2.88168e+10 2.5535e+10 8.83821e+10 4.89517e+10 1.88361e+10 2.15134e+10 1.96922e+10 1.32419e+10 1.40366e+10 1.6077e+10 1.48264e+10 1.23202e+10 8.6185e+09 7.5002e+09 5.63141e+09 4.02997e+09 1.75582e+09 1.61256e+09 1.57029e+09 8.79047e+08 6.43613e+08 1.71987e+08
threshold=562.50000000000011 533.50000000000011 14.750000000000002 47800.500000000007 306.50000000000006 307.50000000000006 509.00000000000006 11.950000000000001 281.50000000000006 517.00000000000011 23.500000000000004 492.50000000000006 23.500000000000004 192.50000000000003 537.50000000000011 200001.00000000003 4.5000000000000009 179.50000000000003 406.00000000000006 400.50000000000006 48.000000000000007 2007.5000000000002 11.15 13.050000000000002 259052.50000000003 245.50000000000003 114.50000000000001 190.50000000000003 248002.50000000003 144.50000000000003
decision_type=2 2 2 2 2 2 2 2 2 2 2 2 2 2 2 2 2 2 2 2 2 2 2 2 2 2 2 2 2 2
left_child=3 2 -2 4 6 -6 12 -8 -9 11 -11 -7 13 -1 -14 16 17 21 -19 23 -21 -5 24 -18 26 29 -17 -26 -27 -24
right_child=1 -3 -4 15 5 9 7 8 -10 10 -12 -13 14 -15 -16 22 19 18 -20 20 -22 -23 25 -25 27 28 -28 -29 -30 -31
leaf_value=170.99942452332886 -3540.8003228956654 -7879.5065505981447 23447.863780799278 -210.04400437388986 6635.9226350784302 619.40837562309389 7434.1382021949412 -2878.8240298063861 1732.1840760202119 -3813.6369440714516 3036.4211173765125 5413.643828097257 3195.8499796549481 -27.724694959022074 314.33083581197189 -214.73774903282947 -171.6479346413289 496.5876380121062 -1422.967265683129 76.798621617225265 -106.48410609224473 23.196389435617714 -692.74528429754855 420.92901344299321 -241.78795043116494 -951.81204672420722 -81.650139431112237 -510.11615662319974 -1612.751650766226 -361.24805926154642
leaf_weight=7798 31 32 26 1496 24 667 21 23 33 48 31 22 24 18074 2008 1614 10786 959 42 5254 5014 17581 29 116 1795 34 1967 131 26 34
leaf_count=7798 31 32 26 1496 24 667 21 23 33 48 31 22 24 18074 2008 1614 10786 959 42 5254 5014 17581 29 116 1795 34 1967 131 26 34
internal_value=-3.3158e-08 2783.54 8769.82 -3.27471 79.5844 760.836 60.3016 1909.95 -161.623 577.24 -1125.64 772.49 55.1976 32.1721 348.365 -54.1324 -34.4968 25.4036 416.047 -91.3074 -12.7008 4.9059 -197.992 -165.343 -183.045 -867.197 -141.634 -260.039 -1238.22 -513.842
internal_weight=75740 89 57 75651 28773 792 27981 77 56 768 79 689 27904 25872 2032 46878 41248 20078 1001 21170 10268 19077 5630 10902 5507 123 3581 1926 60 63
internal_count=75740 89 57 75651 28773 792 27981 77 56 768 79 689 27904 25872 2032 46878 41248 20078 1001 21170 10268 19077 5630 10902 5507 123 3581 1926 60 63
is_linear=0
shrinkage=0.1


Tree=35
num_leaves=29
num_cat=0
