{"learner":{"attributes":{"scikit_learn":"{\"_estimator_type\": \"regressor\"}"},"feature_names":["brand","model","color","year","power_kw","power_ps","transmission_type","fuel_type","fuel_consumption_l_100km","fuel_consumption_g_km","mileage_in_km","reg_year","reg_month"],"feature_types":["int","int","int","float","float","float","int","int","float","float","float","float","float"],"gradient_booster":{"model":{"gbtree_model_param":{"num_parallel_tree":"1","num_trees":"100"},"iteration_indptr":[0,1,2,3,4,5,6,7,8,9,10,11,12,13,14,15,16,17,18,19,20,21,22,23,24,25,26,27,28,29,30,31,32,33,34,35,36,37,38,39,40,41,42,43,44,45,46,47,48,49,50,51,52,53,54,55,56,57,58,59,60,61,62,63,64,65,66,67,68,69,70,71,72,73,74,75,76,77,78,79,80,81,82,83,84,85,86,87,88,89,90,91,92,93,94,95,96,97,98,99,100],"tree_info":[0,0,0,0,0,0,0,0,0,0,0,0,0,0,0,0,0,0,0,0,0,0,0,0,0,0,0,0,0,0,0,0,0,0,0,0,0,0,0,0,0,0,0,0,0,0,0,0,0,0,0,0,0,0,0,0,0,0,0,0,0,0,0,0,0,0,0,0,0,0,0,0,0,0,0,0,0,0,0,0,0,0,0,0,0,0,0,0,0,0,0,0,0,0,0,0,0,0,0,0],"trees":[{"base_weights":[-9.85936E-4,-4.195695E3,1.6879845E5,-8.1699683E3,2.3850836E4,2.534459E5,8.597189E4,-1.5317118E4,-1.1238617E3,4.545406E4,1.2594009E4,1.9608598E5,4.1782416E5,3.804213E4,1.1800019E5,-2.050951E4,-1.1838449E4,-8.583795E3,5.2140767E3,4.003861E4,9.2593734E4,1.9331326E4,-1.4341643E3,1.7003444E5,2.5843422E5,3.2135938E5,6.745562E5,3.4527562E4,9.547619E4,8.982421E4,1.7195155E5,-2.2466016E4,-1.726433E4,-1.4820265E4,-6.2308843E3,-1.1472028E4,-4.5170645E3,1.7130198E3,1.4280111E4,3.4332605E4,6.612785E4,5.004416E3,1.0191336E5,1.366321E4,3.3806242E4,-7.503551E3,7.1590415E3,1.8765308E5,1.19185E5,2.0467738E5,3.1285884E5,2.0622703E5,3.9648466E5,1.9400062E6,5.3201725E5,2.362128E4,4.7018855E4,1.2787088E4,4.705495E3,1.1885929E5,6.930071E4,1.3268992E5,2.5687668E4,-2.405299E3,-2.0358846E3,-1.258784E3,-1.9156742E3,-1.777152E3,-1.2871593E3,-7.5636176E2,-4.2081417E1,-1.4681517E3,-9.261476E2,-9.49903E2,-1.0459823E2,-1.0400985E2,7.913787E2,5.600709E2,2.039594E3,2.4116943E3,4.2625444E3,4.674132E3,7.6446987E3,1.2301933E4,8.99089E3,1.0799222E3,2.8295432E3,1.2726194E4,3.2538005E3,-4.6354556E2,-1.322015E3,2.2883781E2,1.2060209E3,1.3538258E4,2.1887518E4,7.139747E3,1.4767736E4,2.6049166E4,1.5417828E4,3.2547115E4,2.2945535E4,2.8995463E4,1.1421503E4,4.265624E4,7.410565E3,3.0276038E5,6.3930664E4,4.0291723E4,6.1761074E4,2.681528E3,1.0893539E3,4.1658623E3,5.688444E3,1.24701045E4,6.5477236E3,8.089379E3,3.6687273E3,1.4171041E4,4.6537964E3],"categories":[],"categories_nodes":[],"categories_segments":[],"categories_sizes":[],"default_left":[0,0,0,0,0,0,0,0,0,0,0,0,0,0,0,0,0,0,0,0,0,0,0,0,0,0,0,0,0,0,0,0,0,0,0,0,0,0,0,0,0,0,0,0,0,0,0,0,0,0,0,0,0,0,0,0,0,0,0,0,0,0,0,0,0,0,0,0,0,0,0,0,0,0,0,0,0,0,0,0,0,0,0,0,0,0,0,0,0,0,0,0,0,0,0,0,0,0,0,0,0,0,0,0,0,0,0,0,0,0,0,0,0,0,0,0,0,0,0],"id":0,"left_children":[1,3,5,7,9,11,13,15,17,19,21,23,25,27,29,31,33,35,37,39,41,43,45,47,49,51,53,55,57,59,61,63,65,67,69,71,73,75,77,79,81,-1,83,85,87,89,91,93,95,97,99,101,103,105,107,109,111,-1,-1,113,115,117,-1,-1,-1,-1,-1,-1,-1,-1,-1,-1,-1,-1,-1,-1,-1,-1,-1,-1,-1,-1,-1,-1,-1,-1,-1,-1,-1,-1,-1,-1,-1,-1,-1,-1,-1,-1,-1,-1,-1,-1,-1,-1,-1,-1,-1,-1,-1,-1,-1,-1,-1,-1,-1,-1,-1,-1,-1],"loss_changes":[5.36425E13,8.237985E12,1.2857521E13,3.2599093E12,2.2301513E12,8.479356E12,1.4231614E12,5.8021695E11,1.5412977E12,7.983905E11,5.701258E11,1.05243686E12,5.57837E12,7.21976E10,8.312686E11,8.1459675E10,3.2171465E11,1.7582785E11,5.5940547E11,4.1753038E11,1.2298433E11,3.3387355E11,1.0217416E11,4.0676884E11,5.123269E11,1.4059244E12,1.0331563E13,4.711606E10,2.692345E10,2.1105476E11,5.994316E11,2.6393444E10,4.270706E10,7.202695E10,5.1745096E10,6.1978444E10,1.0755135E11,2.1708874E11,2.6051713E11,1.9517617E11,9.745308E10,0E0,5.582802E10,1.2248046E11,1.3168725E11,1.8761036E10,1.9332538E10,5.4809487E11,1.6101527E11,2.4733208E11,2.6303529E10,5.0615917E11,9.671195E11,6.552258E12,3.9206152E11,7.4724966E9,6.3028593E9,0E0,0E0,3.8923272E10,7.945591E10,9.5986385E10,0E0,0E0,0E0,0E0,0E0,0E0,0E0,0E0,0E0,0E0,0E0,0E0,0E0,0E0,0E0,0E0,0E0,0E0,0E0,0E0,0E0,0E0,0E0,0E0,0E0,0E0,0E0,0E0,0E0,0E0,0E0,0E0,0E0,0E0,0E0,0E0,0E0,0E0,0E0,0E0,0E0,0E0,0E0,0E0,0E0,0E0,0E0,0E0,0E0,0E0,0E0,0E0,0E0,0E0,0E0,0E0,0E0],"parents":[2147483647,0,0,1,1,2,2,3,3,4,4,5,5,6,6,7,7,8,8,9,9,10,10,11,11,12,12,13,13,14,14,15,15,16,16,17,17,18,18,19,19,20,20,21,21,22,22,23,23,24,24,25,25,26,26,27,27,28,28,29,29,30,30,31,31,32,32,33,33,34,34,35,35,36,36,37,37,38,38,39,39,40,40,42,42,43,43,44,44,45,45,46,46,47,47,48,48,49,49,50,50,51,51,52,52,53,53,54,54,55,55,56,56,59,59,60,60,61,61],"right_children":[2,4,6,8,10,12,14,16,18,20,22,24,26,28,30,32,34,36,38,40,42,44,46,48,50,52,54,56,58,60,62,64,66,68,70,72,74,76,78,80,82,-1,84,86,88,90,92,94,96,98,100,102,104,106,108,110,112,-1,-1,114,116,118,-1,-1,-1,-1,-1,-1,-1,-1,-1,-1,-1,-1,-1,-1,-1,-1,-1,-1,-1,-1,-1,-1,-1,-1,-1,-1,-1,-1,-1,-1,-1,-1,-1,-1,-1,-1,-1,-1,-1,-1,-1,-1,-1,-1,-1,-1,-1,-1,-1,-1,-1,-1,-1,-1,-1,-1,-1],"split_conditions":[3.9E2,2.02E2,2.12E4,2.018E3,3.2998E4,4.93E2,1.12E1,2.013E3,1.04E2,3.6E2,1.162E5,4.6E2,2.2E1,5E0,4.6E2,1.25E2,1.3E2,2.021E3,2.022E3,2.3E1,1E0,2.9E2,2.015E3,1.4E1,1.4E1,1.3E1,2.5E2,2.018E3,1.4E1,4.4E4,2.2E1,2.01E3,1.49E5,8.8E1,1.85E2,7.7E1,7.5E1,1.45E2,1.2E2,2.45E2,1.99E2,5.004416E3,4E0,2.3E1,2.003E3,1.97458E5,2.017E3,3E0,2.3E1,9E1,2.5E1,6.4E1,1.4E1,1.69E1,2.019E3,1.43E5,2.42E2,1.2787088E4,4.705495E3,2.5E1,9.3E4,1.4E1,2.5687668E4,-2.405299E3,-2.0358846E3,-1.258784E3,-1.9156742E3,-1.777152E3,-1.2871593E3,-7.5636176E2,-4.2081417E1,-1.4681517E3,-9.261476E2,-9.49903E2,-1.0459823E2,-1.0400985E2,7.913787E2,5.600709E2,2.039594E3,2.4116943E3,4.2625444E3,4.674132E3,7.6446987E3,1.2301933E4,8.99089E3,1.0799222E3,2.8295432E3,1.2726194E4,3.2538005E3,-4.6354556E2,-1.322015E3,2.2883781E2,1.2060209E3,1.3538258E4,2.1887518E4,7.139747E3,1.4767736E4,2.6049166E4,1.5417828E4,3.2547115E4,2.2945535E4,2.8995463E4,1.1421503E4,4.265624E4,7.410565E3,3.0276038E5,6.3930664E4,4.0291723E4,6.1761074E4,2.681528E3,1.0893539E3,4.1658623E3,5.688444E3,1.24701045E4,6.5477236E3,8.089379E3,3.6687273E3,1.4171041E4,4.6537964E3],"split_indices":[4,4,10,3,10,4,8,3,4,4,10,4,0,0,4,4,4,3,3,0,0,4,3,0,0,0,10,3,0,10,0,3,10,4,4,4,4,4,4,4,9,0,0,0,3,10,3,0,0,1,0,1,0,8,3,10,9,0,0,0,10,0,0,0,0,0,0,0,0,0,0,0,0,0,0,0,0,0,0,0,0,0,0,0,0,0,0,0,0,0,0,0,0,0,0,0,0,0,0,0,0,0,0,0,0,0,0,0,0,0,0,0,0,0,0,0,0,0,0],"split_type":[0,0,0,0,0,0,0,0,0,0,0,0,0,0,0,0,0,0,0,0,0,0,0,0,0,0,0,0,0,0,0,0,0,0,0,0,0,0,0,0,0,0,0,0,0,0,0,0,0,0,0,0,0,0,0,0,0,0,0,0,0,0,0,0,0,0,0,0,0,0,0,0,0,0,0,0,0,0,0,0,0,0,0,0,0,0,0,0,0,0,0,0,0,0,0,0,0,0,0,0,0,0,0,0,0,0,0,0,0,0,0,0,0,0,0,0,0,0,0],"sum_hessian":[7.574E4,7.3904E4,1.836E3,6.4732E4,9.172E3,9.07E2,9.29E2,3.2135E4,3.2597E4,3.141E3,6.031E3,6.74E2,2.33E2,3.73E2,5.56E2,1.289E4,1.9245E4,1.4973E4,1.7624E4,2.819E3,3.22E2,4.074E3,1.957E3,4.78E2,1.96E2,1.71E2,6.2E1,3.53E2,2E1,3.67E2,1.89E2,8.038E3,4.852E3,1.2563E4,6.682E3,8.754E3,6.219E3,1.2715E4,4.909E3,2.315E3,5.04E2,5.9E1,2.63E2,2.929E3,1.145E3,1.147E3,8.1E2,3.53E2,1.25E2,1.01E2,9.5E1,6.9E1,1.02E2,5E0,5.7E1,1.9E2,1.63E2,1.1E1,9E0,1.5E2,2.17E2,1.31E2,5.8E1,4.579E3,3.459E3,1.4E3,3.452E3,4.993E3,7.57E3,5.435E3,1.247E3,3.568E3,5.186E3,2.553E3,3.666E3,8.806E3,3.909E3,2.03E3,2.879E3,1.039E3,1.276E3,1.77E2,3.27E2,9.2E1,1.71E2,2.451E3,4.78E2,1.4E1,1.131E3,7.65E2,3.82E2,4.07E2,4.03E2,1.34E2,2.19E2,4.8E1,7.7E1,4.6E1,5.5E1,8E1,1.5E1,3.5E1,3.4E1,9.3E1,9E0,2E0,3E0,2.5E1,3.2E1,1.51E2,3.9E1,1.09E2,5.4E1,1.34E2,1.6E1,1.59E2,5.8E1,1.18E2,1.3E1],"tree_param":{"num_deleted":"0","num_feature":"13","num_nodes":"119","size_leaf_vector":"1"}},{"base_weights":[1.1527007E1,-3.7754055E3,1.5236494E5,-7.299472E3,2.18928E4,1.18132836E5,3.2060462E5,-1.4950657E4,-1.9415903E3,3.9660984E4,1.0431972E4,1.7670597E5,7.1698414E4,2.4343511E5,5.5095606E5,-1.9120502E4,-1.215986E4,-8.354133E3,3.5602231E3,3.3667605E4,7.431066E4,1.8166807E4,6.97125E2,1.5315069E5,2.3308297E5,3.449228E4,9.913494E4,3.1781647E5,1.5061784E5,1.8071208E6,4.3862353E5,-2.0322105E4,-1.5319266E4,-1.5679694E4,-8.90913E3,-1.0814984E4,-3.9646445E3,-1.4221283E2,1.1457948E4,2.9180357E4,5.5481074E4,5.6088695E4,8.258932E4,1.3082236E4,3.065383E4,-3.7262422E3,1.2582159E4,1.6898784E5,1.0744037E5,1.758865E5,2.749206E5,5.3487363E4,2.527806E4,8.092542E4,1.523766E5,1.9921078E5,3.9281234E5,1.8062911E5,6.056402E4,2.8257634E5,5.9135863E4,5.6432152E4,3.3540303E5,-2.1954229E3,-1.9126952E3,-9.338825E2,-1.7114117E3,-1.5854564E3,2.4204194E3,-1.0138512E3,-3.971473E2,-1.3646298E3,-8.895747E2,-6.098669E2,3.1122702E2,-2.0879834E2,7.359676E2,8.426886E2,2.3373188E3,1.4937072E4,2.8583657E3,3.5319746E3,6.751734E3,3.928891E3,7.3667085E3,4.4470874E3,9.0745E3,1.0650464E3,2.7320305E3,1.1295865E4,2.9570488E3,-7.510706E2,1.0653811E2,8.0378015E2,1.844232E3,1.2194461E4,1.9708717E4,6.4403433E3,1.33098955E4,2.311621E4,9.269366E3,2.992856E4,2.2358146E4,4.6028433E3,9.509466E3,1.9597242E3,3.62667E3,1.0569226E4,6.1365874E3,1.1170496E4,2.2129559E4,2.9813281E4,1.16730205E4,4.173185E4,8.46328E3,1.9615477E4,3.8078926E3,3.614754E3,9.010703E3,1.8987137E4,3.590845E4],"categories":[],"categories_nodes":[],"categories_segments":[],"categories_sizes":[],"default_left":[0,0,0,0,0,0,0,0,0,0,0,0,0,0,0,0,0,0,0,0,0,0,0,0,0,0,0,0,0,0,0,0,0,0,0,0,0,0,0,0,0,0,0,0,0,0,0,0,0,0,0,0,0,0,0,0,0,0,0,0,0,0,0,0,0,0,0,0,0,0,0,0,0,0,0,0,0,0,0,0,0,0,0,0,0,0,0,0,0,0,0,0,0,0,0,0,0,0,0,0,0,0,0,0,0,0,0,0,0,0,0,0,0,0,0,0,0,0,0,0,0],"id":1,"left_children":[1,3,5,7,9,11,13,15,17,19,21,23,25,27,29,31,33,35,37,39,41,43,45,47,49,51,53,55,57,59,61,63,65,67,69,71,73,75,77,79,81,83,85,87,89,91,93,95,97,99,101,103,105,107,109,111,113,115,117,-1,-1,-1,119,-1,-1,-1,-1,-1,-1,-1,-1,-1,-1,-1,-1,-1,-1,-1,-1,-1,-1,-1,-1,-1,-1,-1,-1,-1,-1,-1,-1,-1,-1,-1,-1,-1,-1,-1,-1,-1,-1,-1,-1,-1,-1,-1,-1,-1,-1,-1,-1,-1,-1,-1,-1,-1,-1,-1,-1,-1,-1],"loss_changes":[4.3699505E13,6.6853447E12,1.0541775E13,2.663934E12,1.8164453E12,4.1432006E12,5.3764707E12,3.1122522E11,1.34849E12,7.2392324E11,4.0847586E11,8.6068796E11,8.683499E11,1.5676368E12,1.0072686E13,4.869456E10,1.8334482E11,1.906104E11,6.015439E11,2.904621E11,7.305717E10,1.915327E11,1.26377075E11,3.286017E11,4.2305847E11,6.2357012E10,4.636955E11,1.06919415E12,2.7553903E11,5.759524E12,7.4489686E11,1.5475671E10,2.7544584E10,5.40731E10,5.0579636E10,6.133134E10,9.579781E10,2.0447491E11,2.3693964E11,1.733751E11,1.20890065E11,4.5537E10,1.05394995E11,7.415005E10,7.4589274E10,3.177829E10,1.7214956E10,4.439115E11,1.3056567E11,3.7404672E11,7.318379E10,3.2243745E10,1.470813E10,1.7178349E11,3.2285812E11,3.8947468E11,5.537603E11,1.6737239E11,1.694027E10,0E0,0E0,0E0,7.656859E10,0E0,0E0,0E0,0E0,0E0,0E0,0E0,0E0,0E0,0E0,0E0,0E0,0E0,0E0,0E0,0E0,0E0,0E0,0E0,0E0,0E0,0E0,0E0,0E0,0E0,0E0,0E0,0E0,0E0,0E0,0E0,0E0,0E0,0E0,0E0,0E0,0E0,0E0,0E0,0E0,0E0,0E0,0E0,0E0,0E0,0E0,0E0,0E0,0E0,0E0,0E0,0E0,0E0,0E0,0E0,0E0,0E0,0E0],"parents":[2147483647,0,0,1,1,2,2,3,3,4,4,5,5,6,6,7,7,8,8,9,9,10,10,11,11,12,12,13,13,14,14,15,15,16,16,17,17,18,18,19,19,20,20,21,21,22,22,23,23,24,24,25,25,26,26,27,27,28,28,29,29,30,30,31,31,32,32,33,33,34,34,35,35,36,36,37,37,38,38,39,39,40,40,41,41,42,42,43,43,44,44,45,45,46,46,47,47,48,48,49,49,50,50,51,51,52,52,53,53,54,54,55,55,56,56,57,57,58,58,62,62],"right_children":[2,4,6,8,10,12,14,16,18,20,22,24,26,28,30,32,34,36,38,40,42,44,46,48,50,52,54,56,58,60,62,64,66,68,70,72,74,76,78,80,82,84,86,88,90,92,94,96,98,100,102,104,106,108,110,112,114,116,118,-1,-1,-1,120,-1,-1,-1,-1,-1,-1,-1,-1,-1,-1,-1,-1,-1,-1,-1,-1,-1,-1,-1,-1,-1,-1,-1,-1,-1,-1,-1,-1,-1,-1,-1,-1,-1,-1,-1,-1,-1,-1,-1,-1,-1,-1,-1,-1,-1,-1,-1,-1,-1,-1,-1,-1,-1,-1,-1,-1,-1,-1],"split_conditions":[3.9E2,2.06E2,4.93E2,2.017E3,4.01E4,2.12E4,2.2E1,2.012E3,1.05E2,3.35E2,9.956E4,4.6E2,1.12E1,7.5E3,2.5E2,1.35E2,1.1E2,2.021E3,2.021E3,2.3E1,3.6E2,2.9E2,2.017E3,1.4E1,7E0,5.01E4,4.6E2,1.3E1,4.88E4,1.69E1,5.8E3,2.008E3,1.44038E5,2.53E2,1.69E2,7.7E1,9.5E1,1.69E2,1.63E2,2.003E3,2.022E3,2.92E2,1E0,2.3E1,2.003E3,2.014E3,1.79E2,3E0,2.3E1,4E0,7.5E3,5E0,2.018E3,4.637E4,1.4E1,2E0,1.4E1,1.4E1,1.41E1,2.8257634E5,5.9135863E4,5.6432152E4,2.014E3,-2.1954229E3,-1.9126952E3,-9.338825E2,-1.7114117E3,-1.5854564E3,2.4204194E3,-1.0138512E3,-3.971473E2,-1.3646298E3,-8.895747E2,-6.098669E2,3.1122702E2,-2.0879834E2,7.359676E2,8.426886E2,2.3373188E3,1.4937072E4,2.8583657E3,3.5319746E3,6.751734E3,3.928891E3,7.3667085E3,4.4470874E3,9.0745E3,1.0650464E3,2.7320305E3,1.1295865E4,2.9570488E3,-7.510706E2,1.0653811E2,8.0378015E2,1.844232E3,1.2194461E4,1.9708717E4,6.4403433E3,1.33098955E4,2.311621E4,9.269366E3,2.992856E4,2.2358146E4,4.6028433E3,9.509466E3,1.9597242E3,3.62667E3,1.0569226E4,6.1365874E3,1.1170496E4,2.2129559E4,2.9813281E4,1.16730205E4,4.173185E4,8.46328E3,1.9615477E4,3.8078926E3,3.614754E3,9.010703E3,1.8987137E4,3.590845E4],"split_indices":[4,4,4,3,10,10,0,3,4,4,10,4,8,10,10,4,4,3,3,0,4,4,3,0,0,10,4,0,10,8,10,3,10,9,4,4,4,4,9,3,3,9,0,0,3,3,9,0,0,0,10,0,3,10,0,0,0,0,8,0,0,0,3,0,0,0,0,0,0,0,0,0,0,0,0,0,0,0,0,0,0,0,0,0,0,0,0,0,0,0,0,0,0,0,0,0,0,0,0,0,0,0,0,0,0,0,0,0,0,0,0,0,0,0,0,0,0,0,0,0,0],"split_type":[0,0,0,0,0,0,0,0,0,0,0,0,0,0,0,0,0,0,0,0,0,0,0,0,0,0,0,0,0,0,0,0,0,0,0,0,0,0,0,0,0,0,0,0,0,0,0,0,0,0,0,0,0,0,0,0,0,0,0,0,0,0,0,0,0,0,0,0,0,0,0,0,0,0,0,0,0,0,0,0,0,0,0,0,0,0,0,0,0,0,0,0,0,0,0,0,0,0,0,0,0,0,0,0,0,0,0,0,0,0,0,0,0,0,0,0,0,0,0,0,0],"sum_hessian":[7.574E4,7.3904E4,1.836E3,6.4983E4,8.921E3,1.527E3,3.09E2,2.6763E4,3.822E4,3.497E3,5.424E3,6.74E2,8.53E2,2.33E2,7.6E1,1.0728E4,1.6035E4,1.7649E4,2.0571E4,2.983E3,5.14E2,3.022E3,2.402E3,4.78E2,1.96E2,3.63E2,4.9E2,1.28E2,1.05E2,5E0,7.1E1,8.148E3,2.58E3,7.697E3,8.338E3,1.1308E4,6.341E3,1.4006E4,6.565E3,2.476E3,5.07E2,1.63E2,3.51E2,2.149E3,8.73E2,1.751E3,6.51E2,3.53E2,1.25E2,8.5E1,1.11E2,1.17E2,2.46E2,3.67E2,1.23E2,5.1E1,7.7E1,7.8E1,2.7E1,2E0,3E0,3E1,4.1E1,3.437E3,4.711E3,5.97E2,1.983E3,7.664E3,3.3E1,6.675E3,1.663E3,4.566E3,6.742E3,4.872E3,1.469E3,1.1122E4,2.884E3,5.235E3,1.33E3,1.1E1,2.465E3,1.91E2,3.16E2,8.5E1,7.8E1,6.3E1,2.88E2,1.837E3,3.12E2,1E1,8.63E2,9.78E2,7.73E2,3.68E2,2.83E2,1.34E2,2.19E2,4.8E1,7.7E1,5E1,3.5E1,7.2E1,3.9E1,1.01E2,1.6E1,1.64E2,8.2E1,1.6E2,2.07E2,7.9E1,4.4E1,2.2E1,2.9E1,7.1E1,6E0,7E1,8E0,1.6E1,1.1E1,7E0,3.4E1],"tree_param":{"num_deleted":"0","num_feature":"13","num_nodes":"121","size_leaf_vector":"1"}},{"base_weights":[2.1643925E1,-3.7965374E3,1.23322875E5,-7.5093843E3,1.2474443E4,9.6912555E4,2.9041762E5,-1.2145996E4,-5.6741187E2,3.0009035E4,5.7707617E3,1.3970986E5,6.087055E4,2.1963745E5,5.017441E5,-1.5976255E4,-8.613748E3,-7.3926455E3,3.6804863E3,2.1810846E4,4.090119E4,1.1305303E4,-3.3007437E3,1.1972817E5,2.1020448E5,3.3904344E4,8.2871984E4,2.8674553E5,1.3589614E5,1.6833608E6,3.9630738E5,-1.8585275E4,-1.4249808E4,-1.0839853E4,-4.303759E3,-1.0785284E4,-5.7482793E3,5.1694617E2,9.287565E3,3.920576E4,1.5901823E4,3.6172086E4,6.4102402E4,8.512682E3,2.4220414E4,-7.6502397E3,2.3117263E3,8.024223E4,1.3794345E5,1.6622577E5,2.5474223E5,4.6658168E4,2.074184E4,6.815097E4,1.3740748E5,1.8008752E5,3.5417466E5,1.6286269E5,5.4958523E4,2.6373794E5,5.4700676E4,4.6846744E5,2.5062156E5,-2.025557E3,-1.7293969E3,-1.7277336E3,-1.269416E3,-1.3485541E3,-9.2905096E2,-2.985981E2,-7.06694E2,-8.816298E2,-1.2112091E3,-2.9462204E2,-7.7133E2,-2.6699182E2,4.0063315E2,1.7352567E3,5.396098E2,2.3823513E3,4.8455522E3,8.5708966E2,1.8657694E3,9.610024E3,3.4407446E3,1.2052622E4,5.5298374E3,1.5946866E2,1.250766E3,8.451398E3,2.2551172E3,-4.564178E2,-1.1641371E3,3.4592632E1,1.0712821E3,7.588815E3,2.257924E4,1.5217917E4,9.685308E3,2.1237236E4,1.24527295E4,2.6629025E4,1.8035904E4,4.3232715E3,8.72648E3,1.1818156E3,2.6546924E3,8.064914E3,3.8561294E3,1.0067409E4,1.996578E4,2.3415459E4,5.499916E3,3.761663E4,7.7378564E3,2.0171396E4,1.0550916E4,3.2745417E3,8.184721E3,3.370838E4,5.254047E4,2.591967E4,9.848003E3],"categories":[],"categories_nodes":[],"categories_segments":[],"categories_sizes":[],"default_left":[0,0,0,0,0,0,0,0,0,0,0,0,0,0,0,0,0,0,0,0,0,0,0,0,0,0,0,0,0,0,0,0,0,0,0,0,0,0,0,0,0,0,0,0,0,0,0,0,0,0,0,0,0,0,0,0,0,0,0,0,0,0,0,0,0,0,0,0,0,0,0,0,0,0,0,0,0,0,0,0,0,0,0,0,0,0,0,0,0,0,0,0,0,0,0,0,0,0,0,0,0,0,0,0,0,0,0,0,0,0,0,0,0,0,0,0,0,0,0,0,0,0,0],"id":2,"left_children":[1,3,5,7,9,11,13,15,17,19,21,23,25,27,29,31,33,35,37,39,41,43,45,47,49,51,53,55,57,59,61,63,65,67,69,71,73,75,77,79,81,83,85,87,89,91,93,95,97,99,101,103,105,107,109,111,113,115,117,-1,-1,119,121,-1,-1,-1,-1,-1,-1,-1,-1,-1,-1,-1,-1,-1,-1,-1,-1,-1,-1,-1,-1,-1,-1,-1,-1,-1,-1,-1,-1,-1,-1,-1,-1,-1,-1,-1,-1,-1,-1,-1,-1,-1,-1,-1,-1,-1,-1,-1,-1,-1,-1,-1,-1,-1,-1,-1,-1,-1,-1,-1,-1],"loss_changes":[3.5658303E13,4.438358E12,1.0011491E13,1.9253685E12,1.604334E12,3.0240512E12,4.52669E12,4.8508174E11,6.9455204E11,3.362002E11,4.9587785E11,1.2397576E12,6.314231E11,1.2760467E12,8.925978E12,7.723208E10,1.7898642E11,5.1206586E10,2.6191774E11,2.2098523E11,1.7542912E11,2.2102888E11,9.1389624E10,4.938426E11,3.435224E11,7.9946646E10,4.626923E11,8.6396686E11,2.2240572E11,5.0619535E12,6.395066E11,1.4420017E10,4.8564273E10,5.030989E10,2.3126376E10,7.728005E9,3.4071085E10,1.0499647E11,1.6706126E11,7.6531696E10,3.2387269E10,1.3924657E11,1.2894981E11,1.3940995E11,1.0779663E11,2.5923158E10,2.6998108E10,1.2482209E11,2.654533E11,1.6982658E11,3.4433663E10,3.0166778E10,1.2067119E10,1.6885495E11,2.6344607E11,3.3880618E11,4.4569408E11,1.5474963E11,1.404375E10,0E0,0E0,1.744841E11,8.3947684E9,0E0,0E0,0E0,0E0,0E0,0E0,0E0,0E0,0E0,0E0,0E0,0E0,0E0,0E0,0E0,0E0,0E0,0E0,0E0,0E0,0E0,0E0,0E0,0E0,0E0,0E0,0E0,0E0,0E0,0E0,0E0,0E0,0E0,0E0,0E0,0E0,0E0,0E0,0E0,0E0,0E0,0E0,0E0,0E0,0E0,0E0,0E0,0E0,0E0,0E0,0E0,0E0,0E0,0E0,0E0,0E0,0E0,0E0,0E0,0E0],"parents":[2147483647,0,0,1,1,2,2,3,3,4,4,5,5,6,6,7,7,8,8,9,9,10,10,11,11,12,12,13,13,14,14,15,15,16,16,17,17,18,18,19,19,20,20,21,21,22,22,23,23,24,24,25,25,26,26,27,27,28,28,29,29,30,30,31,31,32,32,33,33,34,34,35,35,36,36,37,37,38,38,39,39,40,40,41,41,42,42,43,43,44,44,45,45,46,46,47,47,48,48,49,49,50,50,51,51,52,52,53,53,54,54,55,55,56,56,57,57,58,58,61,61,62,62],"right_children":[2,4,6,8,10,12,14,16,18,20,22,24,26,28,30,32,34,36,38,40,42,44,46,48,50,52,54,56,58,60,62,64,66,68,70,72,74,76,78,80,82,84,86,88,90,92,94,96,98,100,102,104,106,108,110,112,114,116,118,-1,-1,120,122,-1,-1,-1,-1,-1,-1,-1,-1,-1,-1,-1,-1,-1,-1,-1,-1,-1,-1,-1,-1,-1,-1,-1,-1,-1,-1,-1,-1,-1,-1,-1,-1,-1,-1,-1,-1,-1,-1,-1,-1,-1,-1,-1,-1,-1,-1,-1,-1,-1,-1,-1,-1,-1,-1,-1,-1,-1,-1,-1,-1],"split_conditions":[3.75E2,1.77E2,4.93E2,2.019E3,3.2998E4,2.12E4,2.2E1,2.015E3,9.5E1,2.4E2,1.14162E5,4.6E2,1.12E1,7.5E3,2.5E2,2.01E3,1.14E2,7E1,2.022E3,4.3E1,2.3E1,2.8E2,2.015E3,3.9E2,1.4E1,6.37E4,4.6E2,1.3E1,4.88E4,1.69E1,1.4761E4,9.9E1,8.9E1,8.5E1,1.10472E5,5.8E3,1.333E4,1.32E2,4.4E1,2.022E3,2.021E3,2.011E3,4.3E1,2.018E3,2.004E3,1.8985E5,2.5E2,3.5E2,1.4E1,9E1,2.5E1,5E0,2.016E3,7.42E4,1.4E1,5E0,1.4E1,3.5E2,1.41E1,2.6373794E5,5.4700676E4,2.019E3,4.637E4,-2.025557E3,-1.7293969E3,-1.7277336E3,-1.269416E3,-1.3485541E3,-9.2905096E2,-2.985981E2,-7.06694E2,-8.816298E2,-1.2112091E3,-2.9462204E2,-7.7133E2,-2.6699182E2,4.0063315E2,1.7352567E3,5.396098E2,2.3823513E3,4.8455522E3,8.5708966E2,1.8657694E3,9.610024E3,3.4407446E3,1.2052622E4,5.5298374E3,1.5946866E2,1.250766E3,8.451398E3,2.2551172E3,-4.564178E2,-1.1641371E3,3.4592632E1,1.0712821E3,7.588815E3,2.257924E4,1.5217917E4,9.685308E3,2.1237236E4,1.24527295E4,2.6629025E4,1.8035904E4,4.3232715E3,8.72648E3,1.1818156E3,2.6546924E3,8.064914E3,3.8561294E3,1.0067409E4,1.996578E4,2.3415459E4,5.499916E3,3.761663E4,7.7378564E3,2.0171396E4,1.0550916E4,3.2745417E3,8.184721E3,3.370838E4,5.254047E4,2.591967E4,9.848003E3],"split_indices":[4,4,4,3,10,10,0,3,4,4,10,4,8,10,10,3,4,4,3,7,0,4,3,4,0,10,4,0,10,8,10,4,4,4,10,10,10,4,7,3,3,3,7,3,3,10,4,9,0,1,0,0,3,10,0,0,0,9,8,0,0,3,10,0,0,0,0,0,0,0,0,0,0,0,0,0,0,0,0,0,0,0,0,0,0,0,0,0,0,0,0,0,0,0,0,0,0,0,0,0,0,0,0,0,0,0,0,0,0,0,0,0,0,0,0,0,0,0,0,0,0,0,0],"split_type":[0,0,0,0,0,0,0,0,0,0,0,0,0,0,0,0,0,0,0,0,0,0,0,0,0,0,0,0,0,0,0,0,0,0,0,0,0,0,0,0,0,0,0,0,0,0,0,0,0,0,0,0,0,0,0,0,0,0,0,0,0,0,0,0,0,0,0,0,0,0,0,0,0,0,0,0,0,0,0,0,0,0,0,0,0,0,0,0,0,0,0,0,0,0,0,0,0,0,0,0,0,0,0,0,0,0,0,0,0,0,0,0,0,0,0,0,0,0,0,0,0,0,0],"sum_hessian":[7.574E4,7.3466E4,2.274E3,5.9817E4,1.3649E4,1.965E3,3.09E2,3.5863E4,2.3954E4,3.774E3,9.875E3,8.97E2,1.068E3,2.33E2,7.6E1,1.7204E4,1.8659E4,9.189E3,1.4765E4,2.155E3,1.619E3,6.133E3,3.742E3,7.01E2,1.96E2,4.81E2,5.87E2,1.28E2,1.05E2,5E0,7.1E1,6.847E3,1.0357E4,1.2303E4,6.356E3,2.998E3,6.191E3,9.44E3,5.325E3,5.45E2,1.61E3,1.347E3,2.72E2,5.044E3,1.089E3,2.108E3,1.634E3,2.23E2,4.78E2,1.01E2,9.5E1,2.43E2,2.38E2,4.64E2,1.23E2,5.1E1,7.7E1,7.8E1,2.7E1,2E0,3E0,4.6E1,2.5E1,2.979E3,3.868E3,3.512E3,6.845E3,4.541E3,7.762E3,4.305E3,2.051E3,1.21E3,1.788E3,2.553E3,3.638E3,4.934E3,4.506E3,1.732E3,3.593E3,2.06E2,3.39E2,4.41E2,1.169E3,3.7E1,1.31E3,3.5E1,2.37E2,1.847E3,3.197E3,2.8E1,1.061E3,1.19E3,9.18E2,1.325E3,3.09E2,2.18E2,5E0,3.53E2,1.25E2,4.6E1,5.5E1,8E1,1.5E1,2.26E2,1.7E1,9.5E1,1.43E2,3.25E2,1.39E2,7.9E1,4.4E1,3.5E1,1.6E1,7.1E1,6E0,4.5E1,3.3E1,1.6E1,1.1E1,1.6E1,3E1,2.3E1,2E0],"tree_param":{"num_deleted":"0","num_feature":"13","num_nodes":"123","size_leaf_vector":"1"}},{"base_weights":[2.9917387E1,-3.41632E3,1.1131989E5,-6.2037183E3,1.4207725E4,8.731909E4,2.631723E5,-1.1430891E4,-1.0389293E3,2.4486348E4,4.4766655E3,1.2588746E5,5.483854E4,1.9817136E5,4.5728988E5,-1.4627877E4,-8.488655E3,3.7568303E3,-6.322314E3,1.6998424E4,3.2380303E4,-1.0236929E1,1.3676148E4,1.07833805E5,1.8958178E5,3.0548941E4,7.465614E4,2.586467E5,1.2270447E5,1.5680978E6,3.583713E5,-1.6077789E4,-1.213013E4,-1.0644165E4,-4.523122E3,1.0823685E3,1.011055E4,-9.488077E3,-4.4529634E3,1.3669724E4,3.326514E4,4.550267E4,2.5529557E4,3.0016365E3,-6.355133E3,1.1451621E4,2.5231031E4,7.235268E4,1.242011E5,1.416678E5,2.2468017E5,4.176299E4,1.8385592E4,6.1361508E4,1.2390894E5,1.6263484E5,3.1933866E5,1.4696531E5,4.987193E4,2.461554E5,5.0598125E4,4.63724E5,2.7207834E5,-1.7636565E3,-1.4640122E3,-9.502287E2,-1.4384413E3,-1.0751215E3,2.7563022E3,4.426409E3,-4.615283E2,-3.0274893E2,4.1010294E2,3.941329E2,1.617204E3,-1.0677714E3,-6.987895E2,-7.1150006E2,-1.8215906E2,6.895314E2,1.9972704E3,2.4818455E3,4.34835E3,3.9953462E3,7.883654E3,2.1530466E3,5.2655713E3,1.008848E2,1.1038905E3,-1.1587711E3,-3.1687976E2,9.29029E2,2.4655305E3,3.914866E3,1.4472896E3,6.8333984E3,2.0697637E4,1.3700425E4,8.724464E3,1.8836732E4,7.1574956E3,2.5073193E4,1.8606809E4,3.335036E3,5.5606343E3,2.0995255E2,2.1062295E3,7.5021196E3,3.931688E3,9.073253E3,1.8013568E4,2.3228148E4,7.812521E3,3.390721E4,7.074611E3,1.6051166E4,2.3770251E3,6.3495254E3,1.4056549E3,1.3035663E4,4.7049105E4,1.5258687E4,2.9161703E4],"categories":[],"categories_nodes":[],"categories_segments":[],"categories_sizes":[],"default_left":[0,0,0,0,0,0,0,0,0,0,0,0,0,0,0,0,0,0,0,0,0,0,0,0,0,0,0,0,0,0,0,0,0,0,0,0,0,0,0,0,0,0,0,0,0,0,0,0,0,0,0,0,0,0,0,0,0,0,0,0,0,0,0,0,0,0,0,0,0,0,0,0,0,0,0,0,0,0,0,0,0,0,0,0,0,0,0,0,0,0,0,0,0,0,0,0,0,0,0,0,0,0,0,0,0,0,0,0,0,0,0,0,0,0,0,0,0,0,0,0,0,0,0],"id":3,"left_children":[1,3,5,7,9,11,13,15,17,19,21,23,25,27,29,31,33,35,37,39,41,43,45,47,49,51,53,55,57,59,61,63,65,67,69,71,73,75,77,79,81,83,85,87,89,91,93,95,97,99,101,103,105,107,109,111,113,115,117,-1,-1,119,121,-1,-1,-1,-1,-1,-1,-1,-1,-1,-1,-1,-1,-1,-1,-1,-1,-1,-1,-1,-1,-1,-1,-1,-1,-1,-1,-1,-1,-1,-1,-1,-1,-1,-1,-1,-1,-1,-1,-1,-1,-1,-1,-1,-1,-1,-1,-1,-1,-1,-1,-1,-1,-1,-1,-1,-1,-1,-1,-1,-1],"loss_changes":[2.9049456E13,3.6091716E12,8.268439E12,1.7125582E12,1.0034099E12,2.4559485E12,3.8209082E12,2.9642745E11,8.0852904E11,2.878438E11,2.1278402E11,1.012181E12,5.122949E11,1.03621224E12,7.8987636E12,5.4518874E10,1.4030602E11,2.8422727E11,8.980955E10,1.3523773E11,2.1225642E11,6.6254418E10,4.3151065E10,3.986859E11,2.9946597E11,6.497714E10,3.7741763E11,6.997667E11,1.7997024E11,4.448226E12,5.2839737E11,2.1156856E10,3.275876E10,4.380177E10,2.6210697E10,1.4607137E11,1.8522685E11,1.6688579E10,6.6869002E10,8.8761565E10,3.560312E10,1.472362E11,1.6831198E11,3.764383E10,1.8570064E10,4.0265695E10,4.0159363E10,1.07043095E11,2.146907E11,2.6802153E11,6.6008908E10,2.726029E10,1.0112934E10,1.3707248E11,2.1496568E11,2.8791525E11,3.586476E11,1.28023134E11,1.276937E10,0E0,0E0,8.600945E9,5.3560738E10,0E0,0E0,0E0,0E0,0E0,0E0,0E0,0E0,0E0,0E0,0E0,0E0,0E0,0E0,0E0,0E0,0E0,0E0,0E0,0E0,0E0,0E0,0E0,0E0,0E0,0E0,0E0,0E0,0E0,0E0,0E0,0E0,0E0,0E0,0E0,0E0,0E0,0E0,0E0,0E0,0E0,0E0,0E0,0E0,0E0,0E0,0E0,0E0,0E0,0E0,0E0,0E0,0E0,0E0,0E0,0E0,0E0,0E0,0E0,0E0],"parents":[2147483647,0,0,1,1,2,2,3,3,4,4,5,5,6,6,7,7,8,8,9,9,10,10,11,11,12,12,13,13,14,14,15,15,16,16,17,17,18,18,19,19,20,20,21,21,22,22,23,23,24,24,25,25,26,26,27,27,28,28,29,29,30,30,31,31,32,32,33,33,34,34,35,35,36,36,37,37,38,38,39,39,40,40,41,41,42,42,43,43,44,44,45,45,46,46,47,47,48,48,49,49,50,50,51,51,52,52,53,53,54,54,55,55,56,56,57,57,58,58,61,61,62,62],"right_children":[2,4,6,8,10,12,14,16,18,20,22,24,26,28,30,32,34,36,38,40,42,44,46,48,50,52,54,56,58,60,62,64,66,68,70,72,74,76,78,80,82,84,86,88,90,92,94,96,98,100,102,104,106,108,110,112,114,116,118,-1,-1,120,122,-1,-1,-1,-1,-1,-1,-1,-1,-1,-1,-1,-1,-1,-1,-1,-1,-1,-1,-1,-1,-1,-1,-1,-1,-1,-1,-1,-1,-1,-1,-1,-1,-1,-1,-1,-1,-1,-1,-1,-1,-1,-1,-1,-1,-1,-1,-1,-1,-1,-1,-1,-1,-1,-1,-1,-1,-1,-1,-1,-1],"split_conditions":[3.75E2,1.95E2,4.93E2,2.018E3,6E4,2.12E4,2.2E1,2.014E3,1E0,2.45E2,2.018E3,4.6E2,1.12E1,7.5E3,2.5E2,1.25E2,1.25E2,2.022E3,7.7E1,2.3E1,1.0331E4,1.6E5,2.9E2,3.9E2,7E0,6.5E4,4.6E2,1.3E1,4.88E4,1.69E1,5.8E3,2.01E3,1.76E5,2.59E2,1.3E1,1.32E2,1.2E2,2.022E3,2.02E3,2.021E3,2.022E3,5.56E2,1.41E1,2.9E2,2.012E3,5.58E2,4.7E1,3.5E2,1.4E1,4E0,6.156E3,2.42E2,2.014E3,6.635E4,1.4E1,6.4E1,1.4E1,3.94E2,8.5E4,2.461554E5,5.0598125E4,2.016E3,2.014E3,-1.7636565E3,-1.4640122E3,-9.502287E2,-1.4384413E3,-1.0751215E3,2.7563022E3,4.426409E3,-4.615283E2,-3.0274893E2,4.1010294E2,3.941329E2,1.617204E3,-1.0677714E3,-6.987895E2,-7.1150006E2,-1.8215906E2,6.895314E2,1.9972704E3,2.4818455E3,4.34835E3,3.9953462E3,7.883654E3,2.1530466E3,5.2655713E3,1.008848E2,1.1038905E3,-1.1587711E3,-3.1687976E2,9.29029E2,2.4655305E3,3.914866E3,1.4472896E3,6.8333984E3,2.0697637E4,1.3700425E4,8.724464E3,1.8836732E4,7.1574956E3,2.5073193E4,1.8606809E4,3.335036E3,5.5606343E3,2.0995255E2,2.1062295E3,7.5021196E3,3.931688E3,9.073253E3,1.8013568E4,2.3228148E4,7.812521E3,3.390721E4,7.074611E3,1.6051166E4,2.3770251E3,6.3495254E3,1.4056549E3,1.3035663E4,4.7049105E4,1.5258687E4,2.9161703E4],"split_indices":[4,4,4,3,10,10,0,3,6,4,3,4,8,10,10,4,4,3,4,0,10,10,4,4,0,10,4,0,10,8,10,3,10,9,1,4,4,3,3,3,3,1,8,4,3,1,7,9,0,0,10,9,3,10,0,1,0,9,10,0,0,3,3,0,0,0,0,0,0,0,0,0,0,0,0,0,0,0,0,0,0,0,0,0,0,0,0,0,0,0,0,0,0,0,0,0,0,0,0,0,0,0,0,0,0,0,0,0,0,0,0,0,0,0,0,0,0,0,0,0,0,0,0],"split_type":[0,0,0,0,0,0,0,0,0,0,0,0,0,0,0,0,0,0,0,0,0,0,0,0,0,0,0,0,0,0,0,0,0,0,0,0,0,0,0,0,0,0,0,0,0,0,0,0,0,0,0,0,0,0,0,0,0,0,0,0,0,0,0,0,0,0,0,0,0,0,0,0,0,0,0,0,0,0,0,0,0,0,0,0,0,0,0,0,0,0,0,0,0,0,0,0,0,0,0,0,0,0,0,0,0,0,0,0,0,0,0,0,0,0,0,0,0,0,0,0,0,0,0],"sum_hessian":[7.574E4,7.3466E4,2.274E3,6.3434E4,1.0032E4,1.965E3,3.09E2,3.1526E4,3.1908E4,4.878E3,5.154E3,8.97E2,1.068E3,2.33E2,7.6E1,1.5107E4,1.6419E4,1.6726E4,1.5182E4,2.505E3,2.373E3,3.465E3,1.689E3,7.01E2,1.96E2,4.81E2,5.87E2,1.28E2,1.05E2,5E0,7.1E1,9.555E3,5.552E3,1.0636E4,5.783E3,1.1772E4,4.954E3,5.635E3,9.547E3,2.081E3,4.24E2,8.12E2,1.561E3,2.35E3,1.115E3,1.418E3,2.71E2,2.23E2,4.78E2,8.5E1,1.11E2,2.49E2,2.32E2,4.64E2,1.23E2,5.1E1,7.7E1,7.8E1,2.7E1,2E0,3E0,3E1,4.1E1,4.579E3,4.976E3,2.566E3,2.986E3,1.0607E4,2.9E1,1E1,5.773E3,4.985E3,6.787E3,2.456E3,2.498E3,3.816E3,1.819E3,4.745E3,4.802E3,1.004E3,1.077E3,2.34E2,1.9E2,6.98E2,1.14E2,1.362E3,1.99E2,1.884E3,4.66E2,4.21E2,6.94E2,1.22E3,1.98E2,1.17E2,1.54E2,2.18E2,5E0,3.53E2,1.25E2,5E1,3.5E1,6.3E1,4.8E1,1.57E2,9.2E1,3.3E1,1.99E2,2.85E2,1.79E2,7.9E1,4.4E1,2.7E1,2.4E1,7.1E1,6E0,7E1,8E0,1.9E1,8E0,1E0,2.9E1,7E0,3.4E1],"tree_param":{"num_deleted":"0","num_feature":"13","num_nodes":"123","size_leaf_vector":"1"}},{"base_weights":[3.624156E1,-2.7514146E3,1.1218741E5,-5.266036E3,1.6714848E4,8.649458E4,2.3846627E5,-9.172392E3,5.5757416E2,3.4075336E4,8.978411E3,1.18030664E5,3.9740285E4,1.787739E5,4.1677203E5,-1.25824795E4,-6.134322E3,-3.3950415E3,7.0253267E3,3.0181826E4,6.2605883E4,1.5775139E4,1.4772848E3,1.00203516E5,1.6283202E5,2.0718498E4,5.744491E4,2.3334034E5,1.1068104E5,1.4607469E6,3.2398562E5,-1.4617972E4,-1.0768575E4,-8.483243E3,-1.5886559E3,-6.0861196E3,7.7915924E1,3.010721E3,1.2412643E4,2.6147127E4,4.579284E4,2.6741346E4,7.069014E4,1.4144689E4,3.999809E4,-2.4535405E3,1.010445E4,1.2257661E5,7.16216E4,1.2731353E5,2.0078064E5,1.4661363E4,2.9266418E4,6.731499E4,2.0022773E4,1.469683E5,2.879302E5,1.2662503E5,1.9761006E4,2.2974503E5,4.680326E4,3.8422075E5,2.026381E5,-1.6300396E3,-1.34387E3,-8.7709534E2,-1.3250276E3,-1.0238698E3,-6.424747E2,-3.1811588E2,1.6476306E2,-8.8570966E2,-4.7430563E2,-2.3638292E2,3.4336615E2,1.2781146E2,6.7130963E2,1.1102363E3,2.6735635E3,1.7900029E3,3.1598845E3,2.9512227E3,5.386487E3,3.0142263E3,1.9651514E3,9.053563E3,5.962425E3,1.2977485E3,3.6369568E3,7.54056E3,3.3277214E3,-5.371117E2,1.0030574E2,8.253276E2,2.0498467E3,1.3717947E4,8.290394E3,3.9389675E3,8.479392E3,1.6013158E4,9.501347E3,2.2955322E4,1.7721184E4,1.3556263E3,4.389733E3,2.6512966E3,3.8519187E3,5.858123E3,9.616591E3,-1.5439053E2,3.7089727E3,2.2500014E4,8.224492E3,3.0563582E4,6.4682163E3,7.159476E3,1.8006432E4,-1.3659469E3,2.5127703E3,2.7149516E4,4.336438E4,4.5024844E3,2.0714164E4],"categories":[],"categories_nodes":[],"categories_segments":[],"categories_sizes":[],"default_left":[0,0,0,0,0,0,0,0,0,0,0,0,0,0,0,0,0,0,0,0,0,0,0,0,0,0,0,0,0,0,0,0,0,0,0,0,0,0,0,0,0,0,0,0,0,0,0,0,0,0,0,0,0,0,0,0,0,0,0,0,0,0,0,0,0,0,0,0,0,0,0,0,0,0,0,0,0,0,0,0,0,0,0,0,0,0,0,0,0,0,0,0,0,0,0,0,0,0,0,0,0,0,0,0,0,0,0,0,0,0,0,0,0,0,0,0,0,0,0,0,0,0,0],"id":4,"left_children":[1,3,5,7,9,11,13,15,17,19,21,23,25,27,29,31,33,35,37,39,41,43,45,47,49,51,53,55,57,59,61,63,65,67,69,71,73,75,77,79,81,83,85,87,89,91,93,95,97,99,101,103,105,107,109,111,113,115,117,-1,-1,119,121,-1,-1,-1,-1,-1,-1,-1,-1,-1,-1,-1,-1,-1,-1,-1,-1,-1,-1,-1,-1,-1,-1,-1,-1,-1,-1,-1,-1,-1,-1,-1,-1,-1,-1,-1,-1,-1,-1,-1,-1,-1,-1,-1,-1,-1,-1,-1,-1,-1,-1,-1,-1,-1,-1,-1,-1,-1,-1,-1,-1],"loss_changes":[2.3679891E13,3.6177586E12,5.939447E12,1.4889556E12,1.1352707E12,2.2482644E12,3.2249752E12,4.0576903E11,6.718088E11,2.8759504E11,2.9822796E11,7.120796E11,2.0659923E11,8.436208E11,6.985472E12,6.7985474E10,2.2121179E11,1.5244303E11,2.1555003E11,1.4335489E11,8.857046E10,1.2064227E11,9.436764E10,4.100708E11,3.221907E11,1.5051907E10,1.1647772E11,5.659233E11,1.5115839E11,3.9083636E12,4.4841828E11,1.7030185E10,4.828378E10,4.9295917E10,3.639103E10,3.4159493E10,5.8364887E10,3.663893E10,7.957604E10,8.1532944E10,6.017653E10,8.302633E8,5.038224E10,7.4160144E10,4.341878E10,1.9287691E10,1.6589857E10,2.006639E11,1.19785E11,1.2894863E11,4.2731045E10,5.123547E9,2.1124219E9,5.786475E10,2.5086534E10,2.4412003E11,2.8854505E11,2.5177843E11,3.3923077E9,0E0,0E0,1.4411629E11,9.128706E9,0E0,0E0,0E0,0E0,0E0,0E0,0E0,0E0,0E0,0E0,0E0,0E0,0E0,0E0,0E0,0E0,0E0,0E0,0E0,0E0,0E0,0E0,0E0,0E0,0E0,0E0,0E0,0E0,0E0,0E0,0E0,0E0,0E0,0E0,0E0,0E0,0E0,0E0,0E0,0E0,0E0,0E0,0E0,0E0,0E0,0E0,0E0,0E0,0E0,0E0,0E0,0E0,0E0,0E0,0E0,0E0,0E0,0E0,0E0,0E0],"parents":[2147483647,0,0,1,1,2,2,3,3,4,4,5,5,6,6,7,7,8,8,9,9,10,10,11,11,12,12,13,13,14,14,15,15,16,16,17,17,18,18,19,19,20,20,21,21,22,22,23,23,24,24,25,25,26,26,27,27,28,28,29,29,30,30,31,31,32,32,33,33,34,34,35,35,36,36,37,37,38,38,39,39,40,40,41,41,42,42,43,43,44,44,45,45,46,46,47,47,48,48,49,49,50,50,51,51,52,52,53,53,54,54,55,55,56,56,57,57,58,58,61,61,62,62],"right_children":[2,4,6,8,10,12,14,16,18,20,22,24,26,28,30,32,34,36,38,40,42,44,46,48,50,52,54,56,58,60,62,64,66,68,70,72,74,76,78,80,82,84,86,88,90,92,94,96,98,100,102,104,106,108,110,112,114,116,118,-1,-1,120,122,-1,-1,-1,-1,-1,-1,-1,-1,-1,-1,-1,-1,-1,-1,-1,-1,-1,-1,-1,-1,-1,-1,-1,-1,-1,-1,-1,-1,-1,-1,-1,-1,-1,-1,-1,-1,-1,-1,-1,-1,-1,-1,-1,-1,-1,-1,-1,-1,-1,-1,-1,-1,-1,-1,-1,-1,-1,-1,-1,-1],"split_conditions":[3.9E2,2.1E2,4.93E2,2.019E3,3E4,3.8E4,2.2E1,2.015E3,1.2E2,3.6E2,9E4,4.6E2,1.12E1,7.5E3,2.5E2,2.011E3,1.32E2,9.5E1,2.021E3,2.3E1,1E0,1.41E1,2.017E3,1.12E4,1.4E1,2.018E3,9.3E4,1.3E1,1.4E1,1.69E1,1.4761E4,9.9E1,5E0,9.5E1,1.69E2,7E1,2.022E3,1.54E2,2.3E1,2.022E3,1.99E2,3.65E3,4E0,3.6E2,2.004E3,2.014E3,5.56E2,1.4E1,1.12E1,4E0,3.65E3,5E0,4.6E2,4.6E2,2.015E3,2E0,1.4E1,1.3E1,1.5183E4,2.2974503E5,4.680326E4,2.019E3,2.92E2,-1.6300396E3,-1.34387E3,-8.7709534E2,-1.3250276E3,-1.0238698E3,-6.424747E2,-3.1811588E2,1.6476306E2,-8.8570966E2,-4.7430563E2,-2.3638292E2,3.4336615E2,1.2781146E2,6.7130963E2,1.1102363E3,2.6735635E3,1.7900029E3,3.1598845E3,2.9512227E3,5.386487E3,3.0142263E3,1.9651514E3,9.053563E3,5.962425E3,1.2977485E3,3.6369568E3,7.54056E3,3.3277214E3,-5.371117E2,1.0030574E2,8.253276E2,2.0498467E3,1.3717947E4,8.290394E3,3.9389675E3,8.479392E3,1.6013158E4,9.501347E3,2.2955322E4,1.7721184E4,1.3556263E3,4.389733E3,2.6512966E3,3.8519187E3,5.858123E3,9.616591E3,-1.5439053E2,3.7089727E3,2.2500014E4,8.224492E3,3.0563582E4,6.4682163E3,7.159476E3,1.8006432E4,-1.3659469E3,2.5127703E3,2.7149516E4,4.336438E4,4.5024844E3,2.0714164E4],"split_indices":[4,4,4,3,10,10,0,3,4,4,10,4,8,10,10,3,4,4,3,0,0,8,3,10,0,3,10,0,0,8,10,4,0,4,4,4,3,4,0,3,9,10,0,4,3,3,1,0,8,0,10,0,4,4,3,0,0,0,10,0,0,3,9,0,0,0,0,0,0,0,0,0,0,0,0,0,0,0,0,0,0,0,0,0,0,0,0,0,0,0,0,0,0,0,0,0,0,0,0,0,0,0,0,0,0,0,0,0,0,0,0,0,0,0,0,0,0,0,0,0,0,0,0],"split_type":[0,0,0,0,0,0,0,0,0,0,0,0,0,0,0,0,0,0,0,0,0,0,0,0,0,0,0,0,0,0,0,0,0,0,0,0,0,0,0,0,0,0,0,0,0,0,0,0,0,0,0,0,0,0,0,0,0,0,0,0,0,0,0,0,0,0,0,0,0,0,0,0,0,0,0,0,0,0,0,0,0,0,0,0,0,0,0,0,0,0,0,0,0,0,0,0,0,0,0,0,0,0,0,0,0,0,0,0,0,0,0,0,0,0,0,0,0,0,0,0,0,0,0],"sum_hessian":[7.574E4,7.3904E4,1.836E3,6.545E4,8.454E3,1.527E3,3.09E2,3.9173E4,2.6277E4,2.605E3,5.849E3,9.11E2,6.16E2,2.33E2,7.6E1,1.8455E4,2.0718E4,1.631E4,9.967E3,2.294E3,3.11E2,3.068E3,2.781E3,6.54E2,2.57E2,2.98E2,3.18E2,1.28E2,1.05E2,5E0,7.1E1,8.693E3,9.762E3,1.3659E4,7.059E3,9.189E3,7.121E3,5.712E3,4.255E3,1.825E3,4.69E2,5.8E1,2.53E2,2.876E3,1.92E2,1.911E3,8.7E2,3.65E2,2.89E2,1.35E2,1.22E2,1.76E2,1.22E2,2.51E2,6.7E1,5.1E1,7.7E1,8.9E1,1.6E1,2E0,3E0,4.6E1,2.5E1,3.577E3,5.116E3,5.411E3,4.351E3,7.37E3,6.289E3,4.731E3,2.328E3,2.998E3,6.191E3,4.122E3,2.999E3,3.892E3,1.82E3,3.9E3,3.55E2,7.28E2,1.097E3,1.57E2,3.12E2,3.7E1,2.1E1,8.8E1,1.65E2,2.734E3,1.42E2,2.9E1,1.63E2,1.036E3,8.75E2,7.4E2,1.3E2,2.65E2,1E2,8.5E1,2.04E2,6.5E1,7E1,5.1E1,7.1E1,1.71E2,5E0,9.7E1,2.5E1,1.95E2,5.6E1,3E1,3.7E1,2.2E1,2.9E1,7.1E1,6E0,4.5E1,4.4E1,2E0,1.4E1,1.6E1,3E1,1E0,2.4E1],"tree_param":{"num_deleted":"0","num_feature":"13","num_nodes":"123","size_leaf_vector":"1"}},{"base_weights":[4.1147552E1,-2.768318E3,9.0767734E4,-5.510949E3,9.250838E3,7.095532E4,2.1612398E5,-8.914052E3,-4.157969E2,4.0193442E3,2.1672219E4,9.199951E4,3.0660928E4,1.6129853E5,3.7992962E5,-1.1727722E4,-6.319298E3,-5.4776562E3,2.7346096E3,3.0551848E3,3.465471E4,1.6054093E4,3.1523617E4,7.7835805E4,1.4356688E5,1.8642605E4,4.2766844E4,2.1053156E5,9.9861164E4,1.3607636E6,2.9291666E5,-1.3657627E4,-1.0450669E4,-9.214969E3,-4.4282173E3,1.0136327E3,-5.986597E3,4.047807E2,6.8640093E3,-3.356213E3,7.0225E3,5.2722934E4,1.453213E4,1.2527382E4,2.815446E4,2.5750195E4,4.6259016E4,5.2908934E4,9.193191E4,1.03201766E5,1.7421414E5,2.280921E4,7.926512E3,3.102646E4,6.1132168E4,1.3286231E5,2.5961194E5,1.20647125E5,3.76486E4,2.144287E5,4.3293016E4,3.8150875E5,2.2055306E5,-1.2894894E3,-1.5092406E3,-1.290098E3,-9.191774E2,-9.325452E2,2.648754E3,-3.0537137E2,-6.296835E2,-3.575454E2,4.428907E2,-7.943669E2,-4.6935507E2,-1.8852567E2,2.9121982E2,1.3670626E3,3.5799994E2,2.366437E1,-6.5544385E2,5.584897E2,1.7178705E3,2.5341794E3,5.9417847E3,7.9132153E2,5.1662495E3,1.936544E3,9.962137E2,2.5398596E3,5.892537E3,2.9683787E3,1.8778866E3,5.724868E3,3.6021873E3,4.201398E3,9.966941E3,6.442822E3,1.0445183E4,1.388068E4,5.0912295E3,2.016171E4,1.4832569E4,1.9098844E3,3.2790242E3,5.2148853E3,6.922646E2,3.630757E3,-1.3423296E2,5.161038E3,1.2138815E4,2.011451E4,6.715047E3,2.7549676E4,5.9137983E3,1.5332945E4,7.288142E3,1.0139432E3,5.2368174E3,2.566055E4,4.137966E4,2.4561908E4,1.4574278E4],"categories":[],"categories_nodes":[],"categories_segments":[],"categories_sizes":[],"default_left":[0,0,0,0,0,0,0,0,0,0,0,0,0,0,0,0,0,0,0,0,0,0,0,0,0,0,0,0,0,0,0,0,0,0,0,0,0,0,0,0,0,0,0,0,0,0,0,0,0,0,0,0,0,0,0,0,0,0,0,0,0,0,0,0,0,0,0,0,0,0,0,0,0,0,0,0,0,0,0,0,0,0,0,0,0,0,0,0,0,0,0,0,0,0,0,0,0,0,0,0,0,0,0,0,0,0,0,0,0,0,0,0,0,0,0,0,0,0,0,0,0,0,0],"id":5,"left_children":[1,3,5,7,9,11,13,15,17,19,21,23,25,27,29,31,33,35,37,39,41,43,45,47,49,51,53,55,57,59,61,63,65,67,69,71,73,75,77,79,81,83,85,87,89,91,93,95,97,99,101,103,105,107,109,111,113,115,117,-1,-1,119,121,-1,-1,-1,-1,-1,-1,-1,-1,-1,-1,-1,-1,-1,-1,-1,-1,-1,-1,-1,-1,-1,-1,-1,-1,-1,-1,-1,-1,-1,-1,-1,-1,-1,-1,-1,-1,-1,-1,-1,-1,-1,-1,-1,-1,-1,-1,-1,-1,-1,-1,-1,-1,-1,-1,-1,-1,-1,-1,-1,-1],"loss_changes":[1.930612E13,2.4218257E12,5.6348776E12,1.0372E12,8.869223E11,1.6642736E12,2.722742E12,2.6176127E11,3.820233E11,2.836302E11,2.2337015E11,9.31751E11,9.755584E10,6.8676695E11,6.172995E12,4.2260496E10,1.0214041E11,3.0366958E10,1.4205787E11,2.3693482E11,1.0576255E11,1.09662175E11,1.2369697E11,3.5177837E11,3.2469208E11,1.5044764E10,7.0550225E10,4.5725988E11,1.3253142E11,3.4335485E12,3.7743808E11,7.2993997E9,3.183267E10,2.9322183E10,2.897825E10,1.0501065E10,2.1528347E10,5.421646E10,1.1900312E11,4.092017E10,8.39159E10,2.672463E10,3.3997955E10,3.4854568E10,4.77724E10,2.8428075E10,4.42889E10,1.8380076E11,2.1606118E11,2.2006884E11,8.076447E10,8.446894E9,3.9451443E9,3.543397E10,6.8321935E10,2.198164E11,2.320981E11,1.12151626E11,1.0806866E10,0E0,0E0,1.8836095E10,4.2960814E10,0E0,0E0,0E0,0E0,0E0,0E0,0E0,0E0,0E0,0E0,0E0,0E0,0E0,0E0,0E0,0E0,0E0,0E0,0E0,0E0,0E0,0E0,0E0,0E0,0E0,0E0,0E0,0E0,0E0,0E0,0E0,0E0,0E0,0E0,0E0,0E0,0E0,0E0,0E0,0E0,0E0,0E0,0E0,0E0,0E0,0E0,0E0,0E0,0E0,0E0,0E0,0E0,0E0,0E0,0E0,0E0,0E0,0E0,0E0,0E0],"parents":[2147483647,0,0,1,1,2,2,3,3,4,4,5,5,6,6,7,7,8,8,9,9,10,10,11,11,12,12,13,13,14,14,15,15,16,16,17,17,18,18,19,19,20,20,21,21,22,22,23,23,24,24,25,25,26,26,27,27,28,28,29,29,30,30,31,31,32,32,33,33,34,34,35,35,36,36,37,37,38,38,39,39,40,40,41,41,42,42,43,43,44,44,45,45,46,46,47,47,48,48,49,49,50,50,51,51,52,52,53,53,54,54,55,55,56,56,57,57,58,58,61,61,62,62],"right_children":[2,4,6,8,10,12,14,16,18,20,22,24,26,28,30,32,34,36,38,40,42,44,46,48,50,52,54,56,58,60,62,64,66,68,70,72,74,76,78,80,82,84,86,88,90,92,94,96,98,100,102,104,106,108,110,112,114,116,118,-1,-1,120,122,-1,-1,-1,-1,-1,-1,-1,-1,-1,-1,-1,-1,-1,-1,-1,-1,-1,-1,-1,-1,-1,-1,-1,-1,-1,-1,-1,-1,-1,-1,-1,-1,-1,-1,-1,-1,-1,-1,-1,-1,-1,-1,-1,-1,-1,-1,-1,-1,-1,-1,-1,-1,-1,-1,-1,-1,-1,-1,-1,-1],"split_conditions":[3.75E2,1.77E2,4.93E2,2.019E3,2.02E3,4.4E4,2.2E1,2.015E3,9.5E1,1.41E1,1.95E2,4.6E2,1.12E1,7.5E3,2.5E2,2.01E3,9.5E1,5E0,2.022E3,2.016E3,5.83E4,2.45E2,2.3E1,1.12E1,7E0,1.08608E5,4.41E2,1.3E1,4.88E4,1.69E1,5.8E3,5E0,8.9E1,2.34E2,1E0,2.021E3,7.4E1,1.32E2,4.4E1,1.44038E5,5.58E2,3E0,1E0,4.5E1,3E2,3.81E2,8E3,5E0,3E0,4E0,7.5E3,2.42E2,8E0,1.3867E5,2.2E1,1.41E1,1.4E1,3.5E2,1.09E1,2.144287E5,4.3293016E4,2.019E3,2.5E4,-1.2894894E3,-1.5092406E3,-1.290098E3,-9.191774E2,-9.325452E2,2.648754E3,-3.0537137E2,-6.296835E2,-3.575454E2,4.428907E2,-7.943669E2,-4.6935507E2,-1.8852567E2,2.9121982E2,1.3670626E3,3.5799994E2,2.366437E1,-6.5544385E2,5.584897E2,1.7178705E3,2.5341794E3,5.9417847E3,7.9132153E2,5.1662495E3,1.936544E3,9.962137E2,2.5398596E3,5.892537E3,2.9683787E3,1.8778866E3,5.724868E3,3.6021873E3,4.201398E3,9.966941E3,6.442822E3,1.0445183E4,1.388068E4,5.0912295E3,2.016171E4,1.4832569E4,1.9098844E3,3.2790242E3,5.2148853E3,6.922646E2,3.630757E3,-1.3423296E2,5.161038E3,1.2138815E4,2.011451E4,6.715047E3,2.7549676E4,5.9137983E3,1.5332945E4,7.288142E3,1.0139432E3,5.2368174E3,2.566055E4,4.137966E4,2.4561908E4,1.4574278E4],"split_indices":[4,4,4,3,3,10,0,3,4,8,9,4,8,10,10,3,4,0,3,3,10,4,0,8,0,10,4,0,10,8,10,0,4,9,6,3,4,4,7,10,1,0,6,7,4,1,10,0,0,0,10,9,8,10,0,8,0,9,8,0,0,3,10,0,0,0,0,0,0,0,0,0,0,0,0,0,0,0,0,0,0,0,0,0,0,0,0,0,0,0,0,0,0,0,0,0,0,0,0,0,0,0,0,0,0,0,0,0,0,0,0,0,0,0,0,0,0,0,0,0,0,0,0],"split_type":[0,0,0,0,0,0,0,0,0,0,0,0,0,0,0,0,0,0,0,0,0,0,0,0,0,0,0,0,0,0,0,0,0,0,0,0,0,0,0,0,0,0,0,0,0,0,0,0,0,0,0,0,0,0,0,0,0,0,0,0,0,0,0,0,0,0,0,0,0,0,0,0,0,0,0,0,0,0,0,0,0,0,0,0,0,0,0,0,0,0,0,0,0,0,0,0,0,0,0,0,0,0,0,0,0,0,0,0,0,0,0,0,0,0,0,0,0,0,0,0,0,0,0],"sum_hessian":[7.574E4,7.3466E4,2.274E3,5.9817E4,1.3649E4,1.965E3,3.09E2,3.5863E4,2.3954E4,9.605E3,4.044E3,1.29E3,6.75E2,2.33E2,7.6E1,1.7204E4,1.8659E4,9.189E3,1.4765E4,9.313E3,2.92E2,2.577E3,1.467E3,1.014E3,2.76E2,3.4E2,3.35E2,1.28E2,1.05E2,5E0,7.1E1,6.847E3,1.0357E4,7.37E3,1.1289E4,6.68E2,8.521E3,9.44E3,5.325E3,3.56E3,5.753E3,1.53E2,1.39E2,1.997E3,5.8E2,1.056E3,4.11E2,3.68E2,6.46E2,1.21E2,1.55E2,2.44E2,9.6E1,2.06E2,1.29E2,5.1E1,7.7E1,7.8E1,2.7E1,2E0,3E0,3E1,4.1E1,4.477E3,2.37E3,3.512E3,6.845E3,7.348E3,2.2E1,6.506E3,4.783E3,2.85E2,3.83E2,3.388E3,5.133E3,4.934E3,4.506E3,1.732E3,3.593E3,1.677E3,1.883E3,5.041E3,7.12E2,3.1E1,1.22E2,1.19E2,2E1,5.43E2,1.454E3,5.34E2,4.6E1,6.73E2,3.83E2,1.96E2,2.15E2,3E2,6.8E1,2.04E2,4.42E2,7.1E1,5E1,7.2E1,8.3E1,1.8E2,6.4E1,1E0,9.5E1,1.77E2,2.9E1,1.13E2,1.6E1,2.4E1,2.7E1,7.1E1,6E0,4.5E1,3.3E1,1E1,1.7E1,8E0,2.2E1,2.9E1,1.2E1],"tree_param":{"num_deleted":"0","num_feature":"13","num_nodes":"123","size_leaf_vector":"1"}},{"base_weights":[4.5060383E1,-2.2310771E3,9.161714E4,-4.28483E3,1.3667493E4,1.7415872E5,6.4236168E4,-8.974728E3,-1.0382404E3,3.1971816E4,8.715353E3,1.29001586E5,2.786936E5,4.182146E4,1.0608942E5,-1.1066863E4,-7.0275044E3,2.667384E3,-5.1519727E3,2.8933127E4,5.258837E4,1.4151657E4,1.1400835E3,7.039802E4,1.430389E5,1.962244E5,5.2275547E5,5.952793E4,1.5170431E4,4.12415E4,1.4719595E5,-1.1934827E4,-8.4708125E3,-9.273283E3,-5.009123E3,-6.0254767E2,6.0984033E3,-6.3901533E3,-2.5975972E3,2.5300086E4,4.153496E4,2.1059865E4,6.0787867E4,1.2340058E4,3.8585785E4,-2.0627893E3,8.16965E3,5.8861234E4,2.2873452E5,1.135126E5,1.7553139E5,1.2655013E5,2.452097E5,1.2676408E6,3.5061522E5,3.0618229E4,9.13557E4,-2.559858E3,2.15123E4,9.2087125E4,2.5065846E4,1.7638078E5,1.1557023E5,-1.1169242E3,-1.3367717E3,-4.5337384E2,-9.8464056E2,-9.4230707E2,2.0656555E3,-3.8565436E2,-7.455535E2,-3.8161667E2,1.3849089E2,1.8146672E2,9.1737823E2,-8.370342E2,-5.1352844E2,4.196418E2,-3.946359E2,3.2257493E3,2.1682266E3,3.1337488E3,5.264941E3,2.2880586E3,1.3539263E3,8.99092E3,5.349034E3,7.3496075E2,1.6284191E3,7.7680854E3,3.3863918E3,-4.3142416E2,1.5724948E2,5.744291E2,1.4205111E3,9.781474E3,4.833517E3,3.3317535E4,8.286245E3,1.6896783E4,6.46773E3,-1.7443018E3,1.8058535E4,1.9881012E4,5.5038896E3,2.580297E4,5.2583745E3,2.0013344E5,4.0046043E4,3.644129E4,1.732767E4,4.238523E3,1.4775631E3,5.901293E3,1.3472927E4,3.604203E2,-2.4745989E3,1.6490579E3,3.2385608E3,3.660102E3,9.968496E3,8.847495E2,3.4989011E3,1.2353086E4,1.9011396E4,1.3117671E4,7.8320913E3],"categories":[],"categories_nodes":[],"categories_segments":[],"categories_sizes":[],"default_left":[0,0,0,0,0,0,0,0,0,0,0,0,0,0,0,0,0,0,0,0,0,0,0,0,0,0,0,0,0,0,0,0,0,0,0,0,0,0,0,0,0,0,0,0,0,0,0,0,0,0,0,0,0,0,0,0,0,0,0,0,0,0,0,0,0,0,0,0,0,0,0,0,0,0,0,0,0,0,0,0,0,0,0,0,0,0,0,0,0,0,0,0,0,0,0,0,0,0,0,0,0,0,0,0,0,0,0,0,0,0,0,0,0,0,0,0,0,0,0,0,0,0,0,0,0,0,0],"id":6,"left_children":[1,3,5,7,9,11,13,15,17,19,21,23,25,27,29,31,33,35,37,39,41,43,45,47,49,51,53,55,57,59,61,63,65,67,69,71,73,75,77,79,81,83,85,87,89,91,93,95,97,99,101,103,105,107,109,111,113,115,117,119,121,123,125,-1,-1,-1,-1,-1,-1,-1,-1,-1,-1,-1,-1,-1,-1,-1,-1,-1,-1,-1,-1,-1,-1,-1,-1,-1,-1,-1,-1,-1,-1,-1,-1,-1,-1,-1,-1,-1,-1,-1,-1,-1,-1,-1,-1,-1,-1,-1,-1,-1,-1,-1,-1,-1,-1,-1,-1,-1,-1,-1,-1,-1,-1,-1,-1],"loss_changes":[1.578695E13,2.4131847E12,4.1405571E12,9.96559E11,7.6612986E11,2.1213154E12,1.2911195E12,1.0899554E11,5.896191E11,1.1124343E11,2.7408777E11,2.5399656E11,2.6549032E12,4.2427508E11,1.2761175E12,2.8977529E10,6.282399E10,2.2830314E11,5.795712E10,7.087417E10,5.817893E10,1.710502E11,6.2653043E10,1.0344487E11,2.2759604E11,3.239219E11,3.9151867E12,4.949938E11,4.064705E10,1.5231448E11,2.509751E11,1.0457448E10,1.7486332E10,2.9621748E10,2.0574683E10,6.6557084E10,1.3080222E11,3.0632837E10,5.486932E10,3.005907E10,3.801894E10,3.6116685E8,3.3868284E10,7.091628E10,4.665806E10,1.565587E10,1.2668244E10,2.0283769E10,3.3332265E10,3.6279956E11,1.2115929E11,2.2159072E11,1.3459993E11,3.0160129E12,7.814775E9,5.2503413E10,3.525745E11,1.3217828E10,1.3990265E10,1.5322317E10,2.2865412E10,8.611063E10,7.343781E10,0E0,0E0,0E0,0E0,0E0,0E0,0E0,0E0,0E0,0E0,0E0,0E0,0E0,0E0,0E0,0E0,0E0,0E0,0E0,0E0,0E0,0E0,0E0,0E0,0E0,0E0,0E0,0E0,0E0,0E0,0E0,0E0,0E0,0E0,0E0,0E0,0E0,0E0,0E0,0E0,0E0,0E0,0E0,0E0,0E0,0E0,0E0,0E0,0E0,0E0,0E0,0E0,0E0,0E0,0E0,0E0,0E0,0E0,0E0,0E0,0E0,0E0,0E0,0E0],"parents":[2147483647,0,0,1,1,2,2,3,3,4,4,5,5,6,6,7,7,8,8,9,9,10,10,11,11,12,12,13,13,14,14,15,15,16,16,17,17,18,18,19,19,20,20,21,21,22,22,23,23,24,24,25,25,26,26,27,27,28,28,29,29,30,30,31,31,32,32,33,33,34,34,35,35,36,36,37,37,38,38,39,39,40,40,41,41,42,42,43,43,44,44,45,45,46,46,47,47,48,48,49,49,50,50,51,51,52,52,53,53,54,54,55,55,56,56,57,57,58,58,59,59,60,60,61,61,62,62],"right_children":[2,4,6,8,10,12,14,16,18,20,22,24,26,28,30,32,34,36,38,40,42,44,46,48,50,52,54,56,58,60,62,64,66,68,70,72,74,76,78,80,82,84,86,88,90,92,94,96,98,100,102,104,106,108,110,112,114,116,118,120,122,124,126,-1,-1,-1,-1,-1,-1,-1,-1,-1,-1,-1,-1,-1,-1,-1,-1,-1,-1,-1,-1,-1,-1,-1,-1,-1,-1,-1,-1,-1,-1,-1,-1,-1,-1,-1,-1,-1,-1,-1,-1,-1,-1,-1,-1,-1,-1,-1,-1,-1,-1,-1,-1,-1,-1,-1,-1,-1,-1,-1,-1,-1,-1,-1,-1],"split_conditions":[3.9E2,2.1E2,4.333E3,2.017E3,1.596E4,4.93E2,1.3E1,2.013E3,1E0,3.6E2,9E4,8.5E1,2.2E1,4E0,4.41E2,1.35E2,1.07E2,2.02E3,2.021E3,2.3E1,1E0,1.41E1,2.017E3,3.3E2,4.41E2,1.3E1,2.5E2,2.019E3,2.017E3,2.015E3,2.12E4,1.87E5,1.44038E5,2.53E2,1.47E5,1.32E2,1.2E2,8.5E1,4.5E1,5.2E1,2.45E2,3.65E3,2E0,2.019E3,2.003E3,2.5E2,1.97E2,2E0,8E0,4E0,2.013E3,1.41E1,1.4E1,1.69E1,1E0,7.42E4,3E0,1.21E1,4.6E2,4.05E2,2.3E1,1.15E1,4.7E4,-1.1169242E3,-1.3367717E3,-4.5337384E2,-9.8464056E2,-9.4230707E2,2.0656555E3,-3.8565436E2,-7.455535E2,-3.8161667E2,1.3849089E2,1.8146672E2,9.1737823E2,-8.370342E2,-5.1352844E2,4.196418E2,-3.946359E2,3.2257493E3,2.1682266E3,3.1337488E3,5.264941E3,2.2880586E3,1.3539263E3,8.99092E3,5.349034E3,7.3496075E2,1.6284191E3,7.7680854E3,3.3863918E3,-4.3142416E2,1.5724948E2,5.744291E2,1.4205111E3,9.781474E3,4.833517E3,3.3317535E4,8.286245E3,1.6896783E4,6.46773E3,-1.7443018E3,1.8058535E4,1.9881012E4,5.5038896E3,2.580297E4,5.2583745E3,2.0013344E5,4.0046043E4,3.644129E4,1.732767E4,4.238523E3,1.4775631E3,5.901293E3,1.3472927E4,3.604203E2,-2.4745989E3,1.6490579E3,3.2385608E3,3.660102E3,9.968496E3,8.847495E2,3.4989011E3,1.2353086E4,1.9011396E4,1.3117671E4,7.8320913E3],"split_indices":[4,4,10,3,10,4,0,3,6,4,10,1,0,0,4,4,4,3,3,0,0,8,3,9,4,0,10,3,3,3,10,10,10,9,10,4,4,4,7,7,4,10,0,3,3,4,9,0,2,0,3,8,0,8,6,10,0,8,4,4,0,8,10,0,0,0,0,0,0,0,0,0,0,0,0,0,0,0,0,0,0,0,0,0,0,0,0,0,0,0,0,0,0,0,0,0,0,0,0,0,0,0,0,0,0,0,0,0,0,0,0,0,0,0,0,0,0,0,0,0,0,0,0,0,0,0,0],"split_type":[0,0,0,0,0,0,0,0,0,0,0,0,0,0,0,0,0,0,0,0,0,0,0,0,0,0,0,0,0,0,0,0,0,0,0,0,0,0,0,0,0,0,0,0,0,0,0,0,0,0,0,0,0,0,0,0,0,0,0,0,0,0,0,0,0,0,0,0,0,0,0,0,0,0,0,0,0,0,0,0,0,0,0,0,0,0,0,0,0,0,0,0,0,0,0,0,0,0,0,0,0,0,0,0,0,0,0,0,0,0,0,0,0,0,0,0,0,0,0,0,0,0,0,0,0,0,0],"sum_hessian":[7.574E4,7.3904E4,1.836E3,6.545E4,8.454E3,4.56E2,1.38E3,2.6773E4,3.8677E4,1.799E3,6.655E3,3.2E2,1.36E2,9E2,4.8E2,1.2904E4,1.3869E4,2.0348E4,1.8329E4,1.57E3,2.29E2,3.874E3,2.781E3,6.3E1,2.57E2,1.03E2,3.3E1,5.4E2,3.6E2,1.87E2,2.93E2,9.668E3,3.236E3,6.563E3,7.306E3,1.0419E4,9.929E3,1.2344E4,5.985E3,1.221E3,3.49E2,4.8E1,1.81E2,3.608E3,2.66E2,1.911E3,8.7E2,6E1,3E0,1.37E2,1.2E2,4.4E1,5.9E1,5E0,2.8E1,2.84E2,2.56E2,9.5E1,2.65E2,4.4E1,1.43E2,1.5E2,1.43E2,6.307E3,3.361E3,8.39E2,2.397E3,6.531E3,3.2E1,4.968E3,2.338E3,3.981E3,6.438E3,4.15E3,5.779E3,4.786E3,7.558E3,9.91E2,4.994E3,4.15E2,8.06E2,1.84E2,1.65E2,3.7E1,1.1E1,3.4E1,1.47E2,1.594E3,2.014E3,2.7E1,2.39E2,1.18E3,7.31E2,6.22E2,2.48E2,1.1E1,4.9E1,1E0,2E0,6.3E1,7.4E1,3E0,1.17E2,2.1E1,2.3E1,5.5E1,4E0,2E0,3E0,2.5E1,3E0,1.62E2,1.22E2,1.48E2,1.08E2,7.5E1,2E1,1.83E2,8.2E1,6E0,3.8E1,5.5E1,8.8E1,3.3E1,1.17E2,9.9E1,4.4E1],"tree_param":{"num_deleted":"0","num_feature":"13","num_nodes":"127","size_leaf_vector":"1"}},{"base_weights":[4.830617E1,-2.3111846E3,7.24014E4,-4.490596E3,7.3223296E3,5.6641355E4,1.7806517E5,-6.5910737E3,1.0095165E3,3.833229E3,2.0481383E4,7.393513E4,2.5023377E4,1.3126072E5,3.1798953E5,-9.153995E3,-4.2932954E3,-1.452722E3,6.942242E3,6.2712373E3,-4.282194E3,1.7422164E4,3.549841E4,5.7595895E4,1.02088836E5,3.1547406E4,1.0836804E4,1.5811323E5,5.5865598E4,1.1809066E6,2.4166327E5,-1.1143008E4,-8.1528994E3,-6.4664766E3,-2.1644038E3,5.2749272E3,-2.425252E3,1.0332183E4,4.0709893E3,4.3729937E3,1.5702802E4,-8.790996E3,-2.8577249E3,1.2880877E4,2.4406174E4,4.6696285E4,2.6657473E4,8.148887E4,3.75273E4,6.316783E4,1.456027E5,2.2072764E4,4.443249E4,1.0495875E4,9.98238E3,9.9589695E4,1.9635144E5,6.862543E4,6.304362E3,1.8679122E5,3.704259E4,2.8742988E5,1.4963656E5,-1.2449783E3,-1.043783E3,-6.5968134E2,-9.7773975E2,-8.924095E2,-5.674128E2,-8.2092316E1,-4.3259457E2,2.0654007E2,6.917036E2,-5.5308856E2,-9.5036514E1,1.4983739E3,6.390053E2,6.3782806E2,9.26679E1,2.756427E2,1.3463126E3,1.0016138E4,1.4258666E3,-9.079346E2,2.093242E3,-3.6553592E2,1.7518634E2,2.4671936E3,9.7182404E2,4.1665435E3,2.3143796E3,3.6559102E3,9.467714E3,8.438733E3,2.4800073E3,4.8184507E3,1.2688702E4,1.4136017E3,5.3154663E3,4.6806187E3,1.0488761E4,5.7921606E3,1.5139669E4,1.678275E3,3.0978965E3,3.916925E3,7.0989854E3,-1.8086829E2,1.5813922E3,1.6012439E4,5.0185557E3,2.125858E4,2.411322E3,3.8696204E3,1.020773E4,1.7450184E3,1.0101485E1,1.9948715E4,3.2638459E4,1.5538567E4,5.376477E3],"categories":[],"categories_nodes":[],"categories_segments":[],"categories_sizes":[],"default_left":[0,0,0,0,0,0,0,0,0,0,0,0,0,0,0,0,0,0,0,0,0,0,0,0,0,0,0,0,0,0,0,0,0,0,0,0,0,0,0,0,0,0,0,0,0,0,0,0,0,0,0,0,0,0,0,0,0,0,0,0,0,0,0,0,0,0,0,0,0,0,0,0,0,0,0,0,0,0,0,0,0,0,0,0,0,0,0,0,0,0,0,0,0,0,0,0,0,0,0,0,0,0,0,0,0,0,0,0,0,0,0,0,0,0,0,0,0,0,0,0,0],"id":7,"left_children":[1,3,5,7,9,11,13,15,17,19,21,23,25,27,29,31,33,35,37,39,41,43,45,47,49,51,53,55,57,59,61,63,65,67,69,71,73,75,77,79,81,83,85,87,89,91,93,95,97,99,101,103,105,-1,107,109,111,113,115,-1,-1,117,119,-1,-1,-1,-1,-1,-1,-1,-1,-1,-1,-1,-1,-1,-1,-1,-1,-1,-1,-1,-1,-1,-1,-1,-1,-1,-1,-1,-1,-1,-1,-1,-1,-1,-1,-1,-1,-1,-1,-1,-1,-1,-1,-1,-1,-1,-1,-1,-1,-1,-1,-1,-1,-1,-1,-1,-1,-1,-1],"loss_changes":[1.2930402E13,1.540045E12,3.9732296E12,6.9107555E11,6.212656E11,1.1371235E12,1.9884765E12,2.5487907E11,2.41506E11,2.1169177E11,1.2966848E11,6.132932E11,6.7962667E10,4.6491107E11,4.7860894E12,4.065303E10,1.05589735E11,7.645935E10,4.7155085E10,1.4722266E11,1.5851663E10,7.447288E10,4.6176076E10,4.064333E11,8.257494E11,6.0670476E10,1.7770545E10,3.6535298E11,3.940814E10,2.6489048E12,2.6023612E11,6.180569E9,3.4352267E10,2.1944009E10,3.3485267E10,7.764812E9,4.675664E10,4.066748E10,1.9052556E10,1.006223E11,1.6664615E11,5.272494E9,6.9187236E9,5.3123416E10,1.9254673E10,9.868077E10,2.6858602E10,5.82037E11,1.6959216E11,1.7393287E11,1.0909175E11,1.3284475E10,2.699205E10,0E0,1.6049701E10,2.013106E11,2.8288038E11,4.610944E10,9.662168E8,0E0,0E0,9.590224E10,5.9762934E9,0E0,0E0,0E0,0E0,0E0,0E0,0E0,0E0,0E0,0E0,0E0,0E0,0E0,0E0,0E0,0E0,0E0,0E0,0E0,0E0,0E0,0E0,0E0,0E0,0E0,0E0,0E0,0E0,0E0,0E0,0E0,0E0,0E0,0E0,0E0,0E0,0E0,0E0,0E0,0E0,0E0,0E0,0E0,0E0,0E0,0E0,0E0,0E0,0E0,0E0,0E0,0E0,0E0,0E0,0E0,0E0,0E0,0E0],"parents":[2147483647,0,0,1,1,2,2,3,3,4,4,5,5,6,6,7,7,8,8,9,9,10,10,11,11,12,12,13,13,14,14,15,15,16,16,17,17,18,18,19,19,20,20,21,21,22,22,23,23,24,24,25,25,26,26,27,27,28,28,29,29,30,30,31,31,32,32,33,33,34,34,35,35,36,36,37,37,38,38,39,39,40,40,41,41,42,42,43,43,44,44,45,45,46,46,47,47,48,48,49,49,50,50,51,51,52,52,54,54,55,55,56,56,57,57,58,58,61,61,62,62],"right_children":[2,4,6,8,10,12,14,16,18,20,22,24,26,28,30,32,34,36,38,40,42,44,46,48,50,52,54,56,58,60,62,64,66,68,70,72,74,76,78,80,82,84,86,88,90,92,94,96,98,100,102,104,106,-1,108,110,112,114,116,-1,-1,118,120,-1,-1,-1,-1,-1,-1,-1,-1,-1,-1,-1,-1,-1,-1,-1,-1,-1,-1,-1,-1,-1,-1,-1,-1,-1,-1,-1,-1,-1,-1,-1,-1,-1,-1,-1,-1,-1,-1,-1,-1,-1,-1,-1,-1,-1,-1,-1,-1,-1,-1,-1,-1,-1,-1,-1,-1,-1,-1],"split_conditions":[3.6E2,1.77E2,4.93E2,2.02E3,2.021E3,4.4E4,2.2E1,2.016E3,1.2E2,1.44038E5,2.3E1,4.41E2,9.4E4,1.9999E4,2.5E2,2.01E3,1.05E2,3E0,1.25E4,2.9E2,2.011E3,2.4E2,4.4E1,4E0,7E0,1.21E1,2.002E3,1.3E1,1.4E1,1.69E1,1.4761E4,8.8E1,5E0,6.7E1,8.78E4,2.022E3,7.5E1,4.4E1,4.4E1,2.3E1,2.003E3,1.49E1,2.5E2,4.3E1,4.1E0,2.28E2,1.3E0,3E0,1.3E1,1.34E1,2.014E3,2.46E2,4.6E2,1.0495875E4,2.014E3,6.1E1,1.4E1,1.3E1,1.41E1,1.8679122E5,3.704259E4,2.019E3,4.637E4,-1.2449783E3,-1.043783E3,-6.5968134E2,-9.7773975E2,-8.924095E2,-5.674128E2,-8.2092316E1,-4.3259457E2,2.0654007E2,6.917036E2,-5.5308856E2,-9.5036514E1,1.4983739E3,6.390053E2,6.3782806E2,9.26679E1,2.756427E2,1.3463126E3,1.0016138E4,1.4258666E3,-9.079346E2,2.093242E3,-3.6553592E2,1.7518634E2,2.4671936E3,9.7182404E2,4.1665435E3,2.3143796E3,3.6559102E3,9.467714E3,8.438733E3,2.4800073E3,4.8184507E3,1.2688702E4,1.4136017E3,5.3154663E3,4.6806187E3,1.0488761E4,5.7921606E3,1.5139669E4,1.678275E3,3.0978965E3,3.916925E3,7.0989854E3,-1.8086829E2,1.5813922E3,1.6012439E4,5.0185557E3,2.125858E4,2.411322E3,3.8696204E3,1.020773E4,1.7450184E3,1.0101485E1,1.9948715E4,3.2638459E4,1.5538567E4,5.376477E3],"split_indices":[4,4,4,3,3,10,0,3,4,10,0,4,10,10,10,3,4,0,10,4,3,4,7,0,0,8,3,0,0,8,10,4,0,4,10,3,4,7,7,0,3,8,4,7,8,4,8,0,0,8,3,9,4,0,3,1,0,0,8,0,0,3,10,0,0,0,0,0,0,0,0,0,0,0,0,0,0,0,0,0,0,0,0,0,0,0,0,0,0,0,0,0,0,0,0,0,0,0,0,0,0,0,0,0,0,0,0,0,0,0,0,0,0,0,0,0,0,0,0,0,0],"split_type":[0,0,0,0,0,0,0,0,0,0,0,0,0,0,0,0,0,0,0,0,0,0,0,0,0,0,0,0,0,0,0,0,0,0,0,0,0,0,0,0,0,0,0,0,0,0,0,0,0,0,0,0,0,0,0,0,0,0,0,0,0,0,0,0,0,0,0,0,0,0,0,0,0,0,0,0,0,0,0,0,0,0,0,0,0,0,0,0,0,0,0,0,0,0,0,0,0,0,0,0,0,0,0,0,0,0,0,0,0,0,0,0,0,0,0,0,0,0,0,0,0],"sum_hessian":[7.574E4,7.3349E4,2.391E3,5.9817E4,1.3532E4,2.082E3,3.09E2,4.3286E4,1.6531E4,1.0697E4,2.835E3,1.345E3,7.37E2,2.33E2,7.6E1,2.0461E4,2.2825E4,1.1683E4,4.848E3,8.226E3,2.471E3,2.357E3,4.78E2,8.53E2,4.92E2,5.04E2,2.33E2,1.71E2,6.2E1,5E0,7.1E1,6.847E3,1.3614E4,1.1294E4,1.1531E4,1.475E3,1.0208E4,2.222E3,2.626E3,6.849E3,1.377E3,5.92E2,1.879E3,1.43E3,9.27E2,2.09E2,2.69E2,3.88E2,4.65E2,2.61E2,2.31E2,2.92E2,2.12E2,1E0,2.32E2,6.9E1,1.02E2,4.9E1,1.3E1,2E0,3E0,4.6E1,2.5E1,2.394E3,4.453E3,6.956E3,6.658E3,2.751E3,8.543E3,7.112E3,4.419E3,5E2,9.75E2,3.286E3,6.922E3,1.018E3,1.204E3,1.514E3,1.112E3,5.816E3,1.033E3,2.2E1,1.355E3,5.87E2,5E0,1.602E3,2.77E2,3.01E2,1.129E3,6.1E1,8.66E2,1.74E2,3.5E1,7E0,2.62E2,2.25E2,1.63E2,1.87E2,2.78E2,1.89E2,7.2E1,1.5E1,2.16E2,1.85E2,1.07E2,1.79E2,3.3E1,7.7E1,1.55E2,3E1,3.9E1,9.3E1,9E0,2.7E1,2.2E1,4E0,9E0,1.6E1,3E1,2.3E1,2E0],"tree_param":{"num_deleted":"0","num_feature":"13","num_nodes":"121","size_leaf_vector":"1"}},{"base_weights":[4.9959774E1,-2.0794495E3,6.5347668E4,-4.041583E3,6.5936445E3,5.1019477E4,1.6141306E5,-7.144691E3,-9.960039E2,1.0092172E3,1.3461523E4,7.763104E4,3.3680516E4,1.18393336E5,2.900521E5,-9.269167E3,-5.6669834E3,1.9323882E3,-3.9032615E3,3.2611893E2,2.495898E4,9.748136E3,2.0704752E4,4.3006754E4,9.095191E4,2.4875922E4,5.770233E4,1.5604298E5,7.14575E4,1.1001216E6,2.185178E5,-1.0855312E4,-8.461459E3,-7.6435186E3,-4.3466147E3,-3.5510886E2,5.11929E3,-8.4996454E2,-4.6915557E3,-3.653584E3,2.7131672E3,4.1159098E4,9.434019E3,7.464096E3,1.8622037E4,1.673992E4,3.014182E4,1.4308089E4,5.049702E4,7.88529E4,1.2152616E5,3.4066848E4,1.115836E4,3.3064465E4,1.0456907E5,9.931225E4,1.9186292E5,8.4209266E4,-2.552045E2,1.7433847E5,3.4264395E4,2.849181E5,1.6430525E5,-1.1886753E3,-1.0298408E3,-7.2622504E2,-1.037669E3,-7.7708295E2,1.9462245E3,-3.2765543E2,-6.490705E2,-2.2206726E2,1.26237206E2,9.8185205E2,2.8124783E2,-3.5281616E2,5.0007242E2,-5.1804247E0,-5.1398914E2,4.9940664E3,-3.8497833E2,4.470325E3,2.4893633E2,-1.9841254E3,4.522061E3,1.6629199E2,4.117933E3,8.3802783E2,-4.3239062E2,1.6730087E3,4.518492E3,2.0635925E3,1.0383048E3,4.315486E3,2.2997324E3,1.5961088E3,7.8812524E2,7.6494375E3,4.4007803E3,4.6025405E3,8.687721E3,9.147423E3,1.5949015E4,2.3855059E3,5.699316E3,-1.6449034E2,1.6588922E3,7.910483E3,1.964445E3,1.1746212E4,5.9852993E3,2.986735E4,8.101108E3,2.0361598E4,4.356555E3,4.5868667E3,1.2153057E4,-3.4571013E3,6.624971E2,1.898558E4,3.0972863E4,8.322971E3,1.7814238E4],"categories":[],"categories_nodes":[],"categories_segments":[],"categories_sizes":[],"default_left":[0,0,0,0,0,0,0,0,0,0,0,0,0,0,0,0,0,0,0,0,0,0,0,0,0,0,0,0,0,0,0,0,0,0,0,0,0,0,0,0,0,0,0,0,0,0,0,0,0,0,0,0,0,0,0,0,0,0,0,0,0,0,0,0,0,0,0,0,0,0,0,0,0,0,0,0,0,0,0,0,0,0,0,0,0,0,0,0,0,0,0,0,0,0,0,0,0,0,0,0,0,0,0,0,0,0,0,0,0,0,0,0,0,0,0,0,0,0,0,0,0,0,0],"id":8,"left_children":[1,3,5,7,9,11,13,15,17,19,21,23,25,27,29,31,33,35,37,39,41,43,45,47,49,51,53,55,57,59,61,63,65,67,69,71,73,75,77,79,81,83,85,87,89,91,93,95,97,99,101,103,105,107,109,111,113,115,117,-1,-1,119,121,-1,-1,-1,-1,-1,-1,-1,-1,-1,-1,-1,-1,-1,-1,-1,-1,-1,-1,-1,-1,-1,-1,-1,-1,-1,-1,-1,-1,-1,-1,-1,-1,-1,-1,-1,-1,-1,-1,-1,-1,-1,-1,-1,-1,-1,-1,-1,-1,-1,-1,-1,-1,-1,-1,-1,-1,-1,-1,-1,-1],"loss_changes":[1.0531585E13,1.2482799E12,3.2842176E12,5.653186E11,5.1901976E11,9.585164E11,1.681205E12,9.296334E10,2.5703281E11,1.2211957E11,1.6303561E11,3.7475477E11,2.6569199E11,4.0235513E11,4.22158E12,1.5477834E10,4.557747E10,1.0965115E11,3.6460495E10,6.896855E10,5.167348E10,8.121811E10,7.642343E10,4.871838E10,2.0940902E11,1.16367294E11,3.868299E11,2.4308534E11,9.695458E10,2.3261846E12,2.1236705E11,2.2309437E9,1.842964E10,2.4300323E10,2.4023056E10,2.6427175E10,6.8103307E10,4.874916E10,2.5047007E10,2.8814512E10,4.2534797E10,2.5920324E10,2.632799E10,3.453131E10,4.0503935E10,3.5696968E10,5.544136E10,3.947612E8,2.7337556E10,1.0848069E11,1.7479867E11,1.2834216E11,2.596157E10,1.36229356E11,5.9846558E10,1.6552844E11,1.2707876E11,1.232084E11,4.2427108E9,0E0,0E0,1.4311227E10,3.229103E10,0E0,0E0,0E0,0E0,0E0,0E0,0E0,0E0,0E0,0E0,0E0,0E0,0E0,0E0,0E0,0E0,0E0,0E0,0E0,0E0,0E0,0E0,0E0,0E0,0E0,0E0,0E0,0E0,0E0,0E0,0E0,0E0,0E0,0E0,0E0,0E0,0E0,0E0,0E0,0E0,0E0,0E0,0E0,0E0,0E0,0E0,0E0,0E0,0E0,0E0,0E0,0E0,0E0,0E0,0E0,0E0,0E0,0E0,0E0,0E0],"parents":[2147483647,0,0,1,1,2,2,3,3,4,4,5,5,6,6,7,7,8,8,9,9,10,10,11,11,12,12,13,13,14,14,15,15,16,16,17,17,18,18,19,19,20,20,21,21,22,22,23,23,24,24,25,25,26,26,27,27,28,28,29,29,30,30,31,31,32,32,33,33,34,34,35,35,36,36,37,37,38,38,39,39,40,40,41,41,42,42,43,43,44,44,45,45,46,46,47,47,48,48,49,49,50,50,51,51,52,52,53,53,54,54,55,55,56,56,57,57,58,58,61,61,62,62],"right_children":[2,4,6,8,10,12,14,16,18,20,22,24,26,28,30,32,34,36,38,40,42,44,46,48,50,52,54,56,58,60,62,64,66,68,70,72,74,76,78,80,82,84,86,88,90,92,94,96,98,100,102,104,106,108,110,112,114,116,118,-1,-1,120,122,-1,-1,-1,-1,-1,-1,-1,-1,-1,-1,-1,-1,-1,-1,-1,-1,-1,-1,-1,-1,-1,-1,-1,-1,-1,-1,-1,-1,-1,-1,-1,-1,-1,-1,-1,-1,-1,-1,-1,-1,-1,-1,-1,-1,-1,-1,-1,-1,-1,-1,-1,-1,-1,-1,-1,-1,-1,-1,-1,-1],"split_conditions":[3.6E2,1.77E2,4.93E2,2.018E3,2.019E3,1.596E4,2.2E1,2.013E3,1E0,1.41E1,1.97E2,3.9E2,1.3E1,7.5E3,2.5E2,8.8E1,9.5E1,2.021E3,4.5E1,2.015E3,5.77E4,2.45E2,2.3E1,1E0,3E2,4E0,4.41E2,1.3E1,1.4E1,1.69E1,5.8E3,6E1,1.995E5,2.53E2,1.275E5,1.32E2,4.4E1,1.44E2,2.38E2,1.7431E4,6.156E3,2.8E2,1E0,1E0,3E2,3.81E2,9.45E3,3.65E3,2E0,3E0,7E0,8.5E1,2.017E3,1.4E1,3.5E2,1.15E1,1.4E1,1.3E1,1.5183E4,1.7433847E5,3.4264395E4,2.019E3,2.014E3,-1.1886753E3,-1.0298408E3,-7.2622504E2,-1.037669E3,-7.7708295E2,1.9462245E3,-3.2765543E2,-6.490705E2,-2.2206726E2,1.26237206E2,9.8185205E2,2.8124783E2,-3.5281616E2,5.0007242E2,-5.1804247E0,-5.1398914E2,4.9940664E3,-3.8497833E2,4.470325E3,2.4893633E2,-1.9841254E3,4.522061E3,1.6629199E2,4.117933E3,8.3802783E2,-4.3239062E2,1.6730087E3,4.518492E3,2.0635925E3,1.0383048E3,4.315486E3,2.2997324E3,1.5961088E3,7.8812524E2,7.6494375E3,4.4007803E3,4.6025405E3,8.687721E3,9.147423E3,1.5949015E4,2.3855059E3,5.699316E3,-1.6449034E2,1.6588922E3,7.910483E3,1.964445E3,1.1746212E4,5.9852993E3,2.986735E4,8.101108E3,2.0361598E4,4.356555E3,4.5868667E3,1.2153057E4,-3.4571013E3,6.624971E2,1.898558E4,3.0972863E4,8.322971E3,1.7814238E4],"split_indices":[4,4,4,3,3,10,0,3,6,8,9,4,0,10,10,4,4,3,7,3,10,4,0,0,9,0,4,0,0,8,10,4,10,9,10,4,7,9,1,10,10,4,6,6,4,1,10,10,0,0,0,1,3,0,9,8,0,0,10,0,0,3,3,0,0,0,0,0,0,0,0,0,0,0,0,0,0,0,0,0,0,0,0,0,0,0,0,0,0,0,0,0,0,0,0,0,0,0,0,0,0,0,0,0,0,0,0,0,0,0,0,0,0,0,0,0,0,0,0,0,0,0,0],"split_type":[0,0,0,0,0,0,0,0,0,0,0,0,0,0,0,0,0,0,0,0,0,0,0,0,0,0,0,0,0,0,0,0,0,0,0,0,0,0,0,0,0,0,0,0,0,0,0,0,0,0,0,0,0,0,0,0,0,0,0,0,0,0,0,0,0,0,0,0,0,0,0,0,0,0,0,0,0,0,0,0,0,0,0,0,0,0,0,0,0,0,0,0,0,0,0,0,0,0,0,0,0,0,0,0,0,0,0,0,0,0,0,0,0,0,0,0,0,0,0,0,0,0,0],"sum_hessian":[7.574E4,7.3349E4,2.391E3,5.9817E4,1.3532E4,2.082E3,3.09E2,2.9628E4,3.0189E4,7.464E3,6.068E3,8.2E2,1.262E3,2.33E2,7.6E1,1.2152E4,1.7476E4,1.504E4,1.5149E4,7.258E3,2.06E2,4.013E3,2.055E3,2.29E2,5.91E2,9.25E2,3.37E2,1.28E2,1.05E2,5E0,7.1E1,4.096E3,8.056E3,6.997E3,1.0479E4,8.756E3,6.284E3,3.109E3,1.204E4,2.721E3,4.537E3,1E2,1.06E2,3.193E3,8.2E2,1.449E3,6.06E2,4.8E1,1.81E2,4.26E2,1.65E2,5.53E2,3.72E2,2.22E2,1.15E2,5.1E1,7.7E1,8.9E1,1.6E1,2E0,3E0,3E1,4.1E1,1.429E3,2.667E3,4.957E3,3.099E3,6.965E3,3.2E1,6.992E3,3.487E3,4.066E3,4.69E3,2.068E3,4.216E3,2.133E3,9.76E2,1.061E3,1.0979E4,9E0,2.712E3,2.3E1,4.514E3,6E0,9.4E1,8.6E1,2E1,2.963E3,2.3E2,7.67E2,5.3E1,8.97E2,5.52E2,2.13E2,3.93E2,3.7E1,1.1E1,3.4E1,1.47E2,8.5E1,3.41E2,9.4E1,7.1E1,3.84E2,1.69E2,1.11E2,2.61E2,4.9E1,1.73E2,8.8E1,2.7E1,3E0,4.8E1,7.1E1,6E0,4.5E1,4.4E1,2E0,1.4E1,8E0,2.2E1,7E0,3.4E1],"tree_param":{"num_deleted":"0","num_feature":"13","num_nodes":"123","size_leaf_vector":"1"}},{"base_weights":[5.1311714E1,-1.8711029E3,5.900159E4,-4.127412E3,4.3085127E3,4.5960742E4,1.4643734E5,-7.706556E3,-2.2870427E3,9.563629E3,-1.0651403E3,6.993227E4,3.0341906E4,1.06881484E5,2.6474425E5,-8.972801E3,-6.5308696E3,-4.616973E3,-5.3003894E2,7.031127E3,1.6933674E4,-4.66396E3,2.0508123E3,3.8768836E4,8.192156E4,2.2398674E4,5.201377E4,1.459135E5,6.922421E4,1.02487656E6,1.9772289E5,-7.65367E3,-9.578351E3,-4.9030425E3,-7.8984688E3,-2.3063984E3,-5.496535E3,2.5206328E3,-2.3823547E3,1.2033003E4,3.6457415E3,2.6555338E4,1.2644691E4,-3.2225305E3,-7.6139277E3,1.1679005E3,1.2122489E4,1.29259375E4,4.5513527E4,9.967478E4,6.454371E4,3.0674758E4,1.0046532E4,2.9802299E4,9.4265016E4,1.7268298E5,6.866994E4,8.034636E4,1.117147E3,1.627159E5,3.1694562E4,2.360118E5,1.209036E5,-9.660688E2,-6.322304E2,-1.0462125E3,-8.800234E2,1.2107807E4,-4.9601926E2,-8.004573E2,1.5061781E3,4.287026E2,-2.8355145E2,-1.5682336E2,-5.901524E2,6.379251E2,9.017803E1,-1.4874768E2,-4.3996103E2,7.853028E2,1.831393E3,9.423338E1,8.081164E2,2.2802524E3,4.831257E3,6.088765E3,1.1799333E3,-3.4764447E2,1.6313812E3,-9.827956E2,-5.955527E2,2.9900558E1,1.155851E3,2.271949E3,9.9684534E2,1.3863662E3,3.8949637E2,6.906349E3,3.9636755E3,8.658452E3,1.6255766E4,3.3089966E3,7.3542705E3,1.0603612E3,4.0546501E3,-1.4818802E2,1.4936364E3,6.3614663E3,1.391681E3,1.0584788E4,5.4081455E3,2.0171717E4,1.1653687E4,1.1708698E4,2.1909617E3,4.4395757E3,1.1281181E4,-1.5174882E3,6.855932E2,2.5614193E4,1.2255768E4,1.9975055E3,1.2414174E4],"categories":[],"categories_nodes":[],"categories_segments":[],"categories_sizes":[],"default_left":[0,0,0,0,0,0,0,0,0,0,0,0,0,0,0,0,0,0,0,0,0,0,0,0,0,0,0,0,0,0,0,0,0,0,0,0,0,0,0,0,0,0,0,0,0,0,0,0,0,0,0,0,0,0,0,0,0,0,0,0,0,0,0,0,0,0,0,0,0,0,0,0,0,0,0,0,0,0,0,0,0,0,0,0,0,0,0,0,0,0,0,0,0,0,0,0,0,0,0,0,0,0,0,0,0,0,0,0,0,0,0,0,0,0,0,0,0,0,0,0,0,0,0],"id":9,"left_children":[1,3,5,7,9,11,13,15,17,19,21,23,25,27,29,31,33,35,37,39,41,43,45,47,49,51,53,55,57,59,61,63,65,67,69,71,73,75,77,79,81,83,85,87,89,91,93,95,97,99,101,103,105,107,109,111,113,115,117,-1,-1,119,121,-1,-1,-1,-1,-1,-1,-1,-1,-1,-1,-1,-1,-1,-1,-1,-1,-1,-1,-1,-1,-1,-1,-1,-1,-1,-1,-1,-1,-1,-1,-1,-1,-1,-1,-1,-1,-1,-1,-1,-1,-1,-1,-1,-1,-1,-1,-1,-1,-1,-1,-1,-1,-1,-1,-1,-1,-1,-1,-1,-1],"loss_changes":[8.583601E12,1.02274584E12,2.720715E12,3.5391223E11,5.5403446E11,7.7776867E11,1.4224206E12,2.7104313E10,1.4527059E11,1.850156E11,1.08794175E11,3.0357245E11,2.1625373E11,3.3384143E11,3.720131E12,6.9417697E9,2.1032436E10,3.0991974E10,1.14333155E11,1.2499147E11,1.0431765E11,1.9118735E10,4.6226326E10,3.9501267E10,1.7620586E11,9.435431E10,3.1439094E11,2.2386783E11,9.156736E10,2.0425259E12,1.8324102E11,7.335215E9,4.044292E9,3.1732564E10,1.2647399E10,1.4692542E10,1.7568793E10,4.7742743E10,2.2719087E10,7.809345E10,5.281166E10,6.2667686E10,7.08958E10,1.5067337E10,5.3646377E9,4.3170095E10,9.337754E9,3.6096154E8,2.245093E10,2.2546298E11,8.304814E10,1.0933807E11,2.1048885E10,1.1889379E11,4.8266674E10,1.1342578E11,6.7618537E10,1.1637549E11,1.786974E9,0E0,0E0,7.594888E10,6.017614E9,0E0,0E0,0E0,0E0,0E0,0E0,0E0,0E0,0E0,0E0,0E0,0E0,0E0,0E0,0E0,0E0,0E0,0E0,0E0,0E0,0E0,0E0,0E0,0E0,0E0,0E0,0E0,0E0,0E0,0E0,0E0,0E0,0E0,0E0,0E0,0E0,0E0,0E0,0E0,0E0,0E0,0E0,0E0,0E0,0E0,0E0,0E0,0E0,0E0,0E0,0E0,0E0,0E0,0E0,0E0,0E0,0E0,0E0,0E0,0E0],"parents":[2147483647,0,0,1,1,2,2,3,3,4,4,5,5,6,6,7,7,8,8,9,9,10,10,11,11,12,12,13,13,14,14,15,15,16,16,17,17,18,18,19,19,20,20,21,21,22,22,23,23,24,24,25,25,26,26,27,27,28,28,29,29,30,30,31,31,32,32,33,33,34,34,35,35,36,36,37,37,38,38,39,39,40,40,41,41,42,42,43,43,44,44,45,45,46,46,47,47,48,48,49,49,50,50,51,51,52,52,53,53,54,54,55,55,56,56,57,57,58,58,61,61,62,62],"right_children":[2,4,6,8,10,12,14,16,18,20,22,24,26,28,30,32,34,36,38,40,42,44,46,48,50,52,54,56,58,60,62,64,66,68,70,72,74,76,78,80,82,84,86,88,90,92,94,96,98,100,102,104,106,108,110,112,114,116,118,-1,-1,120,122,-1,-1,-1,-1,-1,-1,-1,-1,-1,-1,-1,-1,-1,-1,-1,-1,-1,-1,-1,-1,-1,-1,-1,-1,-1,-1,-1,-1,-1,-1,-1,-1,-1,-1,-1,-1,-1,-1,-1,-1,-1,-1,-1,-1,-1,-1,-1,-1,-1,-1,-1,-1,-1,-1,-1,-1,-1,-1,-1,-1],"split_conditions":[3.6E2,1.47E2,4.93E2,2.016E3,7.01E4,1.596E4,2.2E1,2.012E3,9.5E1,2.5E2,2.015E3,3.9E2,1.3E1,4.9E3,2.5E2,1.36E5,5E0,1.333E4,3.54E4,4.4E1,1.0331E4,2.0035E5,5.58E2,1E0,3.65E3,4E0,4.41E2,9E0,1.4E1,1.69E1,1.4761E4,7.5E1,2.008E3,5.3E1,2.53E2,5E0,5E0,4.4E1,9.48E4,2.021E3,2.022E3,5.56E2,2.004E3,1.49E1,2.009E3,2.9E2,5.59E2,1.06E1,2E0,3.14E2,2.59E2,1.02E1,2.017E3,2.015E3,3.5E2,2.023E3,2.022E3,1.3E1,3E0,1.627159E5,3.1694562E4,1E0,2.92E2,-9.660688E2,-6.322304E2,-1.0462125E3,-8.800234E2,1.2107807E4,-4.9601926E2,-8.004573E2,1.5061781E3,4.287026E2,-2.8355145E2,-1.5682336E2,-5.901524E2,6.379251E2,9.017803E1,-1.4874768E2,-4.3996103E2,7.853028E2,1.831393E3,9.423338E1,8.081164E2,2.2802524E3,4.831257E3,6.088765E3,1.1799333E3,-3.4764447E2,1.6313812E3,-9.827956E2,-5.955527E2,2.9900558E1,1.155851E3,2.271949E3,9.9684534E2,1.3863662E3,3.8949637E2,6.906349E3,3.9636755E3,8.658452E3,1.6255766E4,3.3089966E3,7.3542705E3,1.0603612E3,4.0546501E3,-1.4818802E2,1.4936364E3,6.3614663E3,1.391681E3,1.0584788E4,5.4081455E3,2.0171717E4,1.1653687E4,1.1708698E4,2.1909617E3,4.4395757E3,1.1281181E4,-1.5174882E3,6.855932E2,2.5614193E4,1.2255768E4,1.9975055E3,1.2414174E4],"split_indices":[4,4,4,3,10,10,0,3,4,4,3,4,0,10,10,10,0,10,10,7,10,10,1,0,10,0,4,12,0,8,10,4,3,4,9,0,0,7,10,3,3,1,3,8,3,4,1,8,0,9,9,8,3,3,9,3,3,0,12,0,0,6,9,0,0,0,0,0,0,0,0,0,0,0,0,0,0,0,0,0,0,0,0,0,0,0,0,0,0,0,0,0,0,0,0,0,0,0,0,0,0,0,0,0,0,0,0,0,0,0,0,0,0,0,0,0,0,0,0,0,0,0,0],"split_type":[0,0,0,0,0,0,0,0,0,0,0,0,0,0,0,0,0,0,0,0,0,0,0,0,0,0,0,0,0,0,0,0,0,0,0,0,0,0,0,0,0,0,0,0,0,0,0,0,0,0,0,0,0,0,0,0,0,0,0,0,0,0,0,0,0,0,0,0,0,0,0,0,0,0,0,0,0,0,0,0,0,0,0,0,0,0,0,0,0,0,0,0,0,0,0,0,0,0,0,0,0,0,0,0,0,0,0,0,0,0,0,0,0,0,0,0,0,0,0,0,0,0,0],"sum_hessian":[7.574E4,7.3349E4,2.391E3,5.3731E4,1.9618E4,2.082E3,3.09E2,1.8245E4,3.5486E4,9.918E3,9.7E3,8.2E2,1.262E3,2.33E2,7.6E1,8.781E3,9.464E3,1.5255E4,2.0231E4,7.383E3,2.535E3,4.501E3,5.199E3,2.29E2,5.91E2,9.25E2,3.37E2,1.13E2,1.2E2,5E0,7.1E1,2.767E3,6.014E3,4.323E3,5.141E3,4.207E3,1.1048E4,7.643E3,1.2588E4,2.979E3,4.404E3,7.8E2,1.755E3,3.025E3,1.476E3,4.781E3,4.18E2,4.8E1,1.81E2,2.9E2,3.01E2,5.53E2,3.72E2,2.22E2,1.15E2,8.3E1,3E1,1.03E2,1.7E1,2E0,3E0,4.6E1,2.5E1,1.101E3,1.666E3,2.81E3,3.204E3,1E0,4.322E3,5.118E3,2.3E1,3.12E2,3.895E3,1.033E3,1.0015E4,2.258E3,5.385E3,8.721E3,3.867E3,1.79E3,1.189E3,2.737E3,1.667E3,6.67E2,1.13E2,2.9E1,1.726E3,2.987E3,3.8E1,6.3E2,8.46E2,4.413E3,3.68E2,6.9E1,3.49E2,4.3E1,5E0,3.4E1,1.47E2,2.42E2,4.8E1,6.8E1,2.33E2,1.83E2,3.7E2,1.11E2,2.61E2,7E1,1.52E2,8.8E1,2.7E1,5.3E1,3E1,1.4E1,1.6E1,5E1,5.3E1,4E0,1.3E1,3.8E1,8E0,1E0,2.4E1],"tree_param":{"num_deleted":"0","num_feature":"13","num_nodes":"123","size_leaf_vector":"1"}},{"base_weights":[5.1674484E1,-1.0858752E3,8.128529E4,-2.4379338E3,1.6439785E4,3.8795203E4,1.324784E5,5.2132556E2,-5.227835E3,3.435839E4,1.0778628E4,1.2864257E5,3.1262977E4,1.8904877E5,9.720047E4,-1.7402332E3,5.165045E3,-3.2870505E3,-7.065441E3,2.5877252E4,6.5818086E4,1.40735205E4,3.298901E3,2.8142306E5,8.13155E4,1.4593974E4,4.2417246E4,1.3712347E5,3.630102E5,1.17525305E5,7.521262E4,-3.455328E2,-5.4704736E3,2.9765535E3,1.1261876E4,9.7594055E2,-4.043729E3,-6.0637363E3,-8.237707E3,2.203155E4,4.083574E4,9.55428E4,2.7934006E4,1.0404739E4,2.2548594E4,1.3444017E3,1.0807465E4,3.874224E5,1.461864E5,5.221355E4,9.247833E4,-2.5450867E4,1.7524367E4,5.4951684E4,1.8984113E4,1.4566498E5,4.9235027E4,9.05606E5,2.7987534E5,7.7816125E4,1.2797096E5,5.6506723E4,9.31337E4,-2.4375447E2,1.5104784E2,-8.620273E2,-4.5970074E2,2.5375493E2,1.3321378E3,9.368007E2,1.9040565E3,-1.5811737E2,7.27611E2,-6.5822655E1,-4.5111578E2,-8.474178E2,-5.3657654E2,-9.7424426E2,-7.816465E2,2.9406072E3,1.3730631E3,8.0412007E3,3.4416907E3,5.066943E3,1.14538125E4,5.689859E2,5.36515E3,2.117363E3,6.858865E2,3.4046833E3,1.6616787E3,9.9483604E1,6.9939985E3,8.7875696E2,1.9419352E3,9.695117E3,4.3580242E4,2.2548484E3,1.664043E4,1.1149609E3,5.4933037E3,1.0377227E4,6.212485E3,-4.4694414E3,-1.4390085E3,9.508413E2,2.8039604E3,2.987082E3,1.1140712E4,2.5096743E3,-4.4745563E2,-3.6345981E3,1.488425E4,5.6989463E3,1.5601575E3,1.7991362E5,2.3243936E4,2.9095623E4,1.1571913E4,8.188426E3,8.4839484E2,1.6718225E4,1.0871745E4,6.9080913E3,3.2811105E2,9.786265E3,6.863957E3],"categories":[],"categories_nodes":[],"categories_segments":[],"categories_sizes":[],"default_left":[0,0,0,0,0,0,0,0,0,0,0,0,0,0,0,0,0,0,0,0,0,0,0,0,0,0,0,0,0,0,0,0,0,0,0,0,0,0,0,0,0,0,0,0,0,0,0,0,0,0,0,0,0,0,0,0,0,0,0,0,0,0,0,0,0,0,0,0,0,0,0,0,0,0,0,0,0,0,0,0,0,0,0,0,0,0,0,0,0,0,0,0,0,0,0,0,0,0,0,0,0,0,0,0,0,0,0,0,0,0,0,0,0,0,0,0,0,0,0,0,0,0,0,0,0,0,0],"id":10,"left_children":[1,3,5,7,9,11,13,15,17,19,21,23,25,27,29,31,33,35,37,39,41,43,45,47,49,51,53,55,57,59,61,63,65,67,69,71,73,75,77,79,81,83,85,87,89,91,93,95,97,99,101,103,105,107,109,111,113,115,117,119,121,123,125,-1,-1,-1,-1,-1,-1,-1,-1,-1,-1,-1,-1,-1,-1,-1,-1,-1,-1,-1,-1,-1,-1,-1,-1,-1,-1,-1,-1,-1,-1,-1,-1,-1,-1,-1,-1,-1,-1,-1,-1,-1,-1,-1,-1,-1,-1,-1,-1,-1,-1,-1,-1,-1,-1,-1,-1,-1,-1,-1,-1,-1,-1,-1,-1],"loss_changes":[6.9991074E12,1.7700154E12,2.2701193E12,5.7253436E11,5.42334E11,3.8375647E11,9.2757977E11,3.5343424E11,1.27279235E11,3.4088603E11,1.00184424E11,2.952646E11,9.792415E10,1.5851958E12,1.22549174E11,1.1774262E11,1.4703152E11,5.6008786E10,2.147903E10,5.7374015E10,3.0362855E11,8.754148E10,1.8256445E10,8.671409E10,6.541492E9,2.5558299E10,9.206635E10,9.867677E10,1.5959961E12,5.2674822E10,4.3010425E10,6.396889E10,1.690529E10,3.6806197E10,4.2705945E10,4.2188145E10,2.3330701E10,1.659365E10,5.276762E9,4.9058185E10,4.9563337E10,1.2375884E11,6.891445E10,7.515583E10,5.7545196E10,2.3645323E10,4.299895E9,2.8013429E10,1.1246035E10,7.2758886E8,1.7806131E9,2.5495757E9,1.6591315E10,2.8835807E11,1.6172438E10,7.943776E10,2.762195E9,2.5892836E12,3.36336E10,8.895087E9,7.0909034E10,4.862999E10,1.6226058E9,0E0,0E0,0E0,0E0,0E0,0E0,0E0,0E0,0E0,0E0,0E0,0E0,0E0,0E0,0E0,0E0,0E0,0E0,0E0,0E0,0E0,0E0,0E0,0E0,0E0,0E0,0E0,0E0,0E0,0E0,0E0,0E0,0E0,0E0,0E0,0E0,0E0,0E0,0E0,0E0,0E0,0E0,0E0,0E0,0E0,0E0,0E0,0E0,0E0,0E0,0E0,0E0,0E0,0E0,0E0,0E0,0E0,0E0,0E0,0E0,0E0,0E0,0E0,0E0],"parents":[2147483647,0,0,1,1,2,2,3,3,4,4,5,5,6,6,7,7,8,8,9,9,10,10,11,11,12,12,13,13,14,14,15,15,16,16,17,17,18,18,19,19,20,20,21,21,22,22,23,23,24,24,25,25,26,26,27,27,28,28,29,29,30,30,31,31,32,32,33,33,34,34,35,35,36,36,37,37,38,38,39,39,40,40,41,41,42,42,43,43,44,44,45,45,46,46,47,47,48,48,49,49,50,50,51,51,52,52,53,53,54,54,55,55,56,56,57,57,58,58,59,59,60,60,61,61,62,62],"right_children":[2,4,6,8,10,12,14,16,18,20,22,24,26,28,30,32,34,36,38,40,42,44,46,48,50,52,54,56,58,60,62,64,66,68,70,72,74,76,78,80,82,84,86,88,90,92,94,96,98,100,102,104,106,108,110,112,114,116,118,120,122,124,126,-1,-1,-1,-1,-1,-1,-1,-1,-1,-1,-1,-1,-1,-1,-1,-1,-1,-1,-1,-1,-1,-1,-1,-1,-1,-1,-1,-1,-1,-1,-1,-1,-1,-1,-1,-1,-1,-1,-1,-1,-1,-1,-1,-1,-1,-1,-1,-1,-1,-1,-1,-1,-1,-1,-1,-1,-1,-1,-1,-1,-1,-1,-1,-1],"split_conditions":[4.41E2,2.5E2,1.3E1,1E0,1.12E4,2E0,4.333E3,2.02E3,7.35E4,3.9E2,9E4,1E3,2.019E3,3.5E2,2.12E4,1.44038E5,1.62E2,4.5E1,1.36E5,2.3E1,4E0,3.35E2,2.018E3,2.023E3,2.7E2,2.013E3,4E0,2.5E1,9E1,1.15E1,2.2E1,1.4E2,2.009E3,2.4E1,2.4E1,5.9E0,2.38E2,7.3E1,7.7E1,6E0,4.3E1,8.5E1,2.3E1,4.7E1,4E0,1.4E1,2.3E1,2.6E1,2E0,1.39E3,1.34E1,2.7E4,2.77E2,3E0,1.41E1,2.013E3,1E1,2.019E3,1E0,1E0,1.4E1,1.4E1,5.5752E4,-2.4375447E2,1.5104784E2,-8.620273E2,-4.5970074E2,2.5375493E2,1.3321378E3,9.368007E2,1.9040565E3,-1.5811737E2,7.27611E2,-6.5822655E1,-4.5111578E2,-8.474178E2,-5.3657654E2,-9.7424426E2,-7.816465E2,2.9406072E3,1.3730631E3,8.0412007E3,3.4416907E3,5.066943E3,1.14538125E4,5.689859E2,5.36515E3,2.117363E3,6.858865E2,3.4046833E3,1.6616787E3,9.9483604E1,6.9939985E3,8.7875696E2,1.9419352E3,9.695117E3,4.3580242E4,2.2548484E3,1.664043E4,1.1149609E3,5.4933037E3,1.0377227E4,6.212485E3,-4.4694414E3,-1.4390085E3,9.508413E2,2.8039604E3,2.987082E3,1.1140712E4,2.5096743E3,-4.4745563E2,-3.6345981E3,1.488425E4,5.6989463E3,1.5601575E3,1.7991362E5,2.3243936E4,2.9095623E4,1.1571913E4,8.188426E3,8.4839484E2,1.6718225E4,1.0871745E4,6.9080913E3,3.2811105E2,9.786265E3,6.863957E3],"split_indices":[4,4,0,6,10,0,10,3,10,4,10,10,3,9,10,10,9,7,10,0,0,4,3,3,9,3,0,0,10,8,0,4,3,0,0,8,1,4,4,0,7,1,0,7,0,2,0,1,2,10,8,10,9,0,8,3,12,3,6,6,0,0,10,0,0,0,0,0,0,0,0,0,0,0,0,0,0,0,0,0,0,0,0,0,0,0,0,0,0,0,0,0,0,0,0,0,0,0,0,0,0,0,0,0,0,0,0,0,0,0,0,0,0,0,0,0,0,0,0,0,0,0,0,0,0,0,0],"split_type":[0,0,0,0,0,0,0,0,0,0,0,0,0,0,0,0,0,0,0,0,0,0,0,0,0,0,0,0,0,0,0,0,0,0,0,0,0,0,0,0,0,0,0,0,0,0,0,0,0,0,0,0,0,0,0,0,0,0,0,0,0,0,0,0,0,0,0,0,0,0,0,0,0,0,0,0,0,0,0,0,0,0,0,0,0,0,0,0,0,0,0,0,0,0,0,0,0,0,0,0,0,0,0,0,0,0,0,0,0,0,0,0,0,0,0,0,0,0,0,0,0,0,0,0,0,0,0],"sum_hessian":[7.574E4,7.4695E4,1.045E3,6.9346E4,5.349E3,5.72E2,4.73E2,3.3652E4,3.5694E4,1.283E3,4.066E3,4.3E1,5.29E2,1.8E2,2.93E2,2.2631E4,1.1021E4,1.7361E4,1.8333E4,1.012E3,2.71E2,2.822E3,1.244E3,9E0,3.4E1,2.13E2,3.16E2,1.4E2,4E1,1.5E2,1.43E2,1.6473E4,6.158E3,8.111E3,2.91E3,2.617E3,1.4744E4,9.889E3,8.444E3,8.07E2,2.05E2,1.51E2,1.2E2,1.971E3,8.51E2,9.88E2,2.56E2,4E0,5E0,1.1E1,2.3E1,1.4E1,1.99E2,2.05E2,1.11E2,1.27E2,1.3E1,4E0,3.6E1,3.3E1,1.17E2,7.2E1,7.1E1,7.744E3,8.729E3,1.335E3,4.823E3,7.782E3,3.29E2,2.342E3,5.68E2,1.862E3,7.55E2,1.789E3,1.2955E4,2.218E3,7.671E3,1.842E3,6.602E3,4.26E2,3.81E2,2.7E1,1.78E2,4.6E1,1.05E2,6.5E1,5.5E1,4.87E2,1.484E3,2.88E2,5.63E2,9.84E2,4E0,2.09E2,4.7E1,1E0,3E0,1E0,4E0,1E0,1E1,1.5E1,8E0,4E0,1E1,1.14E2,8.5E1,1.43E2,6.2E1,8.8E1,2.3E1,2E0,1.25E2,1E1,3E0,1E0,3E0,3.3E1,3E0,3.1E1,2E0,3.6E1,8.1E1,5.8E1,1.4E1,5.7E1,1.4E1],"tree_param":{"num_deleted":"0","num_feature":"13","num_nodes":"127","size_leaf_vector":"1"}},{"base_weights":[5.295282E1,-9.765386E2,7.357001E4,-2.1941414E3,1.4806281E4,3.5106613E4,1.1991168E5,-4.347432E3,9.878281E2,3.0952344E4,9.705138E3,1.1794578E5,2.8163162E4,1.7159325E5,8.768625E4,-2.348198E3,-5.8106763E3,-1.6605115E3,4.6864395E3,2.3305121E4,5.9318832E4,1.3883071E4,4.8182837E3,2.604978E5,7.384675E4,1.3124514E4,3.8226594E4,1.2354238E5,3.3265612E5,9.927605E4,5.6511695E4,-1.2760344E3,-5.702143E3,-4.7870815E3,-7.27018E3,2.9041829E3,-2.283418E3,2.6786165E3,8.984879E3,1.9833734E4,3.680791E4,8.60972E4,2.5189648E4,1.1190457E4,2.6816508E4,2.2326091E3,1.0798852E4,3.5933522E5,1.3471698E5,4.7542887E4,8.3921734E4,-1.290167E4,1.6951297E4,4.9525094E4,1.7104115E4,1.3118638E5,4.4830027E4,8.5567694E5,2.5298695E5,5.3690008E4,1.0270593E5,3.9555047E4,7.6065586E3,-2.9093207E2,1.3200774E1,-7.961373E2,-4.867145E2,-7.164603E2,-4.0180252E2,-8.969479E2,-6.91276E2,3.7832226E1,5.4477716E2,-3.5700302E2,-8.2433136E1,1.8067526E2,8.2987775E2,1.3431073E3,6.158817E2,2.450623E3,8.739084E2,7.2657983E3,3.0994446E3,4.57103E3,1.0319237E4,5.129496E2,4.838216E3,8.9436847E2,1.9020901E3,3.3726658E3,1.3270433E3,1.9257057E2,5.197882E3,1.8380065E3,5.7796356E2,9.210361E3,4.0311723E4,2.1421062E3,1.5309195E4,1.0592125E3,4.9939126E3,9.404362E3,5.660264E3,-3.529989E3,-5.1885236E2,9.186466E2,2.7450227E3,2.690448E3,1.0044324E4,2.261527E3,-4.045747E2,-3.392291E3,1.3407638E4,5.1808594E3,1.4431458E3,1.7091795E5,2.1500639E4,4.643385E4,2.342178E4,2.8262507E3,7.3151953E3,8.849089E3,1.2077508E4,5.160715E3,1.1068314E2],"categories":[],"categories_nodes":[],"categories_segments":[],"categories_sizes":[],"default_left":[0,0,0,0,0,0,0,0,0,0,0,0,0,0,0,0,0,0,0,0,0,0,0,0,0,0,0,0,0,0,0,0,0,0,0,0,0,0,0,0,0,0,0,0,0,0,0,0,0,0,0,0,0,0,0,0,0,0,0,0,0,0,0,0,0,0,0,0,0,0,0,0,0,0,0,0,0,0,0,0,0,0,0,0,0,0,0,0,0,0,0,0,0,0,0,0,0,0,0,0,0,0,0,0,0,0,0,0,0,0,0,0,0,0,0,0,0,0,0,0,0,0,0,0,0],"id":11,"left_children":[1,3,5,7,9,11,13,15,17,19,21,23,25,27,29,31,33,35,37,39,41,43,45,47,49,51,53,55,57,59,61,63,65,67,69,71,73,75,77,79,81,83,85,87,89,91,93,95,97,99,101,103,105,107,109,111,113,115,117,119,121,123,-1,-1,-1,-1,-1,-1,-1,-1,-1,-1,-1,-1,-1,-1,-1,-1,-1,-1,-1,-1,-1,-1,-1,-1,-1,-1,-1,-1,-1,-1,-1,-1,-1,-1,-1,-1,-1,-1,-1,-1,-1,-1,-1,-1,-1,-1,-1,-1,-1,-1,-1,-1,-1,-1,-1,-1,-1,-1,-1,-1,-1,-1,-1],"loss_changes":[5.732543E12,1.435481E12,1.8602409E12,4.7514953E11,4.4034372E11,3.2626206E11,7.743823E11,1.209767E11,2.7416502E11,2.7714912E11,8.296887E10,2.5736498E11,7.970872E10,1.3596995E12,1.0061375E11,6.2850425E10,3.5640443E10,4.6384955E10,1.0077156E11,4.675266E10,2.4641857E11,7.603575E10,2.8985979E10,7.5909956E10,5.285495E9,2.1532369E10,7.480564E10,7.895528E10,1.4919396E12,2.7789361E10,2.4179835E10,3.0464979E10,7.9484846E9,2.5640796E10,5.9157053E9,1.2584025E10,2.6941637E10,3.899893E10,4.6634795E10,4.167231E10,4.068111E10,1.0022709E11,5.604651E10,3.1779193E10,3.484164E10,1.9915321E10,2.143105E10,2.1371093E10,9.211462E9,5.3355315E8,1.3133906E9,4.654147E9,1.4992527E10,2.3456835E11,1.3146233E10,6.5625653E10,2.2222643E9,2.3665852E12,3.8018744E10,6.34531E9,3.9912735E10,2.1258445E10,0E0,0E0,0E0,0E0,0E0,0E0,0E0,0E0,0E0,0E0,0E0,0E0,0E0,0E0,0E0,0E0,0E0,0E0,0E0,0E0,0E0,0E0,0E0,0E0,0E0,0E0,0E0,0E0,0E0,0E0,0E0,0E0,0E0,0E0,0E0,0E0,0E0,0E0,0E0,0E0,0E0,0E0,0E0,0E0,0E0,0E0,0E0,0E0,0E0,0E0,0E0,0E0,0E0,0E0,0E0,0E0,0E0,0E0,0E0,0E0,0E0,0E0,0E0],"parents":[2147483647,0,0,1,1,2,2,3,3,4,4,5,5,6,6,7,7,8,8,9,9,10,10,11,11,12,12,13,13,14,14,15,15,16,16,17,17,18,18,19,19,20,20,21,21,22,22,23,23,24,24,25,25,26,26,27,27,28,28,29,29,30,30,31,31,32,32,33,33,34,34,35,35,36,36,37,37,38,38,39,39,40,40,41,41,42,42,43,43,44,44,45,45,46,46,47,47,48,48,49,49,50,50,51,51,52,52,53,53,54,54,55,55,56,56,57,57,58,58,59,59,60,60,61,61],"right_children":[2,4,6,8,10,12,14,16,18,20,22,24,26,28,30,32,34,36,38,40,42,44,46,48,50,52,54,56,58,60,62,64,66,68,70,72,74,76,78,80,82,84,86,88,90,92,94,96,98,100,102,104,106,108,110,112,114,116,118,120,122,124,-1,-1,-1,-1,-1,-1,-1,-1,-1,-1,-1,-1,-1,-1,-1,-1,-1,-1,-1,-1,-1,-1,-1,-1,-1,-1,-1,-1,-1,-1,-1,-1,-1,-1,-1,-1,-1,-1,-1,-1,-1,-1,-1,-1,-1,-1,-1,-1,-1,-1,-1,-1,-1,-1,-1,-1,-1,-1,-1,-1,-1,-1,-1],"split_conditions":[4.41E2,2.5E2,1.3E1,2.019E3,1.12E4,2E0,4.333E3,1E0,1.2E2,3.9E2,6.635E4,1E3,2.019E3,3.5E2,3.42E4,1.7E5,1.23E5,3E0,2.022E3,2.3E1,4E0,3E2,2.018E3,2.023E3,2.7E2,2.015E3,4E0,2.5E1,9E1,2.014E3,2.2E1,1.4E2,2.009E3,7E1,7.4E1,2.022E3,3.86E2,2.3E1,4.4E1,3.81E2,4.3E1,8.5E1,2.3E1,3.6E2,1.4E1,1.4E1,4.7E1,2.6E1,2E0,1.39E3,1.34E1,2.011E3,2.77E2,3E0,1.41E1,2.013E3,1E1,2.019E3,4.7E1,2.57E4,1.28E1,1.4E1,7.6065586E3,-2.9093207E2,1.3200774E1,-7.961373E2,-4.867145E2,-7.164603E2,-4.0180252E2,-8.969479E2,-6.91276E2,3.7832226E1,5.4477716E2,-3.5700302E2,-8.2433136E1,1.8067526E2,8.2987775E2,1.3431073E3,6.158817E2,2.450623E3,8.739084E2,7.2657983E3,3.0994446E3,4.57103E3,1.0319237E4,5.129496E2,4.838216E3,8.9436847E2,1.9020901E3,3.3726658E3,1.3270433E3,1.9257057E2,5.197882E3,1.8380065E3,5.7796356E2,9.210361E3,4.0311723E4,2.1421062E3,1.5309195E4,1.0592125E3,4.9939126E3,9.404362E3,5.660264E3,-3.529989E3,-5.1885236E2,9.186466E2,2.7450227E3,2.690448E3,1.0044324E4,2.261527E3,-4.045747E2,-3.392291E3,1.3407638E4,5.1808594E3,1.4431458E3,1.7091795E5,2.1500639E4,4.643385E4,2.342178E4,2.8262507E3,7.3151953E3,8.849089E3,1.2077508E4,5.160715E3,1.1068314E2],"split_indices":[4,4,0,3,10,0,10,6,4,4,10,10,3,9,10,10,10,0,3,0,0,9,3,3,9,3,0,0,10,3,0,4,3,4,4,3,1,0,7,1,7,1,0,4,0,2,7,1,2,10,8,3,9,0,8,3,12,3,7,10,8,0,0,0,0,0,0,0,0,0,0,0,0,0,0,0,0,0,0,0,0,0,0,0,0,0,0,0,0,0,0,0,0,0,0,0,0,0,0,0,0,0,0,0,0,0,0,0,0,0,0,0,0,0,0,0,0,0,0,0,0,0,0,0,0],"split_type":[0,0,0,0,0,0,0,0,0,0,0,0,0,0,0,0,0,0,0,0,0,0,0,0,0,0,0,0,0,0,0,0,0,0,0,0,0,0,0,0,0,0,0,0,0,0,0,0,0,0,0,0,0,0,0,0,0,0,0,0,0,0,0,0,0,0,0,0,0,0,0,0,0,0,0,0,0,0,0,0,0,0,0,0,0,0,0,0,0,0,0,0,0,0,0,0,0,0,0,0,0,0,0,0,0,0,0,0,0,0,0,0,0,0,0,0,0,0,0,0,0,0,0,0,0],"sum_hessian":[7.574E4,7.4695E4,1.045E3,6.9346E4,5.349E3,5.72E2,4.73E2,4.1358E4,2.7988E4,1.283E3,4.066E3,4.3E1,5.29E2,1.8E2,2.93E2,1.7479E4,2.3879E4,1.631E4,1.1678E4,1.012E3,2.71E2,2.191E3,1.875E3,9E0,3.4E1,2.13E2,3.16E2,1.4E2,4E1,2.12E2,8.1E1,1.3246E4,4.233E3,1.4038E4,9.841E3,1.958E3,1.4352E4,7.961E3,3.717E3,8.07E2,2.05E2,1.51E2,1.2E2,1.815E3,3.76E2,1.31E3,5.65E2,4E0,5E0,1.1E1,2.3E1,2.7E1,1.86E2,2.05E2,1.11E2,1.27E2,1.3E1,4E0,3.6E1,1.6E1,1.96E2,4.5E1,3.6E1,6.132E3,7.114E3,1.14E3,3.093E3,3.429E3,1.0609E4,1.706E3,8.135E3,9.83E2,9.75E2,7.626E3,6.726E3,6.893E3,1.068E3,1.443E3,2.274E3,5.67E2,2.4E2,2.7E1,1.78E2,4.6E1,1.05E2,6.5E1,5.5E1,1.412E3,4.03E2,2.48E2,1.28E2,1.303E3,7E0,2.24E2,3.41E2,1E0,3E0,1E0,4E0,1E0,1E1,1.5E1,8E0,6E0,2.1E1,1.08E2,7.8E1,1.43E2,6.2E1,8.8E1,2.3E1,2E0,1.25E2,1E1,3E0,1E0,3E0,1E0,3.5E1,8E0,8E0,1.13E2,8.3E1,3.4E1,1.1E1],"tree_param":{"num_deleted":"0","num_feature":"13","num_nodes":"125","size_leaf_vector":"1"}},{"base_weights":[5.390574E1,-1.3699016E3,4.371453E4,-2.7107393E3,4.556914E3,3.376337E4,1.1043889E5,-4.0241511E3,7.2843134E2,2.2805303E3,1.3142315E4,4.4548875E4,1.4046503E4,7.9111336E4,2.0420784E5,-5.5548022E3,-2.6518474E3,-1.5967726E3,3.1380308E3,-3.364039E2,5.4527397E3,2.2508316E4,1.0274314E4,3.4601637E4,6.168963E4,1.6772746E4,-3.5146494E3,1.0147569E5,3.7966934E4,8.6006275E5,1.4671705E5,-6.9087173E3,-4.9041807E3,-4.6713068E2,-3.5726155E3,-1.9643654E3,3.5425557E3,2.6571543E3,1.152438E4,-9.581383E2,1.896638E4,3.9596477E3,1.385901E4,1.9603137E4,6.5065883E4,7.130118E3,1.877723E4,5.2199047E4,1.9837703E4,3.6638934E4,8.9713734E4,8.575397E3,2.1916035E4,5.947813E2,-1.4647361E4,3.8350902E4,9.703874E4,4.6766086E4,-2.3523474E3,3.825871E4,1.6237205E5,1.0897868E5,2.021281E5,-6.1802313E2,-7.5599054E2,-3.902317E2,-6.523646E2,5.6869606E1,-1.8890958E2,-5.0346286E2,-2.0916484E2,2.1277864E2,-2.4198003E2,7.015741E2,-1.5761261E2,4.9431345E2,1.1987272E2,9.2075635E2,1.8648606E3,2.9373145E3,-1.0704858E2,9.4496643E2,4.3412593E3,5.3440464E3,3.7652542E2,1.2610946E3,3.6860352E3,2.473684E3,1.3506758E3,7.4560464E3,3.5116067E3,2.9659946E2,8.309295E2,2.0164022E3,-1.7523738E2,2.8828909E3,8.408596E3,2.7533356E2,3.127865E3,2.5408787E3,6.5366187E3,7.4918804E3,1.1909649E4,4.1770522E3,7.860025E2,9.859667E3,2.1269988E3,-4.0112774E1,3.6648071E3,2.3076395E2,-2.1907764E3,1.5769391E4,7.790108E3,-5.305088E2,5.568163E3,-2.0561697E3,5.4309106E2,6.342256E3,1.2362265E4,2.1695479E4,5.8929233E3],"categories":[],"categories_nodes":[],"categories_segments":[],"categories_sizes":[],"default_left":[0,0,0,0,0,0,0,0,0,0,0,0,0,0,0,0,0,0,0,0,0,0,0,0,0,0,0,0,0,0,0,0,0,0,0,0,0,0,0,0,0,0,0,0,0,0,0,0,0,0,0,0,0,0,0,0,0,0,0,0,0,0,0,0,0,0,0,0,0,0,0,0,0,0,0,0,0,0,0,0,0,0,0,0,0,0,0,0,0,0,0,0,0,0,0,0,0,0,0,0,0,0,0,0,0,0,0,0,0,0,0,0,0,0,0,0,0,0,0,0,0],"id":12,"left_children":[1,3,5,7,9,11,13,15,17,19,21,23,25,27,29,31,33,35,37,39,41,43,45,47,49,51,53,55,57,59,61,63,65,67,69,71,73,75,77,79,81,83,85,87,89,91,93,95,97,99,101,103,105,107,109,-1,111,113,115,-1,-1,117,119,-1,-1,-1,-1,-1,-1,-1,-1,-1,-1,-1,-1,-1,-1,-1,-1,-1,-1,-1,-1,-1,-1,-1,-1,-1,-1,-1,-1,-1,-1,-1,-1,-1,-1,-1,-1,-1,-1,-1,-1,-1,-1,-1,-1,-1,-1,-1,-1,-1,-1,-1,-1,-1,-1,-1,-1,-1,-1],"loss_changes":[4.708448E12,5.8291736E11,1.5845221E12,2.7020368E11,2.644545E11,4.4233733E11,8.944859E11,9.0910425E10,9.263066E10,8.88109E10,7.594846E10,2.2736273E11,3.539139E10,2.1146658E11,2.7771465E12,1.7990812E10,4.5915505E10,1.5902517E10,3.2711664E10,7.038124E10,6.0643394E10,8.081972E10,5.7960923E10,2.2083967E11,3.4281043E11,2.6753155E10,4.5836227E9,1.5174127E11,2.9911155E10,1.5665537E12,1.28533135E11,3.1027036E9,2.2403744E10,9.971197E9,3.475815E10,1.4640855E10,1.0002365E10,2.5598702E10,7.090725E9,1.9390257E10,4.2164294E10,3.931261E10,2.0462666E10,1.916389E10,9.324888E9,7.772807E9,1.6718889E10,2.874593E11,9.099883E10,8.286326E10,9.193154E10,5.560912E9,1.732223E10,2.6717297E9,3.3742597E9,0E0,1.6183525E11,3.2328139E10,2.379318E9,0E0,0E0,2.2180037E10,4.666373E10,0E0,0E0,0E0,0E0,0E0,0E0,0E0,0E0,0E0,0E0,0E0,0E0,0E0,0E0,0E0,0E0,0E0,0E0,0E0,0E0,0E0,0E0,0E0,0E0,0E0,0E0,0E0,0E0,0E0,0E0,0E0,0E0,0E0,0E0,0E0,0E0,0E0,0E0,0E0,0E0,0E0,0E0,0E0,0E0,0E0,0E0,0E0,0E0,0E0,0E0,0E0,0E0,0E0,0E0,0E0,0E0,0E0,0E0],"parents":[2147483647,0,0,1,1,2,2,3,3,4,4,5,5,6,6,7,7,8,8,9,9,10,10,11,11,12,12,13,13,14,14,15,15,16,16,17,17,18,18,19,19,20,20,21,21,22,22,23,23,24,24,25,25,26,26,27,27,28,28,29,29,30,30,31,31,32,32,33,33,34,34,35,35,36,36,37,37,38,38,39,39,40,40,41,41,42,42,43,43,44,44,45,45,46,46,47,47,48,48,49,49,50,50,51,51,52,52,53,53,54,54,56,56,57,57,58,58,61,61,62,62],"right_children":[2,4,6,8,10,12,14,16,18,20,22,24,26,28,30,32,34,36,38,40,42,44,46,48,50,52,54,56,58,60,62,64,66,68,70,72,74,76,78,80,82,84,86,88,90,92,94,96,98,100,102,104,106,108,110,-1,112,114,116,-1,-1,118,120,-1,-1,-1,-1,-1,-1,-1,-1,-1,-1,-1,-1,-1,-1,-1,-1,-1,-1,-1,-1,-1,-1,-1,-1,-1,-1,-1,-1,-1,-1,-1,-1,-1,-1,-1,-1,-1,-1,-1,-1,-1,-1,-1,-1,-1,-1,-1,-1,-1,-1,-1,-1,-1,-1,-1,-1,-1,-1],"split_conditions":[3.6E2,1.77E2,4.93E2,2.02E3,2.021E3,4.4E4,2.2E1,2.016E3,1.05E2,2.018E3,4.4E1,4.41E2,1.3867E5,1.4E4,2.5E2,8.8E1,5E0,1.57E2,2.3E1,1.41E1,5.58E2,2.55E2,2.8E2,4E0,7E0,2.46E2,1.34E1,2.012E3,1.4E1,7E0,2.02E3,1.205E5,1.74211E5,8.7E4,3.97E2,5E0,4.4E1,4.4E1,2.023E3,8E3,1E0,1E3,3.2E2,1.12E4,5.59E2,5.4E1,1E0,3E0,1.3E1,1.34E1,1.28E1,2.9E1,2.002E3,3E2,3.9E2,3.8350902E4,1.19E1,1.09E1,3E0,3.825871E4,1.6237205E5,2.016E3,1E0,-6.1802313E2,-7.5599054E2,-3.902317E2,-6.523646E2,5.6869606E1,-1.8890958E2,-5.0346286E2,-2.0916484E2,2.1277864E2,-2.4198003E2,7.015741E2,-1.5761261E2,4.9431345E2,1.1987272E2,9.2075635E2,1.8648606E3,2.9373145E3,-1.0704858E2,9.4496643E2,4.3412593E3,5.3440464E3,3.7652542E2,1.2610946E3,3.6860352E3,2.473684E3,1.3506758E3,7.4560464E3,3.5116067E3,2.9659946E2,8.309295E2,2.0164022E3,-1.7523738E2,2.8828909E3,8.408596E3,2.7533356E2,3.127865E3,2.5408787E3,6.5366187E3,7.4918804E3,1.1909649E4,4.1770522E3,7.860025E2,9.859667E3,2.1269988E3,-4.0112774E1,3.6648071E3,2.3076395E2,-2.1907764E3,1.5769391E4,7.790108E3,-5.305088E2,5.568163E3,-2.0561697E3,5.4309106E2,6.342256E3,1.2362265E4,2.1695479E4,5.8929233E3],"split_indices":[4,4,4,3,3,10,0,3,4,3,7,4,10,10,10,4,0,9,0,8,1,4,4,0,0,9,8,3,0,2,3,10,10,10,1,0,7,7,3,10,6,10,4,10,1,9,6,0,0,8,8,9,3,9,4,0,8,8,12,0,0,3,6,0,0,0,0,0,0,0,0,0,0,0,0,0,0,0,0,0,0,0,0,0,0,0,0,0,0,0,0,0,0,0,0,0,0,0,0,0,0,0,0,0,0,0,0,0,0,0,0,0,0,0,0,0,0,0,0,0,0],"split_type":[0,0,0,0,0,0,0,0,0,0,0,0,0,0,0,0,0,0,0,0,0,0,0,0,0,0,0,0,0,0,0,0,0,0,0,0,0,0,0,0,0,0,0,0,0,0,0,0,0,0,0,0,0,0,0,0,0,0,0,0,0,0,0,0,0,0,0,0,0,0,0,0,0,0,0,0,0,0,0,0,0,0,0,0,0,0,0,0,0,0,0,0,0,0,0,0,0,0,0,0,0,0,0,0,0,0,0,0,0,0,0,0,0,0,0,0,0,0,0,0,0],"sum_hessian":[7.574E4,7.3349E4,2.391E3,5.9817E4,1.3532E4,2.082E3,3.09E2,4.3286E4,1.6531E4,1.0697E4,2.835E3,1.345E3,7.37E2,2.33E2,7.6E1,2.0461E4,2.2825E4,8.413E3,8.118E3,5.862E3,4.835E3,6.63E2,2.172E3,8.53E2,4.92E2,6.38E2,9.9E1,1.5E2,8.3E1,5E0,7.1E1,6.638E3,1.3823E4,6.768E3,1.6057E4,7.852E3,5.61E2,7.679E3,4.39E2,5.68E3,1.82E2,4.107E3,7.28E2,6.22E2,4.1E1,1.587E3,5.85E2,3.88E2,4.65E2,2.61E2,2.31E2,2.47E2,3.91E2,7.3E1,2.6E1,1E0,1.49E2,6.8E1,1.5E1,4E0,1E0,4.4E1,2.7E1,3.138E3,3.5E3,8.542E3,5.281E3,3.916E3,2.852E3,8.079E3,7.978E3,7.86E2,7.066E3,3.34E2,2.27E2,2.99E3,4.689E3,3.33E2,1.06E2,2E1,5.66E3,1.32E2,5E1,1.5E1,4.092E3,6.92E2,3.6E1,3.36E2,2.86E2,3E1,1.1E1,3.51E2,1.236E3,5.48E2,3.7E1,2.25E2,1.63E2,1.87E2,2.78E2,1.89E2,7.2E1,1.56E2,7.5E1,4E0,2.43E2,2E0,3.89E2,7.2E1,1E0,8E0,1.8E1,3.4E1,1.15E2,1E1,5.8E1,4E0,1.1E1,1.2E1,3.2E1,2.4E1,3E0],"tree_param":{"num_deleted":"0","num_feature":"13","num_nodes":"121","size_leaf_vector":"1"}},{"base_weights":[5.394612E1,-7.912806E2,6.0412457E4,-1.5814808E3,1.5738467E4,2.8423412E4,9.8955305E4,7.5688916E2,-3.8973481E3,2.8249535E4,1.0763482E4,9.764406E4,2.1908678E4,1.4150683E5,6.973676E4,3.1605535E3,-2.1166062E3,-2.3023206E3,-5.149124E3,4.511694E4,1.8160307E4,8.3016266E4,1.0071763E4,2.4304295E5,6.334567E4,9.760373E3,3.0170947E4,1.0280526E5,2.7322147E5,8.51043E4,5.4311805E4,1.0108469E3,6.216805E3,-5.6952153E3,-1.4096913E3,1.6380951E3,-2.9509714E3,-4.598969E3,-6.439115E3,2.405602E4,8.957325E4,1.1117488E4,2.9932096E4,-2.5381074E4,1.145367E4,1.2622682E4,2.3726902E3,3.7035353E5,1.17662086E5,3.8339273E4,7.1236714E3,-2.9009922E4,1.2004133E4,4.015485E4,1.1984019E4,1.0913225E5,3.354787E4,7.593167E5,2.0389589E5,5.217239E4,9.437883E4,4.0044125E4,6.802332E4,2.669346E2,-4.0044956E1,9.934511E2,3.4805606E2,-6.855922E2,-4.584758E2,-2.560571E2,8.322929E1,-6.677129E1,6.851617E2,6.537302E-1,-3.3335022E2,-3.073127E2,-5.3505566E2,-5.9861444E2,-7.335312E2,1.1229647E3,4.248593E3,1.5059356E4,8.487584E3,4.879488E3,9.4445844E2,4.2612197E3,1.3974995E3,-3.3236208E3,6.947295E2,2.645296E3,1.1066034E3,-3.5040488E2,6.4320233E2,8.360338E3,4.3806914E4,1.6454954E3,1.3461253E4,8.792078E2,4.02261E3,-1.5198999E3,-5.2832017E3,1.3022635E3,-4.1922026E3,1.92666E3,8.560426E3,1.7977555E3,-1.0741348E3,-3.6655974E3,1.115636E4,4.0287927E3,6.62575E2,1.5425345E5,1.778786E4,4.2199227E4,1.8705146E4,6.329737E3,9.494658E2,1.9953264E4,8.733706E3,6.9186772E3,2.525477E3,6.8615347E3,1.2994805E3],"categories":[],"categories_nodes":[],"categories_segments":[],"categories_sizes":[],"default_left":[0,0,0,0,0,0,0,0,0,0,0,0,0,0,0,0,0,0,0,0,0,0,0,0,0,0,0,0,0,0,0,0,0,0,0,0,0,0,0,0,0,0,0,0,0,0,0,0,0,0,0,0,0,0,0,0,0,0,0,0,0,0,0,0,0,0,0,0,0,0,0,0,0,0,0,0,0,0,0,0,0,0,0,0,0,0,0,0,0,0,0,0,0,0,0,0,0,0,0,0,0,0,0,0,0,0,0,0,0,0,0,0,0,0,0,0,0,0,0,0,0,0,0],"id":13,"left_children":[1,3,5,7,9,11,13,15,17,19,21,23,25,27,29,31,33,35,37,39,41,43,45,47,49,51,53,55,57,59,61,63,65,67,69,71,73,75,77,79,81,83,85,87,-1,89,91,93,95,97,-1,99,101,103,105,107,109,111,113,115,117,119,121,-1,-1,-1,-1,-1,-1,-1,-1,-1,-1,-1,-1,-1,-1,-1,-1,-1,-1,-1,-1,-1,-1,-1,-1,-1,-1,-1,-1,-1,-1,-1,-1,-1,-1,-1,-1,-1,-1,-1,-1,-1,-1,-1,-1,-1,-1,-1,-1,-1,-1,-1,-1,-1,-1,-1,-1,-1,-1,-1,-1],"loss_changes":[3.864098E12,9.7568994E11,1.286852E12,3.8605813E11,2.1181799E11,2.5625749E11,5.7945306E11,2.4501582E11,7.150102E10,1.6408432E11,1.2111177E11,2.2896476E11,5.2401127E10,9.5064346E11,6.246118E10,1.26900716E11,4.086802E10,4.026367E10,1.4211809E10,3.367825E11,5.007442E10,8.149189E10,4.7458877E10,1.0008425E11,5.359239E9,1.8964357E10,5.6170643E10,6.206744E10,1.2942283E12,3.78359E10,2.544694E10,2.6546194E10,8.110165E10,3.4035302E9,3.482008E10,2.6776189E10,1.5301362E10,1.6120218E10,2.390573E9,5.791095E10,2.046827E10,2.361686E10,4.5335134E10,1.7545636E9,0E0,3.88037E10,1.440749E10,4.104572E10,8.077992E9,3.1533466E8,0E0,3.1450675E9,1.1695493E10,1.891718E11,1.5448099E10,5.2650705E10,2.273453E9,2.0025794E12,6.4340492E10,1.5067054E10,6.2543954E10,2.9715775E10,1.4540145E9,0E0,0E0,0E0,0E0,0E0,0E0,0E0,0E0,0E0,0E0,0E0,0E0,0E0,0E0,0E0,0E0,0E0,0E0,0E0,0E0,0E0,0E0,0E0,0E0,0E0,0E0,0E0,0E0,0E0,0E0,0E0,0E0,0E0,0E0,0E0,0E0,0E0,0E0,0E0,0E0,0E0,0E0,0E0,0E0,0E0,0E0,0E0,0E0,0E0,0E0,0E0,0E0,0E0,0E0,0E0,0E0,0E0,0E0,0E0,0E0],"parents":[2147483647,0,0,1,1,2,2,3,3,4,4,5,5,6,6,7,7,8,8,9,9,10,10,11,11,12,12,13,13,14,14,15,15,16,16,17,17,18,18,19,19,20,20,21,21,22,22,23,23,24,24,25,25,26,26,27,27,28,28,29,29,30,30,31,31,32,32,33,33,34,34,35,35,36,36,37,37,38,38,39,39,40,40,41,41,42,42,43,43,45,45,46,46,47,47,48,48,49,49,51,51,52,52,53,53,54,54,55,55,56,56,57,57,58,58,59,59,60,60,61,61,62,62],"right_children":[2,4,6,8,10,12,14,16,18,20,22,24,26,28,30,32,34,36,38,40,42,44,46,48,50,52,54,56,58,60,62,64,66,68,70,72,74,76,78,80,82,84,86,88,-1,90,92,94,96,98,-1,100,102,104,106,108,110,112,114,116,118,120,122,-1,-1,-1,-1,-1,-1,-1,-1,-1,-1,-1,-1,-1,-1,-1,-1,-1,-1,-1,-1,-1,-1,-1,-1,-1,-1,-1,-1,-1,-1,-1,-1,-1,-1,-1,-1,-1,-1,-1,-1,-1,-1,-1,-1,-1,-1,-1,-1,-1,-1,-1,-1,-1,-1,-1,-1,-1,-1,-1,-1],"split_conditions":[4.41E2,2.9E2,1.3E1,1E0,1.12E4,3.7E1,4.9E3,7.27E4,6.5E4,4E0,2.003E3,5.9E2,2.019E3,3.5E2,2.12E4,1.47E2,2.011E3,4.5E1,1.6E5,8.5E1,2.3E1,1.76E2,9.4E4,2.023E3,2.7E2,2.012E3,4E0,2.5E1,9E1,1.15E1,2.2E1,4.9E1,4.4E1,2.008E3,1.8E2,1.53E2,2.38E2,4.4E1,2.245E5,2.3E2,3.31E2,2.017E3,5.61E2,9.65E4,1.145367E4,4.7E1,2.014E3,2.6E1,2E0,1.39E3,7.1236714E3,8E0,5E0,3E0,1.41E1,2.013E3,1E1,2.019E3,4.7E1,4.93E2,1.19E1,3.14E2,2.5E1,2.669346E2,-4.0044956E1,9.934511E2,3.4805606E2,-6.855922E2,-4.584758E2,-2.560571E2,8.322929E1,-6.677129E1,6.851617E2,6.537302E-1,-3.3335022E2,-3.073127E2,-5.3505566E2,-5.9861444E2,-7.335312E2,1.1229647E3,4.248593E3,1.5059356E4,8.487584E3,4.879488E3,9.4445844E2,4.2612197E3,1.3974995E3,-3.3236208E3,6.947295E2,2.645296E3,1.1066034E3,-3.5040488E2,6.4320233E2,8.360338E3,4.3806914E4,1.6454954E3,1.3461253E4,8.792078E2,4.02261E3,-1.5198999E3,-5.2832017E3,1.3022635E3,-4.1922026E3,1.92666E3,8.560426E3,1.7977555E3,-1.0741348E3,-3.6655974E3,1.115636E4,4.0287927E3,6.62575E2,1.5425345E5,1.778786E4,4.2199227E4,1.8705146E4,6.329737E3,9.494658E2,1.9953264E4,8.733706E3,6.9186772E3,2.525477E3,6.8615347E3,1.2994805E3],"split_indices":[4,4,0,6,10,1,10,10,10,0,3,10,3,9,10,4,3,7,10,1,0,1,10,3,9,3,0,0,10,8,0,7,7,3,4,9,1,7,10,9,4,3,1,10,0,7,3,1,2,10,0,12,0,0,8,3,12,3,7,4,8,9,0,0,0,0,0,0,0,0,0,0,0,0,0,0,0,0,0,0,0,0,0,0,0,0,0,0,0,0,0,0,0,0,0,0,0,0,0,0,0,0,0,0,0,0,0,0,0,0,0,0,0,0,0,0,0,0,0,0,0,0,0],"split_type":[0,0,0,0,0,0,0,0,0,0,0,0,0,0,0,0,0,0,0,0,0,0,0,0,0,0,0,0,0,0,0,0,0,0,0,0,0,0,0,0,0,0,0,0,0,0,0,0,0,0,0,0,0,0,0,0,0,0,0,0,0,0,0,0,0,0,0,0,0,0,0,0,0,0,0,0,0,0,0,0,0,0,0,0,0,0,0,0,0,0,0,0,0,0,0,0,0,0,0,0,0,0,0,0,0,0,0,0,0,0,0,0,0,0,0,0,0,0,0,0,0,0,0],"sum_hessian":[7.574E4,7.4695E4,1.045E3,7.1288E4,3.407E3,5.72E2,4.73E2,3.5472E4,3.5816E4,9.68E2,2.439E3,4.8E1,5.24E2,1.91E2,2.82E2,1.9315E4,1.6157E4,1.575E4,2.0066E4,3.61E2,6.07E2,2.2E1,2.417E3,8E0,4E1,2.13E2,3.11E2,1.49E2,4.2E1,1.39E2,1.43E2,1.134E4,7.975E3,2.664E3,1.3493E4,2.226E3,1.3524E4,1.407E4,5.996E3,2.46E2,1.15E2,3.81E2,2.26E2,5E0,1.7E1,1.815E3,6.02E2,3E0,5E0,1.1E1,2.9E1,1.1E1,2.02E2,2E2,1.11E2,1.36E2,1.3E1,4E0,3.8E1,3.2E1,1.07E2,7.2E1,7.1E1,5.213E3,6.127E3,3.38E3,4.595E3,1.3E3,1.364E3,8.916E3,4.577E3,1.544E3,6.82E2,1.549E3,1.1975E4,4.645E3,9.425E3,3.988E3,2.008E3,1.46E2,1E2,6E0,1.09E2,1.5E1,3.66E2,1.25E2,1.01E2,4E0,1E0,1.82E2,1.633E3,2.46E2,3.56E2,1E0,2E0,1E0,4E0,1E0,1E1,8E0,3E0,1.99E2,3E0,1.38E2,6.2E1,8.8E1,2.3E1,2E0,1.34E2,1E1,3E0,1E0,3E0,1E0,3.7E1,2.5E1,7E0,5E0,1.02E2,2.3E1,4.9E1,7E1,1E0],"tree_param":{"num_deleted":"0","num_feature":"13","num_nodes":"123","size_leaf_vector":"1"}},{"base_weights":[5.424394E1,-7.1146124E2,5.4734035E4,-1.616442E3,1.1019082E4,2.5722113E4,8.968994E4,-2.8317415E3,1.5780641E3,2.3015584E4,7.2289355E3,9.345133E4,2.0050777E4,1.3064809E5,6.4169137E4,-1.1978477E3,-4.171189E3,1.4081865E2,6.7757207E3,1.7427771E4,4.374146E4,5.182478E3,1.2919929E4,2.1760286E5,5.5309426E4,8.739041E3,2.7623842E4,9.146984E4,2.621965E5,7.820735E4,4.9002883E4,-2.055519E2,-3.8518308E3,-3.3003152E3,-5.195543E3,3.5235776E3,-9.7656213E2,5.5716006E3,1.4112743E4,1.5289621E4,3.2917957E4,6.3822E4,1.8154816E4,1.1341661E4,2.4392595E3,1.8627662E4,6.44065E3,3.051093E5,1.0841367E5,3.4913832E4,6.320266E4,-1.4343098E4,1.2148457E4,3.6640996E4,1.0792077E4,1.0047765E5,3.8178652E4,7.1779325E5,1.9354297E5,6.2516246E4,9.594873E4,3.6169082E4,6.1334336E4,1.09118225E2,-2.051894E2,-5.9016473E2,-3.2833386E2,-5.259418E2,-2.6474533E2,-6.207152E2,-4.783727E2,2.3643257E2,8.6255664E2,-1.298284E2,9.232526E2,9.386683E2,3.7503967E2,1.0046553E3,1.8821803E3,2.0391943E3,1.0581508E3,7.9204766E3,1.8287793E3,3.4471719E3,7.623371E3,1.20680824E2,3.7805063E3,7.765044E2,2.0666519E3,2.3043323E3,1.6753075E2,3.0904868E3,1.2227974E3,5.697592E2,5.8489995E3,3.4636E4,7.0053315E3,1.5632203E3,1.2384353E4,8.352477E2,3.6569185E3,7.325203E3,3.8314597E3,-6.1448566E2,-3.4070593E3,1.0072817E3,4.1578823E3,1.8650853E3,7.717971E3,1.6640569E3,-8.23616E2,1.644374E4,8.757851E3,1.7615426E3,6.109298E3,1.4654078E5,1.645377E4,4.008926E4,1.7664736E4,7.8313296E3,4.8107456E3,1.5998343E4,8.492806E3,4.5272554E3,-2.0491849E2,6.1850454E3,1.2345062E3],"categories":[],"categories_nodes":[],"categories_segments":[],"categories_sizes":[],"default_left":[0,0,0,0,0,0,0,0,0,0,0,0,0,0,0,0,0,0,0,0,0,0,0,0,0,0,0,0,0,0,0,0,0,0,0,0,0,0,0,0,0,0,0,0,0,0,0,0,0,0,0,0,0,0,0,0,0,0,0,0,0,0,0,0,0,0,0,0,0,0,0,0,0,0,0,0,0,0,0,0,0,0,0,0,0,0,0,0,0,0,0,0,0,0,0,0,0,0,0,0,0,0,0,0,0,0,0,0,0,0,0,0,0,0,0,0,0,0,0,0,0,0,0,0,0,0,0],"id":14,"left_children":[1,3,5,7,9,11,13,15,17,19,21,23,25,27,29,31,33,35,37,39,41,43,45,47,49,51,53,55,57,59,61,63,65,67,69,71,73,75,77,79,81,83,85,87,89,91,93,95,97,99,101,103,105,107,109,111,113,115,117,119,121,123,125,-1,-1,-1,-1,-1,-1,-1,-1,-1,-1,-1,-1,-1,-1,-1,-1,-1,-1,-1,-1,-1,-1,-1,-1,-1,-1,-1,-1,-1,-1,-1,-1,-1,-1,-1,-1,-1,-1,-1,-1,-1,-1,-1,-1,-1,-1,-1,-1,-1,-1,-1,-1,-1,-1,-1,-1,-1,-1,-1,-1,-1,-1,-1,-1],"loss_changes":[3.1712087E12,7.929842E11,1.0584814E12,2.6922906E11,2.4309013E11,2.1822416E11,4.8708164E11,1.0993723E11,1.4277157E11,1.4794064E11,4.729887E10,1.9632112E11,4.5160776E10,9.088611E11,5.876233E10,5.9601404E10,2.4608834E10,5.659883E10,3.649685E10,3.304761E10,1.3859317E11,5.054201E10,3.9635665E10,6.2469538E10,3.4279014E9,1.7015324E10,4.771712E10,6.3849103E10,1.1434873E12,3.6037263E10,2.0570964E10,3.9444533E10,7.157727E9,1.9072942E10,5.2539884E9,2.1969678E10,3.698216E10,2.4685937E10,1.0974142E10,2.1212152E10,8.1167925E10,5.2743766E10,4.025132E10,3.058955E10,3.257574E10,4.448574E10,1.9197975E10,2.421742E10,6.6536817E9,2.221783E8,3.1960023E9,4.3191025E9,1.1004426E10,1.4879579E11,1.260114E10,8.4601864E10,9.290052E9,1.8269943E12,5.8805584E10,1.5124726E10,3.5106587E10,2.549085E10,1.0568991E9,0E0,0E0,0E0,0E0,0E0,0E0,0E0,0E0,0E0,0E0,0E0,0E0,0E0,0E0,0E0,0E0,0E0,0E0,0E0,0E0,0E0,0E0,0E0,0E0,0E0,0E0,0E0,0E0,0E0,0E0,0E0,0E0,0E0,0E0,0E0,0E0,0E0,0E0,0E0,0E0,0E0,0E0,0E0,0E0,0E0,0E0,0E0,0E0,0E0,0E0,0E0,0E0,0E0,0E0,0E0,0E0,0E0,0E0,0E0,0E0,0E0,0E0,0E0,0E0],"parents":[2147483647,0,0,1,1,2,2,3,3,4,4,5,5,6,6,7,7,8,8,9,9,10,10,11,11,12,12,13,13,14,14,15,15,16,16,17,17,18,18,19,19,20,20,21,21,22,22,23,23,24,24,25,25,26,26,27,27,28,28,29,29,30,30,31,31,32,32,33,33,34,34,35,35,36,36,37,37,38,38,39,39,40,40,41,41,42,42,43,43,44,44,45,45,46,46,47,47,48,48,49,49,50,50,51,51,52,52,53,53,54,54,55,55,56,56,57,57,58,58,59,59,60,60,61,61,62,62],"right_children":[2,4,6,8,10,12,14,16,18,20,22,24,26,28,30,32,34,36,38,40,42,44,46,48,50,52,54,56,58,60,62,64,66,68,70,72,74,76,78,80,82,84,86,88,90,92,94,96,98,100,102,104,106,108,110,112,114,116,118,120,122,124,126,-1,-1,-1,-1,-1,-1,-1,-1,-1,-1,-1,-1,-1,-1,-1,-1,-1,-1,-1,-1,-1,-1,-1,-1,-1,-1,-1,-1,-1,-1,-1,-1,-1,-1,-1,-1,-1,-1,-1,-1,-1,-1,-1,-1,-1,-1,-1,-1,-1,-1,-1,-1,-1,-1,-1,-1,-1,-1,-1,-1,-1,-1,-1,-1],"split_conditions":[4.41E2,2.5E2,1.3E1,2.02E3,1.12E4,2E0,4.333E3,1E0,1.57E2,3.9E2,3.35E2,1E3,2.019E3,3.5E2,2.12E4,1.44038E5,1.03E5,5E0,2.4E1,5.56E2,4E0,4.7E1,5.3525E4,2.023E3,2.7E2,2.015E3,4E0,2.845E3,9E1,1.28E1,2.2E1,4.9E1,2.009E3,6.7E1,8.1E1,2.023E3,2.4E1,5E0,1.98E2,6E0,5.59E2,8.5E1,2.3E1,2.94E2,2.004E3,4E0,1.4E1,5.9E2,2E0,1.39E3,1.34E1,1E1,1.49E1,3E0,1.34E1,2.021E3,1.34E1,2.019E3,4.7E1,1.12E4,4.6E2,1.4E1,2.5E1,1.09118225E2,-2.051894E2,-5.9016473E2,-3.2833386E2,-5.259418E2,-2.6474533E2,-6.207152E2,-4.783727E2,2.3643257E2,8.6255664E2,-1.298284E2,9.232526E2,9.386683E2,3.7503967E2,1.0046553E3,1.8821803E3,2.0391943E3,1.0581508E3,7.9204766E3,1.8287793E3,3.4471719E3,7.623371E3,1.20680824E2,3.7805063E3,7.765044E2,2.0666519E3,2.3043323E3,1.6753075E2,3.0904868E3,1.2227974E3,5.697592E2,5.8489995E3,3.4636E4,7.0053315E3,1.5632203E3,1.2384353E4,8.352477E2,3.6569185E3,7.325203E3,3.8314597E3,-6.1448566E2,-3.4070593E3,1.0072817E3,4.1578823E3,1.8650853E3,7.717971E3,1.6640569E3,-8.23616E2,1.644374E4,8.757851E3,1.7615426E3,6.109298E3,1.4654078E5,1.645377E4,4.008926E4,1.7664736E4,7.8313296E3,4.8107456E3,1.5998343E4,8.492806E3,4.5272554E3,-2.0491849E2,6.1850454E3,1.2345062E3],"split_indices":[4,4,0,3,10,0,10,6,9,4,4,10,3,9,10,10,10,0,0,1,0,7,10,3,9,3,0,10,10,8,0,7,3,4,4,3,0,0,9,0,1,1,0,4,3,0,2,10,2,10,8,12,8,0,8,3,8,3,7,10,4,0,0,0,0,0,0,0,0,0,0,0,0,0,0,0,0,0,0,0,0,0,0,0,0,0,0,0,0,0,0,0,0,0,0,0,0,0,0,0,0,0,0,0,0,0,0,0,0,0,0,0,0,0,0,0,0,0,0,0,0,0,0,0,0,0,0],"split_type":[0,0,0,0,0,0,0,0,0,0,0,0,0,0,0,0,0,0,0,0,0,0,0,0,